-2.2933752426446508,-2.200068330381064,1.726566211100514,0.5390708617760296,0.0,3.608242855229226,0.7684996872809345,0.0771674834767011,0.0,3.4541435349571827,-3.419721343582964,-4.03964884185377,8.359144643887307,-1.7338444560279924,3.8382115549948077,1.6468242734270038,0.257860704739892,1.762062104147768,1.8771603771115402,2.601447372274299,-0.07481503382698307,1.869813881677636,3.0721064826885525,-0.6376763301231867,-2.6436359375656338,-1.3117692566745671,0.6704183123420225,5.839633724606107,-1.628155511972529,-1.1451568417313638,1.327140653383117,-0.04613643882147189,-2.53909386326377,0.0,-4.975634239969171,-7.1433523797966005,-0.9777593038998704,0.5371628190576256,3.326877866194353,4.074660324655962
-1.6000033580024189,-7.163595607514638,-4.111670026124149,-1.7959953908592345,4.949360484191837,-0.46561027537945926,-7.388039386083269,-2.973838464626046,1.6409734442264599,0.4653293367168616,3.8201275325019393,0.00822621904433471,-5.691383093060803,-1.0289595883958351,2.3111520960184397
-10.827071785317177,-5.090571257592555,-25.71226559520648
0.0,5.206167179000295,-0.08532790592536177,-2.2350522865122615,-2.9207297396282366,-0.3376233797119359,0.7812109581370401,1.5833486706093187,-5.22924513515103,3.332869843871754,0.5149967254914539,-0.5307042264263797,-8.508085458222093,2.5260882625042087,2.9686420918799152,3.7783319046819557,6.198906156565747,0.0,1.4985050422349036,2.8895811054634244,-4.595375198025536,2.8629237050567253,-1.8050718106141557,1.3465945958198238,3.22013827407443,1.3371971653546852,0.8354175701101707,-1.5104799847472057,-5.424887016300662,4.777372443813522,-1.2537317902119094,2.9890291385159755,-0.8046543364337038,-1.2235330078136908,-0.15259739824825735,-1.7704886149561494,-6.030264531723491,0.502841799470553,-5.7536562296680644,6.058818238643515
2.9316387161179076,4.313635100796407,-5.547263456827692,-5.549829697270485,7.1242637590444415,-1.3759258703755057,-1.888385096170309,-5.512397607595852,-4.374714495278933,-0.540971296400391,1.6674596849569412,-1.6441507435990406,-4.37340511402472,-4.212622509473934,1.4667678022958563
-26.041182673306718,-3.621738045369585,-28.065353363335053
-2.1925237161836204,-3.438514709387578,-0.9048522150643361,-0.03129585336294094,1.2741174760697982,-2.3860863166720296,-0.8823519010560323,3.387191842192458,-0.2497144387665189,1.079395658320194,0.8846900616862192,0.3288028645140918,1.270495759810781,0.8212627576004641,1.7211442180300562,4.609212175220114,0.10048314622798804,0.0,0.9014322090219766,-1.595946292455962,-2.817701870122642,-0.10893078788264832,-0.8007202188331032,1.024806053054181,-7.042773562860456,4.707257073387695,-0.7034420764466054,0.0,2.0195337490181577,-1.0318545318326737,5.61088337608804,-1.221994695250865,-0.7464687597614268,-5.80747555866804,-0.09700090202436917,-7.986625144181813,-7.15752347539118,-1.245841952808985,-2.239430845839591,2.352045832431034,0.36788087362797306,5.683715359600249,-1.6246273954179877,1.086224419991857,3.190502059321942,3.8258985120232736,-1.0209213646150237,-2.745666447792659,-4.630193636763041,-1.3489022196301663,3.8284338786720857,0.7886672578650451,1.065864308885767,-5.267159690820933,-0.7182770010006014,-0.7960178430278375,-4.213170338602773,0.0,-7.465980601850324,-0.9732187775516274,2.672283695112495,3.0524153648248005,-4.409730424949191,-3.9133349161445334,-6.371664263440529,1.4576086069903997,2.5071362013543417,0.7710158792027912,-2.235067725112435,-0.10087439185098945,2.330410655166078,-1.8049765162546185,-2.3323779876014465,7.430621377338023,-0.8303624106106879,-2.347600990433428,0.0075433813111631665,-3.35350884951319,8.005733063832338,-0.910451991160032,2.486338548732257,-1.3047624515325096,2.1224944248350703,-8.79715145449069,0.0,3.6625347731958087,0.8992507407089044,7.624884885056752,0.18201040501446364,2.4187906574811957,-2.6323389903608287,-0.9226622424415947,0.6980342333902283,-0.7943288130648196,0.8536849688860589,0.0,-2.9620391729733764,-0.667940424427591,3.319962476550387,-1.2415839637261534,-2.5354058596467492,2.226900876029856,0.8521825910684121,0.8352490187548187,5.289841194965806,-0.08294983061680916,1.866792286288927,0.0,-1.4883717343740954,-2.1436679965508265,0.0,-5.338277308553442,-2.384407329386679,-1.1097834892334744,-2.933677801419196,0.0,0.0,3.433803628130195,-0.9531297599937671,-1.5599860336767808,0.0,-0.19920261871694478,0.9839539543725997,-1.2049643279942372,3.9561227188377717,-3.80805183018617,1.180198169021938,-0.7545976297680899,0.2832854893728681,-2.643113498887588,3.2090470679783003,3.411343170755053,2.994081626647672,0.4228749871113724,-7.558674141624218,3.158955625935854,-6.748311378581465,0.3113847617699994,6.423983224770372,-0.09659470260579028,1.1064972436756637,-4.085868438117976,-0.9117982175156119,-2.58805252028677,-7.32823303906566,-3.1146961444536037,-0.13948190098300284,7.8026366258918065,-7.27681439625103,-8.839940893510462,-1.0047414382145379,-0.3373533959018722,-3.253392508220396,1.5415695334279969,0.47056462688083056,-0.816346976688771,0.0,-0.5266546746527692,1.011967735426854,-4.934583303946495,-1.2051908950252193,-0.23238291951710466,-8.674731577530766,-2.26667535408295,-0.8442268628533854,-0.632897229991554,-1.5997073689295842,2.306772918610343,-6.587465092396396,-0.9451763862495461,5.456771680524996,-1.966320304896303,2.5199881058606426,-5.688697233117113,4.887516624060749,0.0,4.127973348205472,0.3705678592908874,-0.6799029169360118,1.059681202027726,2.1892434659159896,4.908151240832956,0.9893465741557809,-0.11406972244150715,-0.4254648027785185,-2.9880116779542445,-3.937687793481465,0.3002260506534076,-2.412634546646994,4.084376692317922,0.5086705028567344,1.951727750089168,0.6930703082635803,0.7246395122910592,-2.027082006779124,0.0,-1.8504142014071412,-7.682280117831864,3.649953051520047,-4.4627147333194594,1.6898953156443048,1.3499023280149753,-1.5870738769086943,-4.110210877581025,-1.8208367947118838,-2.0663983104490096,-7.589523232694822,-3.9168938116626193,2.3469816535377834,1.6410375107931183,-4.047461483316101,0.0,-4.133810621651628,5.271772924812323,4.1729653728362575,-3.277179330800863,0.0,5.8519281873714215,0.0,-1.1252953837573578,-3.34735694306322,0.19798283621880586,-0.8120062804136023,-4.839642128520419,0.7811737107733627,7.478896083305636,-4.716737792904679,-1.8025256587694123,-4.86091799248524,-4.379121029386319,-5.463384616399589,-0.23901654549755103,0.0,-5.330976612696134,4.255731501249398,6.476979852006096,-2.772539455882554,-4.047141915392371,-2.339794523131502,-3.6786134475302505,3.7674697504177255,-0.918517083874618,-1.7191995714371746,3.2383950196089746,-0.3413723657565825,-1.7926811809290895,-4.822172198978925,0.0,1.8313643330332907,0.7899277917807491,3.359149268716231,0.684248176793087,-1.8438307061876498,-6.895917921212351,-1.576219425793693,-4.651095456493982,2.699387641516606,1.7593299319902402,0.0,3.9740651030926535,-3.5031200042724095,-3.9153843596233906,0.2667099818188198,0.5482760187132415,4.3725536108325285,-7.2968491388395105,-3.313362995589884,-7.462795060946155,-2.0518771644301435,0.18437639749015344,0.5342506448657511,-3.861214220079905,0.18214887022009463,0.08917623743045666,-2.420251551137168,-3.9887058034937244,-3.234589551561354,-0.8079058839963793,2.4265419022093493,4.933301163307217,-1.1351030996605898,-0.26100779566317855,0.0,-1.2871507161668614,1.0954478038660294,2.114637341230277,3.8844640726370145,0.5024789501420812,2.2865268359338446,3.212531987320587,-3.1497666729216283,-5.624692211171131,4.001707565557939,-7.533436307856756,-2.285589344452558,-2.4594205145887793,2.332642848692173,0.3548558888022805,-2.8868126875671427,0.16764812632225157,0.9415106220778249,0.0,-2.133839177065125,1.8813143737483269,3.907469822830785,-4.531571069787036,-8.921796350388973,-4.8797012434187605,0.47314173163774176,2.532979058032384,5.972411202084391,-0.8356668721215268,-0.6191604737680144,0.100477094337037,-1.1020257013293906,-0.1973854264172915,-3.0232852929546907,5.1549349179117225,1.983314740185054,3.4088253941898286,-0.6671926783178943,-4.682100835789912,0.0,0.0,-1.6729315474406818,2.5159559765782706,6.061123451534455,3.094824361004944,-4.189741457600266,-0.4468348125324043,-5.041439018435704,-0.4343442977748997,0.0,-4.082282198047719,0.0,-0.3004425583537883,-3.871156054815011,0.6300443600632865,2.2206085925328938,-1.0778722556513234,-5.764454711134796,-0.436451599740879,0.6596182273921483,-0.5534110458986353,-2.573826708833401,-0.7351863006604855,5.324203206427844,1.0198348119636362,0.21133530750465823,0.0,0.0,-0.770194213485103,1.0471826819004821,0.3505149905151378,0.23333584450395128,1.82535795576059,-1.376351683927665,-0.07860455046278458,4.059913959383902,-0.7934391277602697,-1.5361559595065726,2.928106533555904,0.0,-2.9118534377176886,0.9780393050776233,-4.188660146587554,-5.406197656644471,-0.9933047634541131,-6.351418695515193,-0.039038120835364065,1.717343843761887,-7.888205273836891,-3.7276305249119406,-1.324484602331446,-3.0676682778234685,1.4405105918542978,-2.843579379896458,-6.420398039414118,-2.5014885509343454,-1.9881105568336177,4.238484653379558,2.2931465319484263,-8.332429377940445,2.9012630654310323,0.08638842571354444,-0.21946784093709382,-1.9957425861670608,-0.4959851148966421,4.630767740517593,4.282639597259797,-2.941919516546276,4.410172054650557,-0.7494501506166988,0.7704707181877415,0.6508667170409502,-0.7193862182120216,-2.5252910976106726,-4.885868312171677,-2.974851411546547,-1.8575998936044495,-1.5180697655492068,1.2634032653352003,-8.710796531507425,-0.11433882805213202,-1.3537675744100888,3.126782071867196,-2.5174739133641744,3.01422070072564,-0.47569879076168275,-0.4174366690811082,1.511229585583308,-3.2580521319082485,-3.683343444464609,4.8951396343282045,5.864690382340915,3.7160088903895963,5.159832921052326,0.0,-0.0346905255059633,-0.7732540235142995,3.1319393351968983,1.6158177007456798,0.11296618537762615,0.39455578855958895,1.8486491723636411,4.141746462108037,-5.206198224053481,-1.4615468489491983,4.172536913064666,-8.470570216614705,-4.927757681621662,-1.0119203710702556,-5.015830354547983,0.26910505097727777,-2.2835158565607,1.0732092087555292,0.9698721085604415,-4.585657633007636,-4.970255162715728,2.736577893330542,5.428696326351646,2.4859744025279147,0.27882738093721127,-7.105023775008831,-4.991575998244267,-3.8139711521923285,-4.38246527793379,4.876275417383259,1.4101641618363847,1.5554751330794405,0.7194373544176514,-3.0680368071632738,1.620517422993839,-0.11604358135082937,2.5075442062778817,-3.2380217809134635,1.8485977080889093,-2.1602433381169432,-0.5508237739727482,-2.1099528550117745,4.418458373527864,-0.30288384372721766,0.9974711677361126,-2.61834434264936,0.7250477708480144,-2.646218264793048,0.0,2.187591211335461,-5.544889585746945,1.8343129894538759,1.0875453820884224,-7.364431480221148,5.904133947151983,-3.573436819199897,1.0704307142384675,-1.8110002629197886,-3.797999499645451,1.0916885221890003,-0.05543534280127682,-4.854636729716557,-0.4297427121830407,-1.4826998290880926,4.41610028807769,-7.513352541889826,1.6864707085217305,-0.5264848033125955,-1.7757522341360419,-5.506547821831663,0.48886793563856223,-4.207444299059906,0.15997299488012517,0.015781701603249765,0.8022843843791614,0.0,0.0,-5.567076352345662,1.1175156820787602,-3.86616440508932,4.713496394858207,0.8097292014925255,-0.20155664854564193,-6.944718338891302,1.5949015473476678,-2.690778766621348,1.5754970326872084,-2.62610271575116,-0.8080355744156635,-0.17129261988365407,3.3734548831682374,3.2439649474365906,-8.312354775906499,5.565888340902396,1.1900777252550128,3.9345338359894413,6.740543036502192,-1.1567637628430105,0.5312079446973597,0.0,-3.5168532274875726,-0.7548689735233922,0.03526075153117114,-0.4804089132653995,1.5474951141588549,6.264329053871663,-1.0192430161411243,0.701648644786043,-1.403350893746159,7.295480397463841,-1.2863000486638967,0.9046323135678795,0.0,0.789921909448501,-0.7293630714491122,-2.283688309104193,-6.336228950072851,1.7209116473823975,1.2978781503310466,0.47927222629694277,-1.3669847980589074,-2.6828458453275936,0.0,-1.2260252653653212,-4.603874185855975,-2.339626656996938,1.623617654084169,0.0,0.5204568026500866,-8.913518817702498,1.344414228590306,-0.15174947662962657,-2.325761622166505,0.12496133986773239,-1.1345352303030787,1.3308467652142584,-0.9243254235038383,-1.0891107136288634,6.6527356043970265,0.7379673781111982,4.973122148338801,1.0485693656703092,-0.48497690001013927,2.4738031983872926,4.403924289708517,5.724328032101415,4.348441569203558,-2.133862632034708,5.499060262495883,-4.319197743640927,0.26322861591252655,-3.3859561621432506,0.8086518717995488,-1.8931194052697962,-6.629047641993315,5.541547218822134,-2.6601370375124835,-0.9454691085944366,-4.2321403337685215,2.8874111199408063,5.568979555533237,1.732188847018847,-4.744090717915852,2.8723309714691485,-0.7469194129933768,3.6839537621526137,0.4862730263645709,0.9933705433780139,-2.164784832212052,1.403515179456402,-8.293774036076005,-0.07255186202641806,-1.1702948965005953,-0.3450671121855232,3.311615444397094,-6.838250313483096,6.992651773047518,-7.403613803511746,8.406040824265688,1.8927779021334108,-7.5549288017820695,2.7337071914594846,-2.070044730586571,-1.8236812720675766,3.3990894912642684,-0.11900565581628131,2.537367212687106,-1.5694159960626934,-0.6171030166180114,3.7273829301322423,-2.2611135202152233,1.34962498785226,0.8407375560185262,0.2154074442126963,-2.1400935330548947,1.2178353152151187,0.8549450726390129,0.38176967072052836,3.374516267371799,-0.1097310487658012,1.0504699285836292,-5.400429366944142,3.6482012491245266,-7.980140852455072,-4.634778753693676,1.0935341083259107,-3.6218905653887186,-0.6562174300698924,7.443860381389587,6.88287490714821,0.8414004043034281,-1.064330940067618,-0.9289596436883705,-1.923616355780896,3.2975293635223486,-3.908675687404883,-1.2831508366494861,1.094551425720464,1.2960596619749498,4.674879945137157,4.034104453269295,-0.7232874297201313,-1.9116738013410772,0.0,1.1969200189934694,0.0,2.6734907230138116,-5.335447456070403,3.7797389363272216,5.399048899372115,-1.9854720317306154,0.8049347654472796,-0.6434567242331024,-4.433379975718536,4.115407568152165,-5.523261279247906,0.9852966882198115,-1.5331123712368546,-4.297471044491091,-5.243782272998015,-2.169843166841437,2.166599759780578,-3.9314172083245587,-6.0728774082495365,0.7672619815134968,0.0,0.2143990350355517,-0.6746916747172405,1.333246111241138,-4.7668024067247385,-3.682907136063032,1.888469219162301,2.9781814250710257,-2.2338932654647685,1.8119809651438092,-4.6271407715765145,1.586469102807975,6.008523641736689,-4.027185802240175,-2.9211368538348714,-2.3987092965891037,3.8597711080176635,-0.5836465945871033,0.8109674910327155,1.9620326937176478,-3.42043020337734,-7.7164444242218835,-8.00062372594749,0.0,-0.6438214136966123,-4.742602245108468,1.0167600313713154,-1.2922972669303758,-5.5946376294172095,-3.2239912160844773,0.27426157523696504,2.7829309787725895,0.7985186930261556,-3.8227139657942204,-1.99051389219693,2.9949925335878196,5.583626944914286,0.0,-1.1511532274709526,5.604709493196773,-1.6119586911903283,1.3255822694594614,-4.751152910825847,0.30915458413725094,-4.486811400518205,-0.09434729021485744,0.36471745866874383,4.950905647935947,1.8190346194536176,0.7169105905948672,0.8388395618190496,3.0500305206255716,-1.9505378003280232,-0.0019429567426884065,-3.882394324778207,1.2927253107278482,-4.266900557906074,-2.129986152620415,5.298943932388061,-1.5832749024090087,-8.303444734584073,3.636323884896027,-0.48613659430071476,-1.774644300694349,-0.5434610105862783,-0.024688222715414043,2.0833106776001498,-4.863087195489117,-0.9251019855744601,-7.218706615230116,-2.9328119387847646,-0.11458039817660626,-2.774501347307905,-4.839561334562615,-0.5789212609643082,0.9432768789036046,-6.864429044519331,-3.220933042213357,-0.8172431761430957,-0.41323867877054865,-6.128665702131197,0.34279519528440383,1.601497706914384,0.0,3.502589290199131,1.3496647843517557,0.693979436650696,-2.017278912176791,4.707455976962136,2.3760159249820396,-6.544474618211555,4.487357437343355,0.993192974654048,-1.2184807540285476,0.0,-3.2105386868268053,-0.1924173566923717,0.0,1.4317475911852453,-8.316819137373589,-4.2030340661230445,-2.77708342384544,-2.662119171198637,-1.6533849089019643,0.28928390721144204,-1.2640130709897934,-4.271165281071323,0.500924205841404,-3.1949367290076713,-0.9920138544021032,0.3079999413689981,0.6761155893351066,0.0,-7.5674633859540545,-8.767491954411977,0.6716158848153597,-6.618564386341599,6.371753999183409,0.9021715530008168,-1.9900621986143703,-0.41502876245636466,1.5530973031931086,-4.4719762645386885,-4.791418544787361,3.2017305151175313,0.0,-0.24846815082327467,-2.551743295299831,8.930818219792705,-0.6262415897960714,-4.189526008541382,5.571827131545177,1.3966666352205257,-0.949346587897334,4.319732082075827,3.7242041662791645,0.748850959969065,-2.823485739418299,7.7034886991429286,-2.4419535455571943,0.6559419169776585,1.386629187040156,-1.3829413679307965,-7.16946997394433,-0.25147074437677996,2.4145303352021736,1.212002463086769,0.8449883824909081,-1.3344350401638758,-2.299512999874942,-0.28665074453722017,-4.136386434339292,0.16090191939631848,3.161142020584399,-2.5828878951735343,4.2474359373683495,0.9467059432850499,6.727046955655253,2.292522068908951,-3.3719474118754222,-0.58747071138077,-6.759120809803976,-2.1868059494185736,0.0,2.191433231382833,-0.1401730196283416,-0.05671514166860292,0.2947853842048547,-1.5156853301000326,-5.021699574654277,-3.652372884605727,-3.3907107535630967,4.6998875750429665,-0.7716214996594815,0.0,-1.442004080263051,-9.45133423340534,-0.5444930505214118,2.606289579092991,-1.8416894942198236,1.07794103501942,3.692649626720902,4.6530936916879275,2.0116889097987674,0.0,0.0,-7.150941820417246,-4.93692414289747,-0.9488536783273605,-8.731493039908301,-6.361663403128808,-3.8380893844065906,0.055700014608452086,0.4812924757883388,-1.8893094244893516,1.1005379255397896,-4.082216115533051,-3.360163283599533,3.968998215779447,0.9589654032134316,0.09747028839507754,-0.2718024580706533,0.0,4.363841134848251,1.1780240317103077,-4.946889072553736,3.274449346582882,-1.0138818047593188,1.8029894749370512,5.494326435959027,5.632006190623906,4.811029507708604,2.175471127244499,2.3995511948796286,-1.7273753098070947,-1.6691393576392413,-0.49313469775250585,0.0,-0.5323170842531325,-0.8484749257764588,-1.666002494725443,-1.7520682137462322,1.151991786304748,0.7925590231327131,2.3257487061160216,1.518057130741426,0.5580378120789409,0.47864465272150714,-8.764879224755308,-7.61504268567522,-4.888432398672115,6.488193939838262,-2.8314934459234053,0.4176322267793211,0.30181417326581794,-2.8301960913874655,2.113274665045481,-6.1484871528568785,0.8642104237061543,-0.2139253040662168,1.2876633221141363,0.22948737927019502,-3.6675344798200773,7.038632963138488,2.4366967603690246,0.19487896090711,5.5305352863516735,-6.642401026148364,-2.844405966178272,1.1943309480842768,1.3136465755185933,-2.628696429755459,-6.948083472238678,4.002449524573155,-0.4646307516881254,5.049533714677766,2.495880755917538,0.8872315028359141,-5.873828235543274,-6.568731437006804,0.24168095339520668,3.118379960704119,-1.4793979033688376,1.0254446440504674,2.2132625517478353,4.210722647242491,-2.9969102739523756,-0.06097728165119498,1.4922370551553077,-0.49243864665734005,3.4300186548492198,0.5047387781847618,2.226511498449389,6.613284717250976,-4.170572099673138,0.3658229975761188,-0.04473050905437359,-0.1806660150145193,2.2683618308272466,0.12499586226325299,-0.31806557509450883,0.24938743452987233,-1.7206703957958553,-5.548148822816957,-1.9755888593369322,1.123147869230574,-4.203129936176028,0.0,-0.04282134284014405,0.0,3.7814445585516356,-1.6401524351585908,1.9576290248495694,1.2825131979040414,-8.16792098742295,0.0,0.7652222878767188,-0.3254483764510343,7.168132881449254,-0.9106877674673188,-3.8070922282103847,-1.4498520608884395,-3.2605742978877124,-0.3579157931328536,1.131738440065555,-0.8975939531408414,-0.09974273888411345,-1.9785028254706973,-1.4846167038526983,-4.743545164741055,0.38860867048201353,-3.7608521203909677,0.0,0.11479221578838672,-1.3344169519005016,7.247887228740933,-1.076456102203278,0.0,-0.35212609459947375,-1.0776428542256473,-4.166393151903684,0.0,0.48813366129666025,-2.5742389336253364,-1.5052991237547926,-4.147870457900581,-1.5383450187389007,-0.9797793690536254,-5.514788656301741,2.9098843458721206,-2.9902531400869963,-1.2826215046282234,-0.12172182041862323,-0.6750946125402724,-1.4658681713615285,1.2060102595096323,3.325827878607516,-3.9789519130205564,-0.6408847001815415,0.6639398852042224,0.7047864913036064,-2.6966664041530497,-0.8521123778929744,0.18238478601632968,-0.2125594362508072,3.543577894095405,1.5048598346469566,-0.8147539458089814,0.0,-2.3985657262919555,-3.1799025416648963,3.661179292030825,1.9501644995418446,0.5172975258557289,-3.3368959250961154,1.6746045393944937,-5.610637329718152,0.983160499139043,3.68553244066711,3.379279821218459,0.30415490628667774,-4.17218627565852,-3.208624778905448,0.4019818315512409,5.38880596642731,4.9033562461183005,-0.46899524486437294,-2.4356136263782595,1.4324672206042983,-3.9240103926583556,-3.5730317982180395,-5.916505645060931,-0.9847972401603209,0.29068854379329534,2.6594804002635746,2.895477544790462,3.8164926450121124,0.9642193205074601,0.8911987715362818,-3.1917537191236875,-3.2107778952836297,-0.9356337629388418,1.9822395471698053,0.6491169366534049,-0.7639074624081745,3.1047324212887606,-1.3708680051182132,-8.038738958164474,-1.0708408378349161,7.960828346389056,-2.338686044886929,1.5208635276353815,0.2104582190437947,0.08928235917222138,5.671622645604903,-2.282372677052913,-5.735134140529561,-2.3401547336971493,-1.25213631934579,0.05021070518472637,-3.770373586554374,2.2159068164293734,-1.5129389011197936,1.1791328099825649,7.2688963147753505,-1.244015545855308,3.919746473069816,-4.444863020627476,-0.45329534244274816,-6.278227183770952,6.995619677828797,-7.720127149079773,1.2237804039503508,0.7314302044933931,-1.1041773977539135,6.214953801298607,-5.55937858902346,3.899838950914524,0.5948298995445872,-1.167335825009898,4.116660397496141,-0.07566479651478475,0.0,-4.582272263950235,1.535711718983856,1.3998539967352108,4.599592696432756,-3.5119513638559576,-0.5865517533170096,0.0,-0.7283452523856867,-3.390980359555166,-0.47195964169650306,5.450902376318842,2.3712172983015867,-0.19981536187648974,-0.12711172377992663,-1.055891393692585,-3.8109210902411856,0.01748784791017366,3.4711628220431177,1.563915148201915,-4.761954857125211,5.362048519034269,0.0,-8.295148977299135,-5.535825780542072,-0.668522166996293,0.903607829725971,0.19188627804326774,0.3245099746385822,0.11980061400275144,-0.6169910262072384,-2.9641639405165607,3.4064250149801465,-9.592726988496334,-1.7371407789201685,-3.0531466594245185,0.7939858087455965,0.035362810827683444,2.375193776681373,1.9271022182010065,-0.33591654227728296,-6.909653704180748,-1.5733872941721503,5.940773949924933,1.3824751693548278,1.1094412301464986,-0.44488742765145584,1.4023198072138734,-1.4693931586582298,-1.4252591390831875,-4.172552640076065,-2.127089900211117,-0.0861837303021793,-0.2497115611013656,-8.440811619362472,3.34450389894411,2.3267188905389333,-4.727490836216001,-0.9928756023415597,-0.01054105737118638,-5.723574177291539,-1.3124384003712324,2.9731648769854324,-1.631254045859849,-3.708460886425448,0.04116574969892539,-2.313505388768732,0.5907275904102973,1.4555599017297294,0.04621196709203146,1.8038335910465733,-1.590048455146867,-0.052217015719478455,-0.9128427237590614,2.3666140015516426,0.6750735301090199,-2.4723171183324792,-7.6942615773314476,-7.356913896087778,-1.0045408907724638,-1.2912611715610385,0.8040823066203003,0.7205659159226245,3.071784796722284,2.4211687243393705,-3.572587148795918,-0.9930643951291344,-8.273295919381379,-6.565811634173125,-6.111040262236529,0.31021885181192266,-9.253539552346545,-0.37819793252148237,-0.9555708945099541,-1.9703071767718117,-1.9375557840044177,0.0,-2.2794273940434797,-0.29302774729596837,-1.7578073669074332,1.9061421727173624,-2.666123647752344,5.108101925953019,-2.3346693476919196,-0.3738944803542732,-2.8788189857419644,0.7966933863341052,2.116603563116331,1.2517786510400413,-0.5216948343437893,0.15595024571816496,5.783859166820745,1.8808995360468428,-1.4424154574537633,2.482953453656209,2.284545234080119,-0.030719994822852925,-3.946816936436926,2.9358667189749577,-2.940821989262845,-5.511457046025655,8.860941904195617,7.446413156809775,-2.3586560220410115,-6.538268387192683,7.758646309556932,3.8916226053845184,4.482336731515998,3.32870291273321,3.5097077698549386,3.0895930522240325,5.098356646699085,5.226631472401686,-0.1685156205423325,3.945779745849491,-0.493659791039914,-4.466272681706763,0.0,-8.22513458354669,1.1462721978850936,-6.337579461186573,-0.8796041219873676,3.0496619111690624,-0.431920222325366,-5.5754638189868615,0.97455754226773,-8.166463649445918,0.8297187207879034,2.1049715095474277,-0.6294861939705164,5.952768153374352,-6.753894400573717,-2.368366573380896,-4.167472747730054,-2.0397055655521665,-1.9378594765412083,3.1849387957082036,5.014147382581651,-7.031515846414415,-6.870939844343662,8.211445721394629,-0.23634472526805705,3.7935062143504483,5.410493695535083,-3.864693721315997,-0.6260838648344297,5.378432526179542,-0.1149742247780916,-0.5032431213319077,4.515245356073315,-0.873760256488717,0.8961634738822624,2.82127730802635,-1.470103765556512,0.1973975932653338,0.932222950978792,0.0,-1.9417086475015037,5.455995701725577,0.48305851956340184,0.3186083251546986,-1.6597565884550063,-0.7765031207846943,3.922698616272986,0.5775880597394324,-4.071316492252974,-1.145749265852945,-0.38827065819783757,0.8016228858565865,-1.1211738673298153,-3.88757290363845,-4.540987058054849,-5.614593634707665,1.9941622383254365,3.9072034902621873,4.042849070814713,1.1343664203062795,-0.2364839517151125,0.5433982866689021,0.28231879836930107,-4.718563938975867,3.043603397705601,0.31931740779960915,-4.133096377081538,-7.522362137601259,0.7475665913337173,1.3535841697046869,-1.3090729856373982,1.4259200553983864,-0.32738115602074014,-0.3950338601984835,-0.325418809836296,-1.4646034616751884,-2.7623978726951623,5.892547893157957,3.440457985182505,-1.5696680617373797,1.1370196525675336,0.807268788108067,-9.068336654905469,-5.529333915959651,0.0,0.0,0.0,-0.45542240680308477,1.1184828651834555,-6.315108686722606,2.310755200556458,-0.0591784108622917,-0.7611394758109762,4.7082816553920495,1.1553996676995957,-1.148441949327153,0.8318137638392556,1.8492642324713933,0.04009139119179428,-2.28244375193775,-3.267579490508715,3.6530780854715474,2.1488182562811424,3.687889564613656,-0.11258393256995747,-4.893559905144932,-2.6475888416558924,-1.6733037344824526,7.0516594395423295,-0.299396162529147,-1.3605650970706353,0.2362857624981547,-0.39054380070651684,-3.0327837738343266,-0.5373054853007626,-7.958525199199603,1.7566274295743858,-0.8194697211915525,1.7281832280570484,-3.688854146269216,-9.877124267138012,2.6282269249519947,-0.35384103774415376,1.9865953915211516,7.794815207762501,-0.3694439705823066,1.2188024884384971,2.9575760146900856,2.4084121275630763,0.0,-0.09898210583745748,0.08864952570537477,3.3469556103236258,-1.4764141634943035,-4.010857023145393,1.8415958969005988,3.989398151192462,-1.093032949520587,-0.19766141707534712,-7.307887789389215,-8.250333157946642,-5.246608884182424,4.340452096388346,0.21269068155389204,4.177656706448812,0.07272078158686135,-0.2576601477755147,0.18377620901922942,0.0,2.4850133781162,-0.7406161015063717,-0.7521192287874943,-0.2313637648366964,-0.9727660458255257,7.174312176647731,5.86252664289817,-3.5809468123756467,-7.663548936923197,0.0,-3.3973410210396526,-2.787133047022813,0.5951277537207914,3.211938540293223,-2.84019327582237,-0.06940042114175404,3.821396972475453,1.304082971408877,0.22852957219814485,6.855296492971784,4.331024217396886,0.5080231013559016,-0.6818116684461931,3.4386233450651362,-0.9649917162368868,-1.9745351074675432,5.086410787479482,-0.16344299197038503,-7.860446275895853,1.1411193980999008,-4.325839265911573,-5.064572880621727,0.06390997121133923,-0.5492517556816096,0.5014714124083881,-7.673665245441355,1.988744771334384,-2.36221552545695,4.8523493663194355,1.2160018456604331,-1.8024218436531836,-3.962405618011605,0.8058756121269651,0.5909566206078884,-5.423686826631504,2.7064214513702773,2.0585886869647796,3.0707594203030837,-0.3411826911708987,-4.061448559009639,3.987235758742138,-1.901754554053066,0.0,-6.738704472005747,4.349190313826666,-0.4528031972635155,-0.7763234461165875,4.780177286757379,-3.7083763619029653,3.439252812324426,-3.617731008588657,-6.173630816446749,-5.780317256667769,-2.4174589018666666,3.1331485258677043,0.766600635218484,-0.1633091031810311,-1.0174372749543728,-7.848935449299103,-0.21336997736283525,-8.258478020410118,6.650928349243812,0.0,-5.622362105616408,5.083026868951349,-4.3742527608153345,0.1703473077441353,2.0977951090224685,-0.10186979971375187,-1.7308579875566101,-2.8834465203754447,-3.320258714966987,-1.2871517514993482,-4.91001048092874,1.0668680225024096,0.010232459168332042,-4.2755666219662745,-1.6761185506117782,0.46948964999511245,1.6667189371247244,-7.073775220730881,0.0,-0.843962807568608,-2.2877783337209348,-1.1218952592770726,0.9852015305269702,-2.753686544312284,-0.2073146086039117,-0.4823538931534448,-2.4214392613543105,0.38061196867041014,3.3715452623438185,3.105232612326432,1.6172205255861005,-0.37842123752191625,-2.552990542750504,-9.18022980098833,-0.6711478518168503,-0.506484085804356,5.270811238705644,4.377588773075357,0.8431070414631399,-2.4691290719053383,4.761488828495867,0.026531768562770508,-1.8549939433287264,-0.0362789600101463,-0.7717977948564688,0.0,2.9618766934467757,0.0,-1.3199950335093407,-3.2327430655140685,2.2271267135301964,4.1559356459650685,-2.6481689258930894,-1.3853531053420491,4.1139654848861476,-0.7663573175822304,0.10902433061951555,-0.11098294699705591,0.29688817197250716,-2.2424639932827333,-0.04747374357960421,-3.9181094613847134,-6.897760526815441,-0.4387770197337534,6.506547959247103,-2.477958971187346,-1.9106494342322844,1.3541737690796987,-0.4330247302555923,2.24721881061298,1.1928859562131975,0.5961112538301812,-0.9119980001660022,-6.568298206066261,-3.6974133193669187,-0.6934558609851398,-0.7472387502206876,-0.8383081228953446,0.0,0.362642353047104,0.0,-2.458927274822313,-3.906618005967664,-1.7798009452526622,-3.4515449791051447,-0.6215414181493603,0.0,-0.5944901412757404,-1.4177139618779582,3.374016603106388,-0.011355619699427555,1.9199038570315352,-6.494468822449532,-1.3292697370067768,0.9123446991688773,-3.4806941315858313,-0.514306736919325,-1.0561097987317623,-8.151089540868174,3.547757468164246,-3.953467240992853,2.8647609482256735,1.6391559097072061,-3.233615900071057,0.31566726303184467,-3.6245684701830614,0.8495955601393836,-0.2182457456519693,0.06695208913559514,-4.962471658180397,0.0,-1.0202288296571547,-0.2651930788557071,-2.7872588371888845,-0.14287790962657643,-3.443003666164499,0.5417128152241895,0.8360087175017485,5.252369451804045,2.209436438617498,4.623900697571556,-3.035992514565179,6.441781907749664,5.42218560803135,-1.231217116390208,6.528239323999458,0.5025986300324667,-2.978435729186023,0.09345150438424688,0.5425592032459445,0.15402166834755304,-3.6348342078999907,0.0565089259368412,2.819750257495735,-2.760885627482876,-2.302338209818533,4.798176233557471,0.2555929630478795,0.5113390203948724,-1.0000403473031616,-0.9315714785210305,-0.1594237646603316,3.059351453020447,-3.9313484708825195,-0.7671895743730839,0.0,6.229545434921507,-0.8781215255986496,0.1186748837189513,-0.07721908411899003,-6.348232312340337,-2.1811478694572277,-3.521996411511771,3.585676866909629,2.285243871761573,6.175214926475603,2.9484881741128692,4.359871798692803,-3.016594301663812,5.640157964132703,-1.0149452572048334,-8.571898194786266,0.0,-1.1057571312084544,5.65305108343107,3.4084735768689205,2.183399747273941,0.0,-1.1947637054886393,-1.1627793742463364,-7.704261586678404,6.626968730068475,-5.071833815599258,2.348960716511537,-4.8339994156566926,0.49280965294991075,-4.964318952528819,4.774435661002056,4.280296843168363,2.786098783209248,0.43416353738424274,-3.2053979043718543,0.32389609076763215,-0.46803725837184507,2.6109236012574755,-7.902597321764924,3.19009209565107,-2.6722498793045,3.7614120409195735,2.311962577901475,-8.682060394605514,-2.006335777250485,-0.3935662482364113,-0.5236467297612575,1.5541954188707459,-1.4018938937198093,1.6260671353879557,0.16893126858377205,0.5500268347638207,2.4763059623103327,2.6991922297563082,0.36047488814818296,-4.048113705034686,3.022307046056567,0.8451550395094515,2.385284511076657,-6.958694928826586,-1.2376790683309464,-0.2808590725812248,2.1969661139266092,2.608599197602449,-1.3552427626769072,-2.505275675596641,0.5128688472740728,2.3698114508111523,1.6824391017206421,3.3285362490921715,1.1314222903651459,5.605784860020898,-7.963997714941278,6.725231244765648,-1.2338826243954726,0.8028273637172175,2.899579900519586,-1.522943507897237,-0.7149161617505726,1.1700856548611762,-1.789818915472331,-0.08473268174067139,1.6392177574767823,-0.6302399249053603,-7.099766008095921,-8.639283020185932,3.6739179349410254,-0.45247389948905825,-2.9927520062303943,3.0230328195010476,-6.444402472206108,3.460144670260961,7.420912511662839,0.7061140209902877,-0.9932326360643715,-1.7830517436787763,3.7627447739525617,-7.187500168984403,0.7622212696814201,-4.154338742518004,-1.5973422348748594,4.339787516853998,4.154552471017537,-3.393952819655288,0.0,1.8775042331638112,4.356208289528242,-0.6295294202244276,8.626781781327528,0.6479551050388406,-2.55858686928681,-2.4424612205264946,2.86099644724644,4.195170278045252,7.50299593550749,5.303428693178175,2.122323132379135,-3.2795676005209398,1.9585618524667532,2.4201931802760437,-0.2643848735606389,1.382405114515294,0.23887648242907566,-0.20702655454778685,-0.9114360419461999,-1.0717828405757057,-0.7088807650686391,-5.0678592091462376,0.0,-8.808227171942018,-4.3400027385891775,-2.3377309372156585,-4.166826998732275,-8.680681040963892,3.0120768266954876,8.88366553421052,-0.5010534996054861,0.27026638886367227,4.998084474598011,-0.5540166205535337,0.8450709965996381,4.741750679975798,-9.128005470120549,-3.56646363730139,-1.849841955647316,0.0,0.0011015864020558208,4.3954162287325,-7.912316222554171,-1.9751347883153194,0.14625292265265166,2.0454009095402155,-2.311424590052593,-0.31324892966208084,1.6226498024143674,-2.6827855747044778,-0.9648734348851914,-3.1134054414648853,-5.738408797592979,2.6395182115874776,0.9567424626530903,-3.3531454899901423,0.7062197348745356,0.0,0.0,1.943315804878476,-0.1710364266992963,-0.9271600820783233,-3.835703610288266,-0.8102359191480637,1.6764417620960288,7.481794773599685,0.5378636026241058,0.39001517015985865,-2.4401278817559384,-0.7999734661105853,-1.149745727892904,-1.291110417723583,-1.970502569953986,-0.002798371771780106,1.3797783030237731,0.021766907549238157,-7.1144112991715165,0.0,5.295761482605568,0.9493063868184047,-7.280383531160791,-1.6419228746037102,-0.5547979208576593,6.350746050742259,-0.7378211633156825,-6.2027734193773245,0.7140223734815659,1.0046186213812263,-2.5428381447516255,-0.06572454877981815,0.09504219136603376,-5.854542845976662,6.859888771365581,2.2237420371898855,3.967679865956674,-0.8314333580836115,0.009937548952501207,7.030365467188751,-7.27545498760287,-6.801824200649938,2.5184363761478568,-0.3751402432341271,4.840470219881238,-3.713056375805095,-1.7407169773410267,-0.7789254658072857,-0.06958966292278146,2.6694645521033866,0.0,1.9472017997711462,-0.6748762462161269,-0.3632543020178153,2.318275950083839,-1.6330159094655476,-2.9548635370708576,0.46141172704798183,0.11080147284813924,1.8410123981960802,8.96945213526035,2.7109605631524305,-2.4447560761160143,-2.979381311768673,1.9068928590752676,7.880046661102887,-0.016170762145676587,0.5895587966791406,0.8995649170317511,0.0,-0.4036861316496696,-1.8315036776749811,-1.3673823836692889,3.573152674248306,1.6940661191505992,2.618739695967867,-4.82432893456965,0.6622983141903332,-5.638760780489199,-0.008697266824125083,1.493935293413335,3.9471526551555565,0.23551869006679416,0.1854649564242321,-3.3885566279750123,3.466478558069093,-2.7002120468518678,-0.49055877326459607,-5.442712788793731,5.818254042239697,0.0,0.15131729126204563,-4.285453530859291,-5.759443691989923,-2.3772755967949593,2.439554964574503,0.43661039496358733,-2.119509314628094,2.8147885241592325,-3.928604479013548,1.89438691385719,-2.4084170946151184,-1.0979794152669589,0.0,-5.132416228595015,-0.9356477495403935,0.3248616378779996,-0.7523924185478736,-0.9869255260168877,-0.17926855974197153,-1.4139973844795966,2.254909978934934,4.997734012938405,1.8510239028408368,1.000184367285623,-0.2806993374398643,-0.2782186215443021,-0.18065251402145976,-1.124222674674778,0.7575844303308465,2.3207878358753793,0.0,-0.906734368269478,1.338253771539014,0.37649387905709464,-3.701119882569267,-6.7774857214366016,-6.7476096445914315,1.3355731793777075,-8.751076713722346,-5.831925461747312,-0.13541317316819868,0.0,1.731094470577071,-9.944455756594712,-1.254437749439266,1.0575060357855661,-0.3296569110688199,1.348542614542917,4.563200358446197,5.938406066753809,2.776458676611147,-3.7995955042862706,-0.07824739736825181,0.190642200234604,0.020427250904519245,-0.8389542728416196,2.5526917344330116,3.469234366658977,-7.792722705230527,-1.8851659107871748,-3.2012633789601566,-1.5717137363872875,2.271324561601619,0.17183889919499218,-0.5305309785123429,-4.396282334781253,-1.5810999661841714,-3.3544323018365447,-2.1897111329371257,-3.131904489583746,-7.099541567031406,0.13161605835634993,-0.621682316319704,3.363664016890173,-3.476886810286172,0.26564158960721085,0.44816226407756754,6.356283891027967,2.3261824572372523,0.2725625422961029,1.8561421363727613,5.673029440784156,-5.563759725603168,0.0,-0.4912573661781333,2.9213076841705257,-4.412770708365805,0.023239114032197916,-3.389516998967587,-9.468174742612467,4.445625102216394,0.9342044649208181,-0.5394602425174839,6.844877716969122,6.713771657647033,-4.325580821151836,-1.579517246343554,0.7527308562860773,5.968132184171658,-1.1347899944109636,3.522285355895961,2.124124029971574,-0.09950903253443844,-0.8039880005239324,3.6941867884997652,7.214017403280323,-3.067570381493278,3.514098235053166,0.0,-0.07922020797119267,1.7517936000942145,0.5533086099839435,4.330894023733034,4.759344821607167,-0.8940388586386847,1.6648320004064712,-0.8514019506202968,-0.05570019707384688,-5.863176419179551,-1.878821157974174,-1.5175586366655844,3.4477583012376796,3.233303769572157,-1.045465214904092,-0.20460437135113763,0.7307220655248571,3.0690794731950177,0.0,-0.42885127141622226,-1.1327552614730734,-2.173197359959622,0.0,-6.960008995908269,7.906764287099686,6.690121670947299,-0.5385868364756292,0.6630455783574624,0.5289729966857157,-4.152744520766659,0.8347478759595646,-0.07832511002856912,-3.099348329331125,-1.1586937022705337,-7.613455825146236,1.3960747660216448,1.019134192637157,-3.8810434939163336,6.05653014292403,0.0,0.24431600348863858,-2.3096907030137097,-1.2219110062337961,0.48251097416318167,-4.050074035697534,0.2066116410651755,2.732830155764634,-3.796631368287872,0.8435681815303123,0.13307178885647342,-0.05657818911087453,-0.7458047566578281,-0.6860881053009796,-1.8644225877923464,-4.209895811950728,-0.8459179611848173,-4.035655572519989,1.535249485346411,0.8142001726283938,-1.3435809094614402,1.3699833496776648,0.6734227859469254,-0.8115103853861588,-0.6522759575650712,2.963924723395544,-7.734434917680521,-0.5268624916271349,1.5569018271497561,3.219564807091127,-7.00212002664726,-9.965079390164389,6.654009464978517,-2.2393730720354603,-4.312146812797062,-4.324662414575659,-2.5884826804495935,-4.51600232024137,-1.3755295540009973,0.6296730384183643,-3.397617420593661,-4.768913093666834,-1.3558939223684863,2.8182951026195466,1.487935348009624,-0.9187856150228548,-0.9502078748724805,1.0540420833554522,1.8174786000135845,6.350710076739309,3.319591113601912,-0.5353948319378772,0.0,-1.7463741655312668,1.2342407663489479,-1.06848069699493,-4.890527428625192,-4.257690813571597,-1.905802062924041,-4.588324995521558,2.451046620412296,8.862766255810124,0.7308073271264428,3.283696647111668,4.435795513421634,-7.157778957015955,-0.6711409152678693,1.0273507151362566,6.009410453219608,-4.474779869193572,1.1747204164041172,-1.5403104030912582,-0.4098544504596553,6.377382568594635,-1.8199932387710012,-2.9234116131824734,-3.5306827566629835,-4.756285119681918,5.6259807734119684,2.5222239563495927,1.1541382360113033,-1.3529879074641211,1.6984316079808461,-2.325024213142412,-5.2321945165929575,2.341537695411535,2.0231199380605216,4.940683649935935,1.0887819865978678,3.7929491495208394,2.4076768266566737,-0.544073652937819,2.709689853950704,-2.0445211745281417,2.5019079880471313,0.0,1.811755529123932,-0.5059258265113897,3.393852350778307,-1.4608149774659571,-1.2655381844761735,6.730594339792649,-3.9600879545392536,0.7197394205950853,2.448738933631724,-1.764395787868737,3.280575652408285,-1.579112669479446,0.764542841470463,1.1472724407773227,0.0,3.0614109882613847,-3.1470917715752016,-8.870675480264342,-2.9969810504750916,1.652445265833069,0.0,-0.5902835059197407,-3.9427766006236205,6.923720501392732,4.275886908080606,0.0,-1.0158532119359749,-1.1505929123531629,-1.2062695238218197,-1.3515665804256147,-1.6172418615824855,-3.4845454549936994,-4.555945119184798,3.092126954747048,2.750515438614056,2.3837303334601487,6.650758862440341,3.2097949688346255,0.4289506804501182,6.790473491658321,1.699518438455388,-0.6905977794864189,-3.2541242914417685,-0.8940484140782976,-0.15547887321934883,1.2248710301026473,-1.7208299175132318,-1.3145529459938823,0.0,5.373076414922146,-2.089889520856688,-2.7330893448084823,6.999924854899295,-0.47942549045121974,6.365807967199398,1.601023067928819,3.058924363111814,-5.833424494056402,0.44531740923723806,5.830666468462806,-0.5495449222947042,-0.6680523140039243,-0.802215028889362,8.830544642084966,-6.692272175961298,-3.351972734200766,0.05314852808143167,-4.281102867303754,-5.351506325041584,-2.3380443574791094,0.9467934689266149,-4.022019303110315,-1.198225978976336,-1.7607028376404712,4.004449867299692,-0.4665564969363232,0.6302039167934359,8.099961186615895,-3.753265077641815,0.4625251035829947,-2.9594526745790506,-5.901203827686229,-1.3312723046921806,3.444060029553019,1.9586835023515285,1.0616610521350656,-1.8858219014849131,1.6069167044935462,1.7972064689735663,0.9968538365134058,0.045144168959133646,-0.1095532323574615,1.9779882813657823,-3.475379548102939,-1.8234954373630587,2.7363438336659867,-2.513096759004635,0.0,5.922730652579304,1.769107755078458,-5.4403735377673375,-3.5344416130157055,6.160299657123159,5.50625253541681,3.210520233320155,1.043241558462379,-0.270268555289655,-5.31329228066966,4.780234929229261,1.8887537122325413,-0.4161264366288946,7.001231813066347,-4.812093433480667,-0.8869699125441437,2.039856600063745,2.604592313325665,4.096585842352552,-3.166421022560491,-2.783172304977893,0.5196730196739221,-0.2921669774585526,1.8522698149010062,-0.6898587352878515,-8.384656928370012,4.751509621622785,-0.1671980168192797,-3.505849825350203,-0.42656955924798057,-0.8248255262931131,-0.7540151471519201,2.172441239224725,-2.596968374831942,0.9100529968469973,3.7245186324564292,-0.6756042691115998,1.9350175307449509,0.0,7.845405607337144,-3.671264730364203,1.0487048097034868,4.280608957308416,6.40451365284963,-2.459668613011975,6.688328628761587,0.997176769177644,-0.9671818511522154,1.5002053257288188,-3.128356947645549,-2.1294678323158696,-4.541587558109922,1.0919232244018775,-1.9450742901980156,7.601766475545926,-2.5976977618140475,-0.010129402393522113,6.674860509635817,0.8608657179199681,2.3378611307553596,-4.525310257902109,1.255638972451135,-0.6644398866108818,0.0,-2.432225226569086,4.682674048900672,-4.444924575989509,-1.6455773352492087,1.922931561981069,-2.656815589851153,3.165881387926437,-0.5487389169935393,-0.12643229744745976,4.741652376249784,-1.4644045540905064,-3.6083192820978,1.0919169289361355,0.9878698344007284,-3.538248338850269,0.0,-5.439461537011037,-0.8930589671750342,0.2274945315260447,-0.19170677572660888,-2.9576555884488065,0.0,-7.789731299313747,3.877815170728047,1.1507960893834768,0.7196017945798288,0.09567638963568648,-3.815628380443044,0.0,-5.875445935080959,-2.285917498470111,2.987023601379665,-0.5179648262532728,-4.00674603095743,-0.25994234659001825,1.4679523275740016,-0.31227131644676476,0.35151475605266147,1.6437622977570712,-2.4671553324485354,0.21337420542300767,3.8016582501331717,1.011380342860833,-1.2057172173591155,-1.86791699332155,-7.034332172564956,1.063758170378728,7.4716889516369855,-1.4004183454391723,-1.72478873812567,-5.761346021385701,-2.510875976691842,1.1311226540946964,0.4492705055177062,-0.7701576951641248,-3.3324910979178455,-5.331796007428756,2.5230583521858243,-6.429851005699337,2.695064333968654,0.2942234717813411,-8.939707117295814,-1.1396127950033008,0.5870360522947005,6.645022014094935,-3.9940675775250334,1.4107700716435485,-0.10020822165779886,1.2221971763009218,-8.196358597381805,-6.848759994829906,-3.1131311824855414,1.8214732440227608,-0.8324258276924086,-1.9140137605079968,-0.8354635548573663,3.7512746823903154,2.4735598860211834,0.3411931861934221,0.6027357745137563,-3.6276184615275753,0.43752985788498133,0.08817867873693175,2.584462788262323,0.23307830261318807,0.1455597758866487,-3.2336454873092557,-1.4836219804170256,2.5269896323175773,1.346973679491648,0.17533833336020654,1.8747605699293386,0.21173211185076124,-5.053259024050147,-1.7270926899304238,-0.32212726822415716,5.3833607882056835,-1.1526207021979018,-1.2571851571557604,-3.7243846704986625,-0.548868568641424,-1.6475014641061674,0.17635331760684647,0.0,1.677139878127723,3.831829258769184,-0.8885519690003731,-1.3081152334808674,0.0,1.3880091257685339,-2.978484168049918,-0.6777040741901431,1.837595103177111,-1.2366726601877365,-4.866377254580988,-0.8070239625184072,0.47623054336137427,-4.071388857417114,-0.12331388001157428,-4.161423983738694,-0.6692897420108477,-3.5765815764908013,0.0,-7.744070357915016,-2.1384214939644837,2.460668064154915,1.3892050255112451,-7.412530886439068,-0.8586846732872346,4.369460671252579,-1.0769698918167847,-2.2299909399687876,-7.836151003577879,3.959770817813003,0.9962181081696697,0.9804678464787691,0.0,-2.761387556799132,1.0556882359038922,-0.3699180352942213,6.462699072930026,0.0,-3.207663555711128,0.8533518647568772,8.545440340686525,4.444983536132947,-0.7866196297764386,-0.01957484799508391,3.265122454332877,0.37111069217543735,-2.763946796458902,-2.1025179868282518,-1.461288862505542,6.982071501338482,1.1957834598233434,-3.3753411878041852,-0.2479626108338806,1.8793202407967953,0.2704456026376414,-0.11348096708456457,0.40392195095888395,3.085307908218091,-3.077389035819354,0.4201447607447364,3.7868753627566782,-0.29002381512109354,-6.393336253697829,-1.7007239086323238,1.4454780959500066,0.2980167211707423,3.4018349927714775,-1.3628560659513336,4.817031643934395,0.1844589352248871,-0.27804779131781043,-3.3321436502263904,-5.061688621260994,-3.342186330466181,2.3505072554734587,2.6812705690626055,0.2494111062628006,-2.0133012881942216,5.557912396754369,-1.7643151756414452,-0.9214613802643373,4.447281320412643,1.132390901051484,-0.6660578920938452,-1.2889561448947093,-2.7590879725198096,-2.3467604526664356,0.392057336403696,0.8505461182533778,2.546464119448503,-1.5624256216223866,-3.9884396521561207,0.040995087230406346,-3.528119669200544,2.674395144517353,-4.411996743561779,0.0,-2.068262618104212,-0.893716997515002,5.279432999772095,-0.3365275395282298,4.174233177398852,-0.10521821246500873,-3.9410965233081185,-2.7002596311468734,0.7323365448895838,4.699356220789539,-1.2009224765842577,-1.0529276404131436,2.71325099995971,3.8238598511979576,-1.5271282821406946,-2.9788775935070078,0.0,-2.288305555917832,-3.806616883585427,0.8824156524839133,2.1865245974412004,-2.1376677945071023,0.26926485995818195,4.870820938709996,-2.591925837458119,-0.3225022091815335,-1.563968407988151,-1.7154656092875826,-1.7286763738151487,-2.6041696040074798,0.5081387555852287,-4.56403734333643,0.6819901732124323,4.154333222771994,7.588197484830281,-0.7845421554465141,2.509282221954859,2.0553016969295603,-3.5249126954110106,3.003754659055695,4.594018974646151,-5.967258335965591,-0.025936133308424703,-6.063877317743791,2.0306143859541574,1.6247866919278622,8.075609259061727,0.46388148403418417,2.253427673456604,0.9406723235704764,0.0,5.226435628951434,6.8923192268002715,4.565436162474196,-1.5789725175892417,2.693830160656419,3.903006901684943,-1.0811629276493813,-0.5188416149324321,2.190544613631575,-0.895867974856448,4.882702278264047,3.890636672611636,0.0,6.25020988609172,-3.123828727207763,0.0,-1.640080088468122,0.20853763183697482,5.784738414171881,-0.15184653112776259,-0.15464806823459964,1.7608421865271202,-5.161536583856899,0.010547908402319228,0.6043859827205008,0.2868851848869385,-1.27635712443987,-1.3015959464631244,4.256280789781933,0.4191454054247705,6.977647636370789,-1.5115437341733906,-1.033206051403102,2.197411718737234,5.936834172685103,0.0,0.32218551672015383,2.180316075101788,2.229274859855807,3.7988750168009338,2.440913907121997,0.0,2.993362640792609,0.0,-0.14675320668029856,-4.027120444519732,0.09588951972227511,-4.138373868481089,0.7686265725984396,0.4906336632333219,6.5983031629258235,0.0,-0.08045762799956946,-0.8188090383051292,1.4302038879089942,-1.697886210010444,-0.6552778807688288,-1.4227057068510431,2.376901652690679,1.8499504025484104,0.9262456489408515,4.207747827503743,0.0,-3.1233404516772745,1.8055150708303085,-8.763232746809953,5.825533020775164,3.4978120402602526,0.8297057034921973,1.0601354922800899,-2.3722302388568863,-5.245068255729879,0.5744149158418341,-0.17647588519087787,1.6973986213736496,-0.7641562907205383,-1.8719996624149318,0.5867967284544748,3.200237934372776,-0.023222478593621254,-0.8259750372772016,-0.4411069300746532,4.470981526116409,1.8126354241406437,-3.331026408340697,8.257437695083821,1.1482515255859045,0.12243940746752124,0.0,-1.130913242866286,0.46895234954831255,-0.8971922548149688,7.526630085767222,4.918255329908098,-1.9056896868792008,-6.3876510463536125,-0.6733777928406404,-0.14788479184879133,1.9504044152399513,-0.3460032328768483,-3.8249687052051744,-0.7322271045413633,-3.814476040525477,-1.4452577478345772,2.2200940879368174,0.8994790651918835,1.8160934920933476,-4.4513722025360885,-6.656548985407237,1.5799919791373624,-1.8385778981542718,-8.694337526052696,-1.5537729264028304,-4.747869101014919,1.3401408523213931,2.490017958266745,-0.33460596392150554,1.7699273090942031,-1.776671936787419,-1.2859591041254168,-0.3561168126944253,-1.5589572016014024,-1.729969922948225,-3.3732867153298676,-0.755676051690769,2.8767707862171292,-1.0722512661188857,-9.062827623851746,-0.4633850019811937,3.203501577367958,1.4940498863350316,-6.804523172887184,-0.4567136129418138,-0.8799556056638691,0.5092781734642902,0.32686957271749173,-4.738533465682579,0.9174479457243149,-2.256901823263755,6.843873483409601,-2.1842845523387364,-3.0448956022322764,0.4078614990322944,4.456375421649024,-2.01063485019329,3.661679349477032,3.3703470966999167,3.1479172011179335,-8.521392717458792,2.4868607257926487,3.749190351943003,-0.9575691793467755,0.9771596565229453,0.7791266313800216,-1.0146259797818242,3.8500876008908604,0.0,-0.43559067658255557,-6.188542731104448,5.746182785132543,3.2411417686696415,0.0,-1.870568021452514,0.0,1.7074217762753539,-2.999586980532336,1.780391070822112,0.12794305362743374,2.0501689239632075,3.8096227073404716,-0.9561021046447868,-2.2209858968651286,5.732036270689562,-0.21714499554107025,0.12433386632905918,1.0979825672332395,0.10722907353893296,-1.655051186087919,-5.503038752332892,-1.3956542504873275,-3.79692059339156,-7.718173534954202,-5.699400764131321,-8.046044652382342,2.2193337135582385,-5.480618140414441,0.0,3.1914865377546846,3.996560541304571,-0.4272581380874946,-5.906189368177421,-0.3005326909521885,-0.4821829100735653,-2.8974646782492055,0.0,0.0
-7.328960517801882,1.6991112536744288,0.3266112944345194,6.005333707045438,0.0,0.6993399072542337,-1.7086032296528155,-3.4448581263925893,0.07654178784058141,0.8923897568359569,-1.682456345325385,5.351525740712162,0.8211862145055203,0.8245247489329511,0.6626535129000676,3.944776224679256,-0.6861689413769709,-6.3695991813149,3.6803547576849245,-1.459958997751526,2.4333697870593745,-0.3444979272630946,-2.1864782609775038,0.0,-0.6573908510231736,0.9864772292452262,-1.8306115551283997,-5.217946909632582,1.2036965378283369,1.8037129613588925,-1.5938091895289097,-2.4340179605235273,-4.883855276096506,0.0,-2.717972106042148,1.5560424902262604,0.3115950922122088,-0.8440273658604251,-0.4310459826788765,-2.672725176429622,1.3408771239194521,0.9921301617228007,-0.8434267228863412,1.6493875099673057,5.671542135338605,-1.2069923493030053,-0.8546955796261825,-5.537354483642023,-0.665824610142747,-0.8985725370508455,0.2845647776365102,1.2839797989040445,0.10213209157505276,0.6597579154769222,-1.8913964320735763,0.032667851657769864,-0.09871987872050592,-4.683139709308701,4.9380025974038455,0.6023876559788407,7.013690286923761,0.9047100917707585,3.3830912266706714,-0.3452394613862195,0.1846578328222621,-0.37112387556177706,-1.4985372303731785,7.387889793922201,-4.147358801493117,1.7509770557825657,0.6505535464981467,0.0,-2.6913709528760315,-2.954120450125516,1.6116908473265577,2.6953944325311934,3.96765252313545,0.35811923338510854,-2.490962068852111,-0.6894035901383363,-0.18513301678292782,3.014361694595288,0.34455564360791335,5.496750121501672,5.140099583121041,0.8267834193859425,1.3863878356949315,4.015912069067576,-0.210071342984826,-7.23132730772869,-2.4303465170155567,0.0,-7.711093491955386,0.0,0.27484544061870286,2.871301748373042,2.886411313812154,-6.552580471299851,3.7638435882630503,-5.446578333712836,-1.6824876139822358,-4.639135508309524,-3.6992573290109374,-0.8526656785677058,-3.541397290657993,-3.5214715597048447,5.485668564110306,0.0,-0.6366557303975249,-6.793354969783607,7.70697515398273,5.005669965992404,0.035402303650782896,0.0,1.5616807700613835,-0.6729961325946077,2.8203886541828616,0.0,-8.538421868594128,0.23149567531665005,-2.885252840895766,-0.9360977536429571,-2.352184575737411,-0.10136657750746891,-0.8343870397569371,-3.9099346931841508,0.35544096015680837,0.23493579914450702,0.7564804433651315,4.1364319393292215,-1.858777400585594,-0.6135472114590239,0.0,2.321193402684519,2.5181569038276113,-1.0340542288779653,5.224213297549757,0.4597169532663432,-2.029980640923124,7.057654101590581,2.0966549674760167,-1.3790372308597107,-5.760913579097735,0.14144583094280616,-0.43005247337828956,-0.607793715960466,-1.4613583814449134,1.0868834072013036,-0.28306175095432407,-4.759261933235932,-1.3980257774160219,6.713748639894838,-0.4263703545351578,1.258741999812565,-4.904606029888394,-1.0215444181650135,-3.585283688527483,1.0353009946930036,1.1860550960037894,-3.8650487331677237,3.8922700039788536,0.778313325913742,1.140735726966105,7.47789460208027,0.11374021707193982,-0.3478874079089511,-1.7441770498575009,-1.543777098406744,2.628721072033911,4.85043989224796,-4.099618154597875,0.18823707288616065,0.1125274823116984,0.0,0.8303612328667093,2.353654113910422,-2.016971661229644,-1.3454939171026066,5.389277477884556,-1.7188327837666686,8.321653892467147,0.2672051447511712,-2.244502985736432,2.584625025753912,7.525023218558159,-1.8497601139274495,1.7309421098731015,-0.7096574714053913,-4.522933773700483,3.85872371046586,-3.8172821995369266,4.428598509846962,-1.771842397079837,3.636452688525853,-1.96584207355075,-5.266017359601584,-2.8493242603417643,0.4324563903806711,0.0975843640503763,0.0,-6.858211246133878,-3.3747254371673114,0.11049849802880951,3.001901392564453,-2.840784285955362,-0.6703884943477925,-9.002888666525495,4.5177649575243395,4.910237904350108,-1.1050724670342942,1.6130704931834654,6.681217189123595,0.0,-9.589058803072875,-3.8181687793634027,-4.776376342753494,-1.348449182784124,-6.540281708377548,-2.791033995947957,-0.7683991554250067,0.0,-1.119416288665805,0.7093388233846114,3.879830511961785,0.9936188491303196,3.1200340285347457,-3.306395475333786,5.62116961082038,4.425268592863078,-0.5956310324396624,5.364220634000728,-1.8554120973043857,4.363292932268699,0.7902452325265261,-7.980588893603294,0.9509718128501046,0.7640503947199495,0.7746057733438522,0.13414126388890868,6.243010933234344,1.1532389161643446,-4.557903028501478,-1.863896959517295,0.6386713196212122,0.25782870045137973,-1.9553175418944018,0.7459416861900026,-4.062666086137189,-1.6929273103613665,-7.939218728705503,1.5954192670515428,4.609995885500552,0.0,-1.5159970228497,0.6976986388912247,-3.9187799890172155,0.0,-1.967827389580708,-0.8516259351247574,-6.7403589084436994,-2.3536283745858055,0.11696171912628972,-0.9992947193074027,0.22394781059075508,1.6833074254214695,7.244086314823264,-2.500887973221947,-0.2358812544907275,4.047477897291534,1.9272901228062889,-5.048778152062512,2.119312393871252,2.5833719491804357,-0.41345180243518587,-5.906982001600196,-0.19514325103597296,-0.8421064763114467,-1.4096167638679373,0.26370352686731025,-3.740715354029129,0.0,-2.2905249831905286,-2.2274239156075977,0.783826023960202,5.988727515069951,5.967889482463054,-3.915899145477289,-0.6846808424343793,6.369583928476572,2.3853916420966335,-1.2196184493796516,-5.31285432393069,-0.47442352163057844,0.7142654950489782,-1.8600452004511374,-1.9297922574903563,4.116192108300623,1.067325499257698,2.7058439223546094,0.13674677433015803
-1.0999065810404125,0.6091260505049505,0.08808961012928496,-1.6819469704141565,-5.159252212291455,-6.078122701316289,-3.4662569477758733,-5.7771654425806105,-5.2243884222269,0.010544526749911132
-3.1842398764391406,0.12938701767287242,-6.571565780931933,-4.217646519908923,-0.5725621668695029,2.6279544461727586,-0.9663998679346648,-2.0938620539220287,-0.23234849312811767,1.9641744978478992,5.855839203274685,1.5780782487007172,2.398213509115232,-1.7671592586645959,-0.03532155322427122,-0.8805097252599203,0.0,0.16918628050326268,-0.258299294855282,1.7758705941986808,-0.38263070545557887,-1.3877719900863938,0.30899122088835873,-3.8641422195241875,0.0,-4.3105286873951725,-2.1629350627667865,-2.572834141818132,-5.369832389321217,-3.5843067641663344,0.4698273925519647,7.047280488050651,0.0,-2.439557998102054,-5.057884500562233,-4.833225917618144,3.663914507084889,-3.7622027537501026,-2.795167335304712,-7.975593246278758,1.4173286381079797,7.805932206359077,1.3315658861424546,-0.420002554854063,-1.460129773487793,0.6259652713925296,0.3508710230073855,-0.38664086006209075,0.3726847874765675,-0.6508266765099306,8.218826596811232,1.99498260584584,3.7723271963587988,4.000829092133976,-2.9301420680971573,-1.6027541109711034,-0.23634508596844106,1.1319086544790466,2.033048693441861,-0.9830418665323204,-5.214604509773114,-0.45141950242874707,-2.072997151829939,5.1615529663303485,3.106644724263611,-4.545821780775978,0.21135395695535042,2.082748199453478,-0.20057419267371324,-0.9201715544845263,0.08814612089136775,-6.414810532335194,-5.3779547802011916,3.2498966789125707,-6.804487551594065,-5.957374314462747,-2.1566809321963767,4.8822654453523775,0.11093407045245307,-0.5503539927601757,-0.5342010648839219,-8.58251883456792,-4.4189293569701,-0.8143298402591057,3.2110266532757175,-1.4286812782679927,-3.608417651804878,1.932561560210239,0.6862370775602977,-3.120020236507964,5.643863798927708,-3.9152497065435705,-4.7801530006720006,-7.059969132988483,3.769465762774068,-1.4627230591969207,-1.1370362366625653,-4.4552649130175235,-5.1780215512349015,0.7312255558039247,-2.656409901993395,-2.0984364102496444,-5.026491756452237,3.336634053902264,-1.779961808755129,-1.0638207194933158,-1.0489445784222806,3.12499125048003,-2.186117847565094,0.0,3.8033129142670674,-0.8334987870647448,1.1916964963408363,-0.14790672768547974,-6.449184533026321,1.537453896637379,-0.7868586535651572,1.9961392579174273,-4.9938189992852955,-4.323458812394843,-2.943936591330256,2.377441332813496,0.0,-0.9814772757101683,-1.1261310576008476,0.4318315152210134,4.632112178367638,-0.15886027542107017,4.505123625917771,-1.7645730476667634,0.8486815923542121,-0.713963948782429,0.0,-3.0810613278190933,-6.239932854588774,4.601639905778531,-0.2080320765926611,-1.355628900732503,0.0,0.5712300741783399,-0.06432703731449463,0.24028435188136632,0.5293047498125736,-0.7401609966628311,-1.2965205909448794,-8.540356707611236,0.0,-1.7824343611790248,0.2570806833965462,-0.9417153376634475,2.1033769799424022,2.3595335809244764,5.0259955163942855,0.5754813705643618,-0.7335634983001711,-0.5412052761005794,-6.857409385554231,0.0,-7.2877345933049495,0.09455378348098487,0.7822428450584081,-2.017370319843707,-2.981252676070471,0.9525330926890693,-0.23827450969526487,-3.340183348071905,-0.819263759324892,2.520372271279635,0.2931513487554702,-1.1808893685473456,4.92393973688448,-4.445317716635677,0.6789338049102529,-0.09453610484767205,-1.6229603587361299,-0.4406196507341724,-0.19647366774511887,-0.05668859741569898,0.8630602668736744,-3.448253640618754,2.5903260502612304,-0.01708518387491409,3.8030775285899256,-1.1952428539178113,1.5880632272437478,-3.503529580560394,-0.586841531925349,-0.3158071108616314,1.8311646390714789,6.5593514439110905,-1.808916614395721,1.8642119064649494,-0.09546187014655916,0.2610153293031656,4.695591207656496,0.6570431436107544,1.7060266423825792,0.9994529350432001,0.0,-4.886516725853437,0.19983335643879863,2.2125813599921025,1.7242227350683799,5.1196229267449915,0.0,-0.6221462967203218,0.0,-6.922771604176988,-5.361023725567664,1.7168345814385342,-5.807746535207656,-4.6304418629212645,1.5834487134342483,-3.952272033342354,-2.6787243918736365,1.1846899500420527,-0.9531005680033577,4.49650477585356,-2.0874188929534867,1.1224063490379474,-4.444694147542753,0.0,-5.485512390900796,1.543158843215871,1.6856131388017397,5.121565085124519,0.9973755493659724,3.0262199646866508,4.506186920941382,5.382088189406511,3.4121412861281923,0.5607048000833437,-1.327764246138853,0.7273066035555059,7.814124318978616,0.5954237312276305,4.236075793808553,4.042067533775981,-1.8900542344205775,-1.3299013659255214,4.665907071532521,0.0,2.0168254066276585,-4.687771351923826,-4.299991773585642,0.6172072075080028,6.431985561442616,-3.4075858092435585,-6.659586504773568,1.9052266961921647,-6.537180270243329,1.0881971656943779,2.5039417156307375,-1.1467938237514321,-1.1472168309420316,-5.680554226090991,3.7252296187960323,0.9590820804454845,-5.178389935539295,0.25609156936234423,3.7668559488695204,-1.1123995140961502,0.3929362394933822,-6.8431141852332145,-3.5372131457485105,0.0,2.5206645737679225,1.6042125034452415,2.523542426601058,-2.678230716567971,4.464586208366304,-0.10506821834067992,-1.514543505489192,-6.209368177410819,1.97374501519006,0.5399520317869113,2.6770391252317487,-4.633181966712304,3.1026000252723756,-3.5011620810144226,0.0,3.8901317699973075,1.9947852017958188,1.5145594779536777,0.0,-0.544064018914811,-3.966262214582831,0.9638451382162952,5.196904825602671,-0.2291076272447221,-6.886062100309459,-0.7415323278200044,-1.8848201270273126,0.0,-1.7707363319275764,3.165091594741271,-6.6271153231968185,3.862325948455789,4.692799540717609,-2.7976258895593014,-3.217067014717085,2.5439363143718037,1.4293938726644728,0.6310888500454088,-2.7808774295348524,6.778425513069837,-7.7891928171038725,1.8312511460282739,-0.2569553211277994,-1.728006960484342,0.9238614884500965,-3.910960719124804,5.873864596601025,-2.007133262299228,2.048961482759704,-3.324906665901181,-0.10221668863857902,-0.9827011554600662,-2.385039021116339,-4.682087435499618,-4.175287019246282,7.274462237628126,-3.857987235969735,-7.407518752115755,-4.057547041559063,0.16911104442141545,2.683219714359685,-1.1219471431259764,-4.977183939086728,-1.1948940626845246,3.071066859114524,-0.5611988844329518,-0.5688773704137758,-2.685687919548249,-3.09229666411818,-7.400447535487928,-4.9750531591202645,1.2037015896634298,2.5322679939204678,0.9172241073732067,4.792865964680785,-3.5156870809224476,-0.9900064468728194,-4.413329642083906,-8.922348592250756,0.5478308032404947,2.6135776478419634,-2.363238806299233,-5.949593625301927,-3.050559443289711,-0.03042785258198255,0.9030663864801902,0.2470215484079321,-3.347869227469529,-2.959096486942656,-0.24009777569614843,-0.599001101815891,7.838066432395385,1.313584727025619,0.8103989764328186,-4.8047920844229886,0.7964311206338439,0.2175090179937339,1.5884592037688559,0.2902951116452537,-3.385331706184438,0.8243836128759674,2.9046915092165007,0.04134694034698583,0.48708069814256594,1.6746689560274786,-6.0670977209797075,-0.2533220755233574,0.0,3.193092818992216,-0.21508976225078036,-0.6913409334343883,-0.8304844759180031,0.202609135981493,-7.9849338626372095,-1.647686191053909,6.287453944652496,-1.5489527811916712,1.7326619544905326,0.0,-0.3085912347034463,-4.884525401462481,-6.1478142458613245,-1.5986275905115335,-2.7902821181682134,-2.0548588208504253,0.849551703855518,-1.4684273994455967,-4.288593742560111,0.4090381161139932,2.27724036691764,3.392380916962438,3.3244006107018347,2.726557019078954,-6.031518739779339,-4.4387728796793136,1.4628127707052407,5.446422828410979,6.597496428861592,-6.946728454363726,-0.088497864933748,5.843221449179046,-1.1025641242826332,-0.6452347911620889,0.5293061347990667,0.0,0.5601254268849201,0.9407105486705558,-0.8700021088890175,-0.08012878381421229,3.9330375571050853,-6.803212391697694,4.480596433062395,-2.349391171170944,-0.6113603115287272,4.692180363614905,-0.04902766462345198,1.6710371552019767,0.10977638750509255,0.2257226658364686,-0.046205951972850046,2.017802171229163,0.016821556471644072,-3.967711619415994,-0.5777357193482042,1.2146910217922513,-2.4891658863925272,3.2753106317706875,7.455917335229219,-5.0903663369976,-1.4269032893285505,-4.604094866907232,0.0,-0.26518590920792295,0.16908782384514875,3.1416725723746715,2.3591104180573286,-2.5598961403005065,0.002703872049909406,-1.771191556794284,0.0,-0.7755175662081997,0.7203573298825954,2.5832070068566892,-2.8252306449387623,-8.219937642724876,0.9599575122861926,0.0,-1.5953321242824088,3.218315014990927,-0.1724071970204939,8.255017807084517,2.961282739430884,1.2806209310965553,-0.22610167067142362,-0.8978095506309821,-0.2254225006713586,2.296382133952063,2.765304234396314,0.8665519909905804,-5.385715884586349,6.041320103701523,6.5839412163538835,2.976982968858846,-1.7041367533111786,0.39081614072342596,-0.16114742082595224,3.6648027865032122,4.284416522849092,2.350531649654807,4.33850659867608,-0.48212841389788785,-1.664385743371949,-0.17832864346538857,0.2434931986256137,1.207399139660265,5.380852318946053,-0.6616308758811809,0.3166969840596543,4.5155623903680855,1.2375726928930049,-7.263180174072158,-0.4703643857130082,5.072312607812929,-3.995386318089391,4.034499377797973,2.716879066558257,-0.24294940355767847,6.33940474301688,0.10355045841996757,-4.047107717287593,0.24190026476632043,3.47813268599102,-1.8225803054597374,0.3541958475061179,6.380732048340847,0.0,-5.694484593156249,-4.624412161901218,-6.671509059411633,-1.220323108917873,-4.022899053859832,-3.2964071822157353,1.66940652039732,2.141024227214973,3.892435334347782,7.074777107440293,2.022625360589955,0.15279058822853064,-0.3726563289182858,1.8725167677612782,0.5870360267902442,-0.15126778082246184,1.0988287341432592,-1.1977236965711333,-4.991433349267913,2.369511783562765,0.9413913982152577,0.0,1.1001516543513914,6.281121840275387,-1.6533719920121706,0.0,0.1040534898913883,7.0330758045190525,0.0,-7.227821847507028,1.6545289080901913,3.4033800897136652,-0.7549772218207367,0.3107391964341517,-4.278022299091274,1.9642441772877715,-0.6611415557365234,-1.0313555327965023,1.1495235024171744,-5.89229959553912,0.0,-0.7233133997135313,-6.424908664757391,2.133261383427316,0.0,8.70215194365874,-4.161550882556917,1.2638800047736085,-5.71819775122856,0.12518573930188248,-4.554303859539228,5.185717219908632,0.5482077468329845,-2.1666168780830324,6.148356624900547,2.431731856268053,1.908329094070913,6.286928478692658,-3.4352448468315644,5.788993128121891,0.8465110413883549,-5.374219706454131,1.3395771215273593,-7.057981706313846,0.8831620165236358,0.8965873823408637,8.379046081384399,-1.8747250980168775,3.342517226271254,-0.9266808828361753,-0.3657770170432699,-0.05265070380827086,-2.5488712788686394,-2.9165983211835282,-0.020223546181900254,-0.3943074538297595,-1.1914208491268328,-2.819882501504984,-4.856203051553125,4.414478654651733,-3.882277246355063,-2.9442917036528717,-1.8650215237554146,5.306460002496142,-0.9841606202117585,-5.538791854307814,7.558304841901753,3.3828031470660376,-2.1457440079105874,1.4897132580192527,1.076279128020837,0.3091085487702976,-1.4163783345897252,-2.176841628258791,3.6464060049689424,-8.682877194277104,1.325841537439448,-0.09266122641663888,2.797780524464016,1.567555040184645,0.5035059820154741,-6.213970934385088,-0.5270394982500544,0.4572369852985414,3.5325355343664686,-0.610765038024822,-0.5001653646501664,-6.272998373100046,0.784705936956759,0.3590308014256577,-0.21821583555363067,-1.3709603782178477,1.24010564449814,-6.34543604333914,0.9253841295306267,0.0,-5.199833825421949,-4.274184981151042,0.0,-0.8329539368616729,0.03257922041501837,0.3169057705747218,-0.3866387768847702,0.36163332321751407,-0.3004311932559305,5.365389542802745,5.796095645944382,0.0683841160658345,-7.108432811689549,-0.6659933574731206,-5.995300600660624,3.471718235195386,-0.9648365333141165,-0.16013212497961948,4.5369691193165025,5.732131498093807,-1.2975139401090932,-7.164131131055312,0.0,-1.8931148267373445,0.7524998772674973,-2.289141783798503,-6.158123476785149,-6.335702593673092,0.7055613766570143,0.8147585025031047,-1.188100116767849,-2.1359002689375384,8.14109840757623,6.213193482527109,3.2437248071462803,-2.45588796744761,0.7826127094651457,2.297413005832847,-1.252511357444335,-0.9163460568456927,-1.9714354780625545,2.508721213196067,-0.9202873848381444,6.9511890779114935,3.216934270624153,0.0,0.5414070193560347,5.892875105570721,6.687150895076013,-3.1680638032852855,0.7757484833386545,-1.7690545443850756,-4.662675648524705,6.19757688259213,5.513624995875011,-0.302038516386944,-3.7223519793276174,0.43489807782444345,7.094630380545885,2.3075029280431396,-2.2381646964957542,5.93248379328805,0.4389343513766262,4.848339849520821,4.763067260846369,-3.819764519685048,4.257415083594862,2.2870200166002723,3.2289412396082415,0.446908705753001,1.1567505432423526,-8.523534126314878,0.7878528534395562,0.15948692848871038,-0.18998285702881446,0.3427252338053355,-2.847995118521711,1.0823071566108755,4.144084672536603,2.460770707006836,-4.587109239545997,-4.0410624837682185,-4.181521088516497,-2.774130504353976,-2.2713308359026705,-0.8839031343546544,-1.911339760807158,-4.922725162506333,3.6293528006130766,-4.217618894558825,-1.2843730803322106,0.3773637539303438,-0.5724605348986174,3.906494763190624,-3.3346067720289763,-4.0360295554747445,-4.107891937402152,7.672343631741424,0.9292305677113437,-0.6031089762566405,0.38563106373949974,-0.8701835203780557,-0.43971711799660207,0.23359340394526118,-1.1440228948704825,-2.312337966111622,-0.43836877054944257,-0.5794319026229777,-1.2272350959334104,4.583664873310302,0.5824459796813019,3.9342112770998043,2.644736320571833,0.1636353753024461,-1.1891295502260548,-1.7173768998499357,0.0,-0.20296312925203397,0.40351619026025165,2.215061850581129,1.4601906677898095,0.3028984939969056,0.5603834029754626,0.6965511802894204,-0.18346957455736967,-0.35255144299930397,3.8923828102376716,0.8674755505994218,0.0817358402202264,0.40975128334021893,-1.1322061915796082,0.6388262090148217,-1.818827201908304,-0.6571228522113772,0.8135520468918307,-0.253996174892301,4.853329297704182,-2.3644947787464883,-9.599488318887273,-0.7723762549368665,0.09704284616183656,-2.8923955483646213,2.433448414295735,-7.706041639227497,-0.5450526118343748,-1.4752478974156573,3.4744797658329256,-0.3523845199335478,-1.5855835728014245,-3.227262572388199,0.0,0.0,0.1690440796728515,-1.3788314389642267,-0.4201269121500273,-2.9020254127256857,5.995102987791091,0.6158973666697162,-0.7257971525987188,-6.156410730873038,-1.6975640510895744,0.7066070149440855,-3.947625733085682,-0.9483398982904281,-4.06165224334373,1.5642881498605419,3.8735209815617133,3.0428314908623717,1.566226484197872,-0.05579857481808004,-6.128708937709484,1.8614732170790207,6.640156951581937,2.354926854878636,-3.5592907187210097,0.1260700677531157,3.485808401140842,-4.267055965421964,-3.5387244456624503,-3.2478342044088526,3.504578195470825,-1.6902743486748861,-0.16721502527513,0.5123617005974896,-2.123740212254294,-2.3077138508413264,-0.7788045877170084,-0.3405754340124436,-2.6446807432660338,-2.6537565605287505,4.497268896173395,-0.8257706216221845,-1.400314692160692,3.2263510188201208,-6.2518545759768,2.4032204202997445,-1.7018113805996853,3.010449835026614,3.655818642124605,1.6758696056959885,-4.396460963256514,-7.844732861518853,-3.000207710977674,-1.269870746307616,1.9467335921638398,0.0,-7.841257516055504,-0.23755625873039377,5.651587703530304,8.950204176039934,5.585037697572051,-6.2168794314165785,0.0,-2.194171343260496,-4.348095760801095,4.4366910299341376,-5.726601934370092,-6.36207724941767,-2.9294238210379175,-2.802068506649953,-1.7509531119302622,-0.17459257242423398,-3.48585862906386,-5.604739115635638,-0.8761551511589323,-0.7361568682054954,3.7592622414607817,-0.06767910665073185,0.0,-5.636930770249122,-4.514510450080435,-5.818828336204212,3.406905923935412,-1.1250004561899305,-4.448707972987709,0.0,-2.294800509346095,-3.8974053137196494,2.841105533843606,-5.171756239920207,1.4604367794191737,-0.9012142347679308,-0.9783750739496055,-0.23013684971762038,2.9837583431590295,-0.06864349213949983,3.509323902774052,-2.804119284850096,-0.7803957655615206,-5.2151234007639875,-3.9178501105483825,2.893980191824169,-4.647877838511722,0.713373473405832,-2.427140446806475,0.0,2.948569204425451,2.7683251282133066,-4.002510208441418,-6.645348885289347,0.830672975140955,-2.149409939800562,3.6699581274429516,0.3274412268967004,-0.3200314193192597,-2.170927737597582,-1.6452874779677102,-2.1305058278212874,-5.908881130222899,-4.85184708100691,-6.202898479317128,6.8849422970918654,-6.9974970382999855,0.0,-0.33238624428490504,-5.932207980324923,-4.2093101795485515,-6.951667167467635,-4.970919869388038,-4.448208149052873,-0.5222304896562446,2.528119562323302,7.574158418208802,1.8292497176607254,7.109228809056587,-9.767005167991393,2.837997395484281,-0.5456821649309962,-3.37357129699161,0.7172343190817809,-4.645297449135822,-0.4334112680092965,0.0,-1.9095331192612264,0.5225859819827752,1.2269692630429925,-2.912173512528455,-1.416689746517397,-5.564204103717513,-1.9141885747650325,-2.4560587700689345,2.483575790134412,0.5732973497552012,4.767259539732355,-1.6386666718933776,-1.336845860322166,-9.791486012965402,-2.41546219922278,-2.8195376158392382,-4.603389046245015,-3.4710255845306732,1.0898746669266448,2.2471601401028884,-2.389992628688286,3.8270307769915224,0.49115545177289244,-0.12569965492429513,5.98580006673528,-1.4963100763890935,2.1999230259272453,-4.102277553503517,-3.7703300520934375,-0.18429040638413552,1.5535907394525654,-3.2474056269268945,-2.2026484161746254,-7.994504113851837,0.45969338411469896,-2.8802272484175537,-0.7176516266804056,0.0,0.49103885573474004,-3.239860842531954,0.7173247036352552,1.6592978010539121,5.489821538353286,-0.3196036670146907,4.897545440382899,-4.732032245128166,-5.547100292921191,-4.3435358785831255,3.378694751614893,-9.431037319951312,-0.7633680569126662,-4.9678890633931765,6.924640537364919,-0.25235738153457765,-0.939719885922617,0.598795550059752,0.0,0.11319263756805897,1.4314471966987967,-2.5224482472196805,-7.764072443114058,-0.722748345177241,-3.8345643493195922,-1.0716863442962437,-1.2223266322837687,3.4680334896433402,-1.380941134161173,1.9791153872295384,4.623550836841497,-1.521711536048606,2.074528028433435,1.7172444262479414,3.9698860485257166,1.1422088871848914,-4.545607751503418,1.076407346120857,1.3956481569095773,-4.194925051996466,0.8593913846536472,-3.3486498916687295,3.5454744365151476,-1.7906816146986893,-9.17715774354296,0.6261846586784958,3.106762881217037,3.012967331952227,3.088842784051651,3.1770136562319573,-0.7779289566927239,-6.979372947986872,-6.26231520457633,-0.7542954728039077,0.0,2.4591038414412028,3.3016257318640587,0.0,0.0,1.2048899298755897,2.5124767628317777,1.4894526910458668,1.4456038718742892,-5.195942616003135,-0.9951179267368002,0.8718859326168196,1.1873428489914657,0.8932032138589873,0.0,-0.9764111235529447,-2.226548463187779,-1.550459976968231,-0.911906212970763,0.3611275841760522,-0.22766082466546544,-5.8161158140707325,4.9574323864720515,0.6125335843974409,1.6206631065198067,-2.5504247312369848,0.2980700452437496,0.29065352405888145,-0.15749772229294867,-2.7631842564742826,0.22550519651505718,8.94329419669048,0.0,0.9935556898122395,0.4483189347449902,-0.5504071625871807,-1.4163449243578143,-0.30174372940502636,-0.32892686184160724,1.9983927058943638,-5.272793409022115,1.6516419796682076,-4.444593978744772,-0.6171420673918946,-1.5454178046230345,3.498574594475733,-1.358377053635994,2.4104365495191207,-1.368731814058318,1.4058994390417703,-8.969533429337698,-8.340143159790207,-2.253135177778688,-6.753381036378898,5.743830415601454,2.3105126949251953,6.409384393402744,-0.9128876621603486,-0.8698685000823654,0.2126391387614638,-1.0890870602265126,-1.7301962763761294,-0.9625984598104548,3.3676479420748677,2.113013759419682,-0.38986257983297223,2.8958509933059586,-5.195702604420852,3.25453144419731,-0.8219552243398889,0.42237889751276647,-0.8132789841914949,-0.24910262521921678,-2.728647165823982,5.829473313635098,-0.33081740403210314,-3.7052847340183885,-2.370627833794394,-0.8514918576317743,-6.335075952095976,2.0970124925828286,3.9654730594164405,-2.5801197699469016,2.195062669450269,-0.30935720646117437,-1.3117901640120069,-7.448834783474028,1.0240454387942168,-5.402581620090805,2.807426633393956,7.218268936416678,0.0,0.2572212461792548,1.9922546036914848,3.710788156618543,0.02245615990191696,-0.4222854104413736,0.5615531018180475,3.408830038879633,3.8344905928226085,-3.0241343034260373,-6.9229485203256855,8.586708358966167,2.4039400148362775,-7.231244042417986,0.832029175813351,-0.8478283202042419,-8.561638261592222,-2.2096792701896355,1.2630535469696424,1.6235994689039872,1.6377901507050303,1.0130844140704491,1.888668398922677,0.7056616771274979,-1.9803841779278981,-1.0864106049104114,-4.084168744582153,-0.9820568961407479,-1.2118631999979574,0.3110876444762818,-0.46990059562581976,-4.613106281448893,-4.227095136689229,-0.42360243974382605,0.0,-3.3187037675708284,-5.332067115136599,0.0,-0.2605723670014738,2.6310286846765156,-1.2299841019491706,-0.3584638517910016,-1.668179922677669,0.0,3.7982248433907113,-1.0660836863785088,2.4959612134695828,1.7265593394837966,1.4638658166795464,0.9652732473189822,1.8755518994396096,1.2309748188517977,3.0002898150768456,3.0701175345701914,0.076505111683986,-1.561332640145904,-8.999064437635532,0.431030721022285,-1.651084452510403,-0.3690598192514285,-0.8512575416854391,-0.8715961951937545,1.7011100554007763,0.09955908011086578,-0.20812117037024858,7.2442429063381075,7.354800535417405,-5.915828378941331,-2.8065854776657275,0.0,5.172795578181825,0.7550037638582019,2.994941761070387,-3.0383681689421738,-1.036171507247571,5.0515164722585375,-8.182008735612392,-2.024599552219552,0.04106819602581557,-0.7900151648878095,1.4473706492531218,3.750374060233961,6.098567431595779,1.227137655888665,-1.909777142031307,-0.4555833089077226,-0.6381863114377018,3.738423253598389,0.0,-0.39482150495027657,1.2518442368457845,0.18173008658980483,2.0447487573888163,0.398027436773879,-3.6522256909250315,-0.7339179634962985,-1.7125486015355178,0.5024598774241834,-5.45041928022867,1.0969642844938305,2.390286017880056,2.8476387209442375,0.27133673295746563,-6.3996772801153865,-5.107331125587151,-2.3520090075981837,1.0797404909723067,0.873250005040795,0.7334308661184119,-1.2867334360954759,8.838309474651096,0.0,0.7177751197133895,0.4564626259654876,0.1499938558737468,-6.348064991514515,3.6370578248811145,1.4006190516520585,-3.387763757423275,0.6753937013532784,3.4168876269166004,3.412293959927079,0.29176569961430243,-1.4312845025091183,-3.6278507249648873,2.0696740843020933,-0.2053973996135383,-4.251748115953044,-7.042720962977875,0.598744363973692,1.6783868411481322,-4.441661739075395,-0.09301615003008012,-0.6492509296892869,1.94544991219406,1.450190672833764,-5.275265404839307,0.17940312261650626,0.2502936525383993,7.235641256640937,-0.5160523519017528,3.7242882779010453,4.939780569751544,-0.5502693079025163,-7.510120238351444,5.158837253581602,0.4131977421856976,4.012841072701945,-0.04810935435022534,0.0,1.8972382466220963,0.0,-1.5493092146452163,2.9707048890549848,2.9379848136037126,0.13188325444136417,-1.7439116377772057,2.922225205141304,-1.5274322276588042,-0.8133533396976956,-4.547885830639989,0.0,0.5518670203588192,-6.2229724790732135,1.4231746091668556,0.38292917295102047,-3.326131879390744,-4.195521190132347,8.607299339226808,-0.38524825915946304,0.7633502368800321,-2.671948368433913,-0.20076127604017557,1.968704041341385,-1.2217622493401996,-3.8650262879032797,2.9814159219316116,5.46428138998381,-4.229455527653712,0.9895197675504205,0.8678597540923272,4.537542733851222,4.4522314337033695,-8.500637337858443,4.38802731578788,-2.07409360183744,-7.738856988043058,0.0,-2.2283935422355445,0.0,4.743220412590724,2.189419424275113,-0.6837308453457918,1.055576370431734,-1.9947955075129902,0.7813274682749308,-4.795720923316324,0.18651805314277425,-0.18385078458581372,-0.8168483266143349,-0.9631927164680053,-0.014423558684978244,-0.7615239875486588,-5.968113210568581,-3.6904124511758956,3.9094551943331175,1.3324169654915923,-1.4389993483707646,1.69366974854057,-3.8256956916657705,0.028436295476043094,-0.1939619219010954,0.0,-3.1393690289055676,-4.938838202455466,-0.7701281957825024,-4.961491149872581,-5.657749909373309,-2.481934865245476,-1.4394946899428094,-0.5006031278981804,-7.324140929099657,-0.9150926809503594,-5.5500281149982085,1.3360797426258495,1.041789153525429,0.09343511866857757,-0.0065324661739218914,5.230984345795917,0.7277595574465323,-5.3667582218936705,-1.3073386157946032,-8.481199005281082,-2.0765876478748058,-3.5359521401514566,-3.119475494355335,0.0,4.433508811253088,6.029533995497408,1.3186614945960833,-4.1188163559929585,-7.759063990099512,2.286749935929091,1.6891066944353237,1.4608557490907796,0.55750440514001,-3.9935425760592587,-1.1828510685623572,-0.3175840546425459,1.0337475069390285,-1.8080231128916124,-9.254368736440279,-5.8572819676921295,7.7809498518571925,-6.530260428155292,3.525669084060966,0.0,0.15056358599170205,4.074832107262498,-1.9653153814335729,-2.685315189221475,1.4172690991413148,-2.0573699428316368,0.9390031836722781,1.0629262078351764,0.0,0.10706040526648475,2.291038144106386,1.9346528595951575,-3.1106783810960796,4.842512029928325,3.571179181287512,2.029436442446645,-0.896301898973431,-2.446785605446275,-4.207103144486345,-0.9062760300563701,-2.6419489564534344,5.205902441278778,4.209149191088468,0.7929972277136688,1.64418626918075,3.3179562076271685,-0.8547854055732903,0.21743145425467192,0.4739720310514256,-6.02657189056314,-0.2574066251479694,-1.80971454630616,-4.524139546045197,0.39685425170977995,-3.234017686265969,4.22338642766195,0.6076455093142434,-0.322104735274898,2.3177222799783395,-1.4077254608316025,-5.849759082827627,0.7524755186708676,-2.4406831606039066,0.0,-8.875964488754693,-6.303245345737102,-0.7034947792436415,-5.978632748447627,0.46887399376116745,4.886729443492457,-6.469396413645793,0.7802875888273957,-1.7457330467892114,-1.1795160118325168,1.7645059723087382,-7.93137647500811,-0.6563401511153653,3.338164980557978,1.0631131367543112,0.19148282783191928,0.329220286328215,-2.657767383841014,-3.6897960404787247,0.5621043539792135,-1.2350548653780091,-1.3845855165848422,1.9559931953907763,2.167015624215089,-2.7690398461996213,0.5636550145036583,-0.038187629601721396,-7.350212898893439,-0.27051051243063884,-2.755033532798237,-3.58781130421563,1.8951143793253056,2.9760565257259493,-9.097736400761939,-3.7143907734667665,-4.259467389803119,7.528336967418531,6.096037034036032,-1.339121986692147,-1.1292043514328816,-7.882036991301649,-0.5542649807740211,0.0,0.26310432091982705,0.9353367078752381,0.3425458073842893,-6.481785600916812,-2.101021940311597,-1.2405190182411585,2.214320208404798,2.527978490484783,-1.8988229551758695,-1.021674690893838,-2.88507422704785,0.17688515430668428,-3.555839095223977,-0.3600224477047611,0.17399963145105346,-1.0915561681508101,0.06429236507688563,-0.3578060349683797,-2.304936804884148,1.8098118596615864,-3.637149900532629,-0.37744431994744454,3.434278841212178,8.65144458139641,-1.6860114877930088,2.281700572214352,0.26170512910568555,-1.154551390357789,3.912395413156937,1.9684191237711788,-2.294879938233961,0.4046436835137417,-4.568751689249717,-2.408443313849945,0.4509431831386548,-7.61042902269133,0.09810493550519617,0.0,1.365656512454857,-0.175463084034007,5.931739054180289,0.19166575362232763,2.4861448627094997,2.2018042384113135,-3.510109051706735,1.7941580936405472,-0.9948346586333989,-0.0059431440007253755,-1.9912558624977161,-5.905301315805687,-0.369232011170918,-2.0384602418027797,0.0,-0.7137424957413999,0.4793861007440041,0.0,0.7304234591990753,-1.3080520094074266,0.3343371490242353,4.904342041457765,-3.3295092944537923,0.9449299102033069,1.6164913884048207,1.3307145812733716,-2.0091019889778927,3.762784159775345,-3.2477214150998623,-2.329735447306466,-4.862951676727569,-6.5658599900383505,3.892026149820816,-0.16851896500478003,2.647962768491744,1.4586695060010018,5.211062253515665,4.485677452034938,2.4679302306948383,0.13085523980243086,5.541539989226796,0.3697618272612372,-3.606409098580255,0.009808286751217477,0.3976243446104447,-4.771876473692807,1.3650170909260053,1.9053241629151332,-2.5198070671338306,0.46735480492927095,0.46796244197773396,0.08779380768985234,-2.939008190648489,0.3203219368692565,-0.1288544396373298,-0.15569404649928265,1.2926807198665826,-1.6015516067343643,1.1035270711818286,-0.73314819057599,-2.9458632676169407,0.8465219368133176,0.024594269454149442,-0.9202984295635128,1.9444773669985893,-5.800837306004118,-2.286553519126,3.04445888470089,-1.3895401636361249,-2.717366444473772,0.25656320914727626,0.17846095697007058,-0.018629122466342074,-1.6881529336828993,6.763443976598344,0.7156000692804229,5.092597763481361,2.1492831625757423,-0.9374623506607415,5.459412447835303,0.0,1.7388140237879792,8.207261546250711,-1.133917356658592,1.9736417104522426,3.4779134780409393,2.9164365154800627,-2.5137786381883114,5.380354740156161,3.0164732499920586,-1.561891896572943,-1.5158655260760243,1.6886838662605859,-3.087622167675821,1.406167123160503,-3.584606844133835,0.08305851973219225,4.633595406754778,-3.3961008293127457,-4.672410135581289,-0.6333820844187739,0.0,-1.8460719812657655,0.0,-0.2500699165657583,0.9983858229196563,0.31680114286298366,4.710291572886291,1.0995647276551987,-0.1518729734101112,0.25934406439893587,-0.3983143414631205,-4.694917082262944,1.0955997019588222,1.1987816905787527,-4.693490005133694,0.0,-0.7071546880314256,-1.2819158334122909,-6.352588953035845,-4.00799955150978,0.7749836354603377,-4.048769232226666,3.676488686709149,0.08393445213636286,-8.777435766587026,-3.7628100815136833,-0.5428911388527445,-5.8996272300068915,4.7777761626884585,-2.154735253917588,-1.2094633957251606,5.249946345805225,-3.1928694799383734,-2.314941502073981,1.6504232480113408,0.7494814344580938,-1.8078329516343978,-2.4174139548743607,-5.840894922937485,-0.49006934221306686,5.841417819112184,-8.167043131879987,0.7157996565271387,-0.4370832533449893,1.4031518286910667,-2.4146751967795383,0.0,-0.07041990307873047,7.381482715034276,0.9578948216406314,-2.2987306530738416,-0.8709382607264496,0.26871810239746785,-1.1132466338514284,1.2506148708085831,-4.817777000201166,0.1643729296122841,-0.8446918537459536,-2.511829495821485,4.160176989039485,-7.758677149150284,2.6619955241217634,0.6030332652743677,-3.5441327066771686,0.0,3.988693744286569,-2.9123720148468006,-1.3164731849842182,2.2877852364108997,3.4828758275950498,-9.979754782197887,-6.06411597193677,-1.0777450276660288,-3.828650659908427,1.1487882946431798,-5.778655841552491,0.2698659864215214,0.35850738218784084,-0.45358388338973965,7.729164268059383,-1.3339556198250004,3.1496094912795147,-1.453156918652129,-2.5910399570325193,0.8783465179995152,7.394234414735706,-1.6922202515634222,0.0,-2.563734691398513,5.511897225554201,0.5528730874307495,6.578755467591865,0.6078067032674811,-0.40551092287626656,-2.619849088340527,-0.6275330929485663,0.2954123604981438,-3.9858723920384604,1.2898524530579905,1.231305714337525,0.7056145658063799,0.0,-0.47121554224267603,-4.583141294971571,2.1698917479148507,-0.41580686616521356,3.0590394715026172,-5.562927145320556,0.0,-3.8197622916460805,2.7516720030257074,0.24152749166211118,-0.9021821452629186,6.855499222539455,-3.940618015964372,0.729149167176085,-3.2580525368898035,0.46488379267322466,0.008728716885649579,1.815297374333447,1.3099941001940762,1.293627728644319,1.3359162432799019,7.075396053406511,-3.4702155405895025,3.2093578487639842,-4.979972713990645,-5.00132062242992,-2.838877688974653,1.8509854566988428,1.1848008008228077,-4.543973024659427,-1.5212735036519998,2.997593396415642,0.0,-1.6925728670219065,-3.3625100190327384,5.198113574208427,0.9894261883612325,8.355923318666413,0.3123089084229659,-2.5838284306627095,-0.6560031790371572,-5.648304923868838,0.45912408551176487,-2.5002794299796567,-0.5212011542189214,3.7666553907900244,7.52262748393724,-0.8905115830633887,0.9038082227510129,-5.084388952001292,-0.28975706251224587,4.4779474987611705,2.5468543039990674,3.1312724725748406,-0.3845377402785416,1.0978191471535692,2.4292148623583296,5.005960514017444,-5.196584734448701,7.849204837111751,-2.2892236310709286,0.5646480659027245,1.302913275393058,-2.0682913607088125,0.0,-6.201435509519236,-1.9507607323423193,-6.653733741128658,0.5168944726429905,4.494315636767709,2.127435097946996,-1.3029888086778882,3.9071320283900453,-1.5143398807953938,-2.1416701371446516,-0.47201189673222843,3.2294611373652655,-3.8737003541253063,2.1295530445308657,4.8993827362788,0.21997318232183127,-7.160429632165375,1.552571461105456,-3.5008195990628654,-2.3686219160107673,2.940386230917334,-2.83649740917834,7.7907469265004465,-8.783202277877038,-1.3430985256290837,1.1391983826190755,-2.6597019416038954,5.470727606544597,1.9362247785108804,-1.7096679452122383,-3.8646336225256546,4.81757743885996,-7.2614895978307405,-3.346389810356036,0.37953085718462676,-1.2029885766366821,-1.7955281422546685,1.692757932990119,2.3519206165348363,0.0,-0.20826674754177965,0.5306973646016239,-8.32001921687777,-1.7594995198933887,-5.34487403308286,-2.308689389357138,3.8834928834270794,3.585484560476419,-4.7293318396882125,-3.759339929272775,3.9120689908314845,3.908560292061063,2.9962205497223433,2.7755123347346116,-3.9303328283156693,-3.0792793854974496,0.5753925182631439,-6.718334075109919,-0.6372162443410367,1.0532518728285871,-9.652647110089717,-5.954021304176599,1.036645882335082,-1.226376219434602,4.980845129029488,0.4290768698783627,2.7532585050185348,-0.2588844110036963,-3.428935053279944,3.362671664454325,-2.4509001941592135,-0.15243881144271043,-3.5332874259973357,-5.236473547476253,-3.7841559478491185,-3.359710303741399,0.08384611901554895,2.732032553143952,-3.097230874780868,6.432056956282315,-0.45857724880160156,-0.48281183858743704,0.9176647287168649,6.29530747377589,1.5554907398088846,-5.529158113062556,3.002668909912214,0.0,5.614800496268194,0.0,-1.6611688947930054,7.287188813595444,0.022145147865367143,-2.555050347317402,2.1619058738355683,1.0748410784174296,-3.2375050902750893,5.156977815863426,4.5267404844853125,-0.36913260059938735,-2.755745350596282,0.2748969744690606,2.351619739063016,0.5935262134359881,1.32065291838467,-0.34463935340453977,-1.750595733344576,-1.0955905244883184,0.06861982248831922,8.161599270897282,4.498458746701065,0.44613063713331425,-3.9757375886557904,-4.987692133078536,2.531309084333979,-0.3034857550634116,2.8974656741932416,2.8756303983627673,-2.747042239808385,-2.2580700306863983,0.0,-0.4739773839467416,-3.836052738058665,2.5167447369135876,0.6291826391227784,-0.7702315846183075,-6.4241763592000805,0.0,-4.019573279332217,0.8730964731820596,-2.897825519698536,-5.618318762668221,-2.5954014324493704,1.020111620043107,-1.4030362200663111,6.580562029733133,7.253336903010695,-0.7201100321611331,-2.422305611921889,0.018119176370007928,0.0,0.5565452582552718,-4.248467754931925,-8.680727464989975,3.391882922524028,-3.097865177744987,6.623062832400357,-3.10403066391418,1.4424249077951314,0.2727585942769173,0.4465723229603,4.608427076760957,-0.4450705533712239,4.039169995598513,0.8007627468340328,1.4349090467785144,-2.689201127052673,-0.21974725371086756,-5.8711028051144165,0.21130394130817343,-1.1951127801891754,0.693419076031808,1.1907098213599665,2.041966527105777,-4.282358210852648,0.6479430716313481,2.470200771988798,2.3598713118257213,0.5348011962954566,0.6375014796345481,0.0,-4.100709592347128,-0.1979936144666412,-1.9233318971333138,4.938937276801974,-3.383393274112565,0.2238327981680195,0.0,0.0,-1.020751173070458,-2.2502061103397764,-1.1286531324859137,-5.8980781163946405,-1.029333410251065,0.16224469835210154,1.260770017384937,-6.095101641853865,3.4085609372596117,3.1570288029217677,1.9420942976054474,-3.0587787589959587,1.3610906687945103,-3.107751018596113,-1.9381977631713576,-6.661710734870169,-2.0053996748368883,0.0,-0.07978261397650832,0.29459568171774286,5.118824620209016,1.4081041328397061,-4.583208770693599,-7.497890427137094,-6.595049855810475,1.9422470526740003,0.5657415403412687,0.8368476123675519,0.7966027575734608,0.2816309311320053,-0.8309919612378203,0.057437500865238134,-1.8278727230062215,1.5525155936338009,-5.950586568178972,-0.6794210329684263,2.3997518523519967,0.0,0.0,0.2601712101170818,2.4520537632220245,-1.3627663403679895,0.2919714673250505,3.3230093925636863,-0.4859531663839364,3.9789658731782533,-2.1956364350105546,-0.039388202628908964,2.4409790944686014,2.4621705085208077,-4.610517390577092,-5.072763402699963,-0.41710118027106424,-3.8639509410133916,0.0,3.1927679998056906,-1.8257942991121423,-1.9704174529563057,-5.39379793851901,-1.7431470270444338,4.023681833751313,0.0,2.7445165545608075,-1.6956648961962206,-3.5009019798163297,-1.0069499472083268,-0.1810802251922934,5.8297004899088325,-1.6620489380998664,-4.818566317013841,-4.2266920201469524,-0.5274077949430799,0.0,0.5180042616498931,-0.37617055035103175,-3.9342926068812845,5.764314333206779,-1.4454789189284072,-7.8923453469622595,0.21058855235812668,0.48553596907828456,-3.9230125988320195,-7.5828767609075225,-0.37622281864505325,-0.1759694594611927,2.103368660428697,-0.7646083441015702,1.601430779176048,3.484667922170885,2.060456049998665,-5.764166842557625,-0.8706811158276424,4.126590530759098,5.19012658006721,6.198457216627437,-6.612544068441476,-0.3463633066098438,-1.6604756355848345,-5.00973708731289,-7.520178688035256,4.834238614619637,0.6519430881658734,1.8525945984350591,2.4867491454847834,1.7039139273781017,-2.887392294196241,-0.7649126996012058,-0.9455374768319269,3.9243559196408917,0.049429223232517416,-4.287191867328399,-0.0779008353363122,1.9431444910432254,-6.405361579691517,5.673088136703331,0.12362910467262112,0.0,0.8149080008655318,-1.862204354818917,0.8907377294306887,-0.8176758824202224,1.2918198956000495,6.5579729167519965,-1.5663065677370653,-0.2050873394474464,-2.3789048695292454,-2.2005340265115345,4.217680396021857,0.12328506379432247,-1.028324712239673,-1.9126335576064228,3.8719042455413577,2.1558173531937475,0.6256803139536573,-1.4243185579572648,-1.864182504116148,2.6291493820168643,0.3384529941784964,-1.2354628213169598,0.8589462681894784,1.2267822764427856,-5.165600288201425,-1.6888944173473106,2.732956369089043,2.416632819788131,2.001981322269938,-1.5601553875969156,2.38590266962452,-0.6895156976086048,5.151633779998982,1.030251145815856,-1.3975145218793228,-1.3995316115922742,0.12826035949716097,-2.338214143341349,8.43552178541796,5.363918550970644,0.9939370898781708,1.5815176189525126,0.9613257768202356,-6.350099739856062,-8.873859408434651,-1.9162066001436902,0.0,-4.945389250103302,0.6846375268019957,-2.8613460522580842,0.4430897922568545,4.571071318915939,-0.5495606333144686,1.3439966525978109,-1.7658239078644695,0.4351177062893905,-3.750707571637845,3.19869762105885,0.4664404762719112,-1.8322577203573542,-0.7388725912758919,-6.963968108681661,6.413795237181508,1.1260817794186482,2.267935026758429,1.7911226306926358,-1.0411132387770272,-5.536236400158581,-1.2095897627694594,-0.6803327196835067,-0.31986829507636794,0.6728562349125314,3.382641286613905,0.0,3.531107828687898,2.2389989648822057,0.0,1.1785405286839614,1.45179326996446,0.0,0.0,-0.08285767037041536,4.877965477761665,-1.921704881674466,-1.4828456730244763,-5.884031752786972,1.2402785053145586,0.8089847465062432,-0.308401495037142,0.7758837650759741,-0.6685733143860121,4.385315498307038,-1.952730214067051,4.176177317174455,1.3129173036130855,6.067119505426074,0.0,-2.0502450769168385,0.0,3.0331980225158297,-0.5123578341841073,-5.2735694066158025,-1.049051970300038,-3.6703794398695284,-3.492198515055634,1.5537582973874908,-2.2880919096264467,-5.180055368812345,-5.731985159919082,2.1500369170856932,-0.10084512231394083,-0.09805286778940991,-6.383286010330737,3.984383778934901,-0.3591565294156881,0.7962655387177158,0.3535377277482321,3.3165362708768455,0.5649025155315437,1.6522690379939116,-4.7353425778099565,-3.44432968462927,0.0,0.17610662430753488,-0.7736021206666397,-7.820567612592376,0.0,-0.36377844398891845,0.1815690668630947,-3.8936698005649815,-3.309512318124331,1.9936502519540116,-8.26422389905763,0.9975422106190357,0.24978162774176704,-0.361048107669806,8.230718161673908,-7.527772624191025,0.0,4.474884245031548,2.820841467257921,-0.41212703626841884,2.4709279556481665,-0.7570286831353837,-7.527241114580605,-1.0551590887997984,6.620139915102685,-2.7660896021581594,5.774885238580284,-1.6771578905615323,-0.09560933531070948,-0.24586680359564195,0.0,-5.377194552760574,0.852663988176198,0.0,0.672641517241829,0.2853368949342201,-0.45120124846851084,3.460821557149556,0.44573978861601804,0.0,-0.47472485240208195,-1.1689177098797316,3.6094920816754272,-1.5622287697958894,0.7244476118486392,-3.1976580573214672,0.0,-0.5964444669853963,-7.414065828713983,0.15316679116954013,1.1463640372718702,0.0,1.9291528249302372,-1.8190729126188314,-5.925998011174394,2.358255462755227,-0.8704104082330659,-1.2815386478103692,-9.40986620639428,1.2355677918642107,0.13853318800379488,0.3938103746984595,4.984697227920119,3.1763597160842276,-1.9159494101959171,-1.810434718059836,0.8922849518749678,4.462267941416933,1.7718904593836318,-1.9666470365459587,0.6207341088628457,0.3821574950054032,1.265790285934621,-3.7414577933041957,-4.349838422720926,0.8163118647700272,-0.26229489680280504,0.8602230414695244,4.612907601047273,-8.832588679785621,-4.502439707393233,-4.768012527238205,-0.9310851443300754,0.0,3.8358088876960594,-2.327892794891602,0.0,4.62004965625677,-4.765322481943931,0.0,-5.68009320235498,-6.456099688586382,1.5471504393858981,-2.9376768244265943,0.14866734051246278,0.7820600920649987,4.423360412786322,5.922665578050497,3.0056044429346795,-0.08078515631215666,6.414031980113377,-1.787534795244891,-0.11483325870952776,2.3164880229808458,3.739827989693043,-4.223826637235276,-0.2056326860466593,-4.202603122962664,0.5530316302206344,-0.4463888377842945,5.955112218304224,-1.4183261152908355,-1.5162590840783872,-0.4479109711922895,2.560092087340763,0.002939992155993165,-8.14363433008036,-5.174512080830162,-1.7661129342569026,-1.9205152355304729,2.4731876690869914,-6.770369435531715,1.6498102328440643,-2.323884209059475,2.3668678147858637,2.0990594610236264,-1.9833875490358839,-3.754260450180188,0.0,0.7198643292939767,-1.369592438783666,1.486849536743923,4.174140104307572,-1.0639296347221041,-6.089782799741246,2.383703327293659,0.26712021809683517,-4.93673420901536,