1.4246517562841914,-1.5135086312036004,-1.5215645156859043,-2.1004909718753915,4.525059709851172,-2.2650095550266043,-8.188873927287124,-1.5163629492976565,1.695856227020987,-0.4385858805874493,-9.603725656668093,-2.8406982455435927,0.5116330542211065,0.0,-4.901745585373277,0.63069831812953,4.3848768198559185,-0.11482811501001611,-6.7847710396955,-0.5015462217437815,0.32758000894309003,6.996876235929456,7.131128723972661,-2.5291229371214947,-1.9414882449180757,0.4021832892289041,1.7866001130368145,4.992178574460478,0.23164621500800964,-1.3440558308622366,1.4161974037170237,0.4210008883635389,-2.523111855044318,-0.033574244434389056,-0.23134922592773755,0.27345874551825644,0.3685024568659727,-0.16589775937787987,-1.7678523269084052,3.2727607112948265
3.593518123574683,-0.011436962468963165,-2.9176116208743372,0.13202201682415168,-6.891021673487766,-2.973813486605709,-4.62546054458207,1.8967979554283967,-0.4793044165461178,-7.949883603084089,-4.222104201952047,6.910055378371225,4.608523093173604,-0.6277393002046281,-1.6569021642922623
2.872139250268479,-2.1667201696922653,2.0739571446334333
1.734527276040326,0.15179901241034166,0.2998224931108395,0.8140204934082217,0.6598009760790132,-1.9891819155407844,2.2693131929080383,1.5567587403311978,4.229347684967916,-2.730441900613947,-3.3244108157683776,-2.2114224356504333,-5.531277370781064,7.795270646727952,0.8463015724320483,-4.674354297632217,-1.152477481552156,-0.5867119218454615,-1.0396179625410775,0.5264695075139647,-4.814095096293492,-0.8038377962776564,0.0,-6.134173968953226,2.9302077327525375,-6.784125939077502,0.2756595043703369,-2.452512962923364,4.615433545251637,1.6496416452732068,5.76367366485923,-4.296202445062251,-2.6252009300612906,-0.973312465664483,0.03818872818609498,0.0,1.7942740846079226,-2.749324821555626,0.05760560900590128,0.9440334498559586
5.742424352563928,4.916815981746547,-2.75705848585924,-0.5346877397472223,-0.22944068689764063,-1.4761737863250384,0.05728508297170847,-0.8669339434511466,5.983625637696358,0.9234743427189274,1.666918935638718,-1.8896835443600688,1.2471545853322623,-0.21866044127982892,0.7650002091455923
1.0888881737155118,3.8615832143616706,2.3288004217988956
1.0805585416391978,3.4869873889581187,-2.4921075579069885,1.6503996125097087,0.0,-1.2194389831309667,-4.517594764153702,-5.891282294984927,0.9300570563692075,0.9359441411893512,4.793325534880966,-6.681415817185409,0.5510742695348854,-0.35699317651784324,2.345416017265208,-1.873947741414528,3.6643488153430246,1.3962889283648119,2.4292305742076303,-0.723918944346505,-1.5316764365544864,3.6236615915517607,-1.1939599698929448,1.2266031375306503,-1.7836242718825646,2.8457984362446638,0.4737017936036212,0.2676805433037909,-2.7632432145407497,-0.2847858442979847,2.267537045676936,-3.886744241661017,-0.018813731704564796,-4.826314829728334,-5.270924943959437,-4.134848480497119,-4.468110164248184,1.1947522984897492,3.8429786268184856,0.8260518059338713,-5.97555786448681,-2.5436574548932356,-1.981773773995525,1.7729562051116043,1.6824992385035396,-7.959687064526317,1.7944842504471044,4.556114981233547,-0.7754286598401542,-2.438778262231237,3.278876108605396,-0.5000796752289605,-4.154447704191709,-6.2954068400859,-3.871778913501288,2.173893309345358,-2.005450555802894,-7.105903384323217,-4.3366396048343825,3.445301570053853,1.7026196163782341,-4.604982517625412,0.6133168431178526,-0.7216124729938439,-3.7797531248676397,-3.566225289216817,4.350152458951765,-4.843884390941388,2.9185576214615088,-0.34061634721819634,-4.81941321970154,-5.515838403773791,0.7172403633658996,0.6028068564013056,0.9759647261744413,-3.5531064507397074,-1.9587135095933395,-0.8340181834316847,-5.148370334181663,4.046916635506916,-1.4627645207399504,0.3602124962142421,6.922747930510688,0.12813981147053433,-6.732903262688316,-1.6168929804802428,-1.4411501394030053,3.120526069429558,5.404440995765714,3.8236105976534085,0.6044934191272289,0.04267412757652567,2.989724505141509,2.2123543905731085,0.0,-5.292674001942586,5.755674546368876,-2.0075482353239087,2.391850998735097,-7.541088458157061,1.1311673809997358,0.08525459557512138,-3.03534608710545,3.7407635148925413,2.810086811243643,0.2669386132701319,4.539341264234734,-1.4802803388727894,-0.9223493567499763,-4.676940133184038,-0.2723252923104894,0.0,4.936764949019138,-4.902786497326896,-3.7373659733788944,-0.7699819622689885,2.307817004158187,-0.7700015751552362,7.091052380720747,0.5799319623859993,3.211377898475029,0.8137595366862197,0.23063477350192052,3.0381957603561545,0.737905125226009,2.360961804608951,-1.2085614556366995,0.8510632934817031,-1.7210837203232034,-2.2060407306347933,1.9204732999499907,-1.59910380470245,4.814928588868965,-0.2902471283855401,-0.042151126261412486,4.700036919901994,7.153511806661221,-0.21669531743875348,-1.05916663418159,0.9650418848666626,2.210368804646392,0.4207459964480217,2.3849989221901975,2.9256973178803856,0.6008598999176398,-1.921029011409815,0.0,-1.5287504114554662,1.5670860003800344,2.2044349842435436,-1.038613716926751,-7.159389707665502,-1.079351843898666,2.0269737376485164,-0.18792859392632,-4.371319329053081,1.6680228847248584,4.026811786082774,-8.092486527363102,-2.6518613310310117,0.0,-3.6341985610086853,2.860668461114688,-4.312319598364554,-0.7122073450446984,-0.24768012396847472,1.4529249186874231,0.05666861575396542,3.6588318446094146,5.3437552676672935,0.4980151379920279,-3.424478773185369,-0.018205781806258647,-2.5491439324038057,-7.330690118030821,-9.794497847173435,-1.1019930487816154,-0.3563915249265579,4.606650187740539,-2.5471273031999764,0.12896494218192944,-1.9372800773771273,6.7574775247197305,-5.179501792000804,-5.548594574665344,0.9931925874633261,0.0,3.252581056740497,-1.122003332582402,-1.3772987138991655,-0.9487258311743083,4.450139384347382,0.0,-6.819328694435446,0.7319013558188424,0.0,0.9203415725822758,-0.5000296767517647,-3.276352069194845,0.0,4.365084035936649,-5.3062738597928565,-7.581312569014196,1.0219956626912081,0.9133964808121564,-0.8230934887362222,-4.149159195496105,-1.583622083072484,-0.7030766351545858,-1.3206369232816428,5.059418260418355,0.0,-1.9500581401993191,1.445488475425063,-5.510997178655366,0.7746798564243251,-1.318127917648436,-0.8447993668605944,0.42102217191703695,-7.694092432218457,-0.5943847569859555,0.9249973835629237,-1.6652152469773025,2.8758891626549543,-1.5295748865276237,-0.9594066668179491,0.0,-3.7831440033857504,-4.669221110935368,-2.8273348083377954,-0.7963666799858277,0.8178037780548866,4.053841604813183,-0.7679301243882852,-2.1959507488653913,4.973552813148907,0.0,-1.0111922580031083,-2.426510778994067,5.082824106795239,0.915348889934405,0.0,0.0,0.9344037553825899,-5.454742103126108,-2.122938848901766,-3.5219783141617595,0.5025159922450115,0.8490061715593256,4.020731680079008,7.576264295497993,-1.0376450683362637,0.0,-3.2776892136744493,-1.2298812524077374,-0.00832094140825479,-3.154232373451876,-0.8384959415868394,3.0173801716728526,-5.029205432408494,0.28803438236372203,3.5706328870512105,-2.2285980439066684,0.6172366512783278,-2.985305474146803,1.4057084104718742,3.008312511589632,3.1479040858078244,-2.376276795424766,0.0016532193413210106,-1.445637903125911,3.2219872120168653,-0.5329314436159076,4.46158734185638,-0.9731212645499963,-0.8168832524741598,3.5579811510690766,3.54354659265778,4.525984809884577,-1.7423559648471647,-2.829794758677439,-1.9756616751682847,6.536739740169878,1.4460215637852547,-0.7809631691959801,-3.6489399276603827,7.413587216052588,-1.8035249853995725,-3.644896093148349,0.7061390368308039,2.606134709092327,-0.3761630080621128,-2.8050584458744376,0.7525530178738823,0.3373176553498256,0.6300349404688188,2.794694090644674,-0.3585354887088623,0.11963104692746218,0.909779911971116,0.6891989640008023,-2.6585373244003394,-2.4721017231463827,-0.9263750028411937,-5.054730063002827,-7.366725085963813,6.477393244595227,-3.6695038772593147,-3.2794356385552743,1.7535354572575443,-4.3019921511456936,-5.827383382399127,2.9876953960781396,-2.4096053939322974,-9.386330410145934,-0.06278881580567863,-2.046769280006975,-1.5690487400177906,-7.108079342030563,-0.19328850158895206,1.894904096791156,0.8826275300666697,-6.0661759728347295,-2.629671094853853,-4.727313737880866,3.499418940209985,1.8299050091708722,0.0,4.128759540813186,1.7006143021040598,-3.40686830607717,0.17148091090131667,-0.11353331203361261,1.407370567518706,4.321568633647338,-5.950782535952331,2.760915025932356,-0.13351991710576028,-9.280432061659633,-7.932772144895551,0.0,5.355376265895449,-0.19499128678123523,-7.217477442296928,1.1141629930427923,-1.1782588793178306,-4.8881619110448185,-0.5744980290034767,0.0,-7.005456216378531,1.9561909490186662,2.518641141657385,2.51230957034225,7.719459099793271,-1.3178611596255685,1.5881062026693877,4.419220741049282,0.0,-5.751388997931811,8.979521356676,0.8260678908831365,0.6176937096437907,1.4998012537694423,-0.9016367039382593,1.942463417256865,0.9388973299927452,1.5181196543705537,-3.622370432268785,-0.7490683313906699,-6.269945737326563,-0.8119486649703096,-0.015826326023463788,0.8420099907919225,4.204349380563678,-0.44155479444935,-0.05227857840075134,0.14426088210687937,1.5419024122880844,0.0,3.506182266426531,0.43157177188980267,0.9366579675521374,3.5994440211905028,-2.637663329056302,0.19337269269754864,0.6208129570319376,-0.3803551628357127,-1.5959096163875546,1.614030875360943,0.044463797923288584,-2.612683639120368,-1.7136442621970236,-0.7485957744949416,-2.9448964248449676,-1.5546940068492505,-0.02963393795720659,2.18826363045108,1.6837584746834056,4.645207901488893,2.8253358515014444,-0.8485661771864073,-3.3061551756462846,-0.5883855337591939,-0.8765898856399273,4.734922457076687,0.0,6.031080200614516,-1.3594376687315188,1.1507066622023268,-6.018834526736819,-5.371855765203084,-0.8084415215142444,-0.05344377708759218,-3.598147580818466,-4.941426300023827,0.7648226719126889,-0.06851913935533005,0.0,0.0,3.5032439825973536,6.784008613406945,-4.3513090816048265,0.6063048028526709,0.9406119429858576,4.649188081826266,-1.4893963906797518,1.745926220582923,2.7616217323773764,-6.604208043853804,7.2990536691980905,0.8129198393504034,5.460688021070035,-0.06607560692021341,0.17137138852484224,2.576798431322415,2.4852253034847234,1.8317579522838034,4.559668058140806,-2.113735652729046,3.004506439207446,2.4595733932946637,-6.516400583403507,3.7755413896217584,3.306503950852829,-2.2938507955251435,0.848119010239063,0.3061068931612171,0.4721493713385774,-6.896855412252193,5.791030769121801,0.21974878282182475,-3.4238753444422465,0.3953364295162536,-6.525818739296975,-3.3431078339238827,-1.9475646559101434,0.2407486596364653,4.096412334383413,2.1686070386429357,0.9504165952544712,-0.32529254154514575,0.7281334256822237,-0.4305453478108219,0.10982771730338647,3.131748693311847,1.5646195502533828,0.3864672200907877,-1.1817365464169498,1.751594112719339,-4.011951709629861,0.0,0.4977715006468093,3.549351095358247,-0.31483785549278176,2.7843149968075602,1.4824858436190147,0.3951532187486678,-5.241935192233054,4.083370330307394,2.5028612264527994,-0.6624583212240447,3.986579869359205,3.4930973695376477,4.193474455727032,0.3793427312749489,2.23541246777274,0.07797612343655302,0.10671114085970501,3.8836499242616402,1.5136484728642603,4.31405316219318,5.7103494036354565,-2.104942149926826,-0.40026572223511536,-1.8146806980868488,0.5019390163737871,0.5466215552127967,-1.2153431614747483,-7.17388192683767,1.0149970136567283,-0.4148407573935424,5.322428415470787,-1.5630446343290352,1.8745177290999417,0.0,0.0,-0.8002859865839856,-0.5382859549926984,0.0,-5.743907191627212,-2.1564159944078094,-1.3614734546256257,5.713952809728987,-2.985267074957916,2.6272172552464665,-1.928390649404173,3.275496299099033,6.843870436440163,0.0,1.5464943706804086,-0.358398582418441,-2.597901145196704,0.8946876918850416,-3.9952205504886322,1.0045871939944575,0.8793522084985614,-3.4380535826689025,3.4527552427216137,4.817265198339733,-0.29504991258417057,0.31662088861497706,-0.4104093618310195,-1.9729015288737308,-0.9037145416356219,0.1495180328575656,-5.221396270526757,-2.267971909696209,2.7845528089041762,0.5209543138703095,0.5734344975694379,-2.1113583196042724,2.0703087580265755,-0.9070094332655634,2.622396065566929,-4.86443293025874,1.8433465862316418,1.930593321999448,-1.7143208951352324,0.25057408552648375,0.7055953676893367,-0.14603767383776933,0.5970293695457896,-0.1925262609458469,1.4166678022950547,-4.51919298314821,-3.301515185985407,-0.6320513744458645,2.947097765269898,-0.45146426638340553,-1.2116128196604354,-0.1839817997772506,2.1927734736891225,-0.08219584534172486,1.5138703716600823,-0.5901401234653371,-0.7872506713498875,-0.0172020261332817,2.778176809203551,-0.21994311234151742,0.0,2.90467494475729,-7.616382860071771,2.523563947903418,-1.2573350723468364,0.5639197098477615,1.6710240541970443,0.10287522875757338,-0.31942335881526684,-9.588687267702102,-6.946356600481674,-0.8332160308822406,0.06087769439718449,-0.8611828780412255,-5.524084414475195,-1.647835778174526,-0.6602124460489782,-6.046709504713793,0.5325592892122821,-4.455510579601032,8.692193121452005,-0.6369074454020781,-1.3297557716162403,3.08102136869391,-0.02242373557496702,8.008987604283433,-1.5390447963512413,4.2337585994604545,4.172334976209984,-0.9692186399336933,-3.746842022390992,0.0,5.358448701631083,0.841149345211315,2.8099013004063704,-1.8942407020570509,-0.07156449996077852,3.9862877288605865,-2.702554082604483,4.861826443240216,-5.685850907885874,0.9278446926430206,-2.1140597348134107,-0.7939953870790469,4.012811490794197,0.8773731315349078,2.1826851645943606,0.3097992296695453,3.868839827586827,-5.243493329573816,-3.638639412218318,0.19982062003530376,-0.4291369961087268,-1.772860813603293,-1.7554863501220146,0.25533673911924537,-2.875568401779205,6.5540338935802565,3.0050918313743424,0.0,-0.27663523796984446,-9.156752517618054,4.985232425672281,-5.775237527611254,-5.077241310578947,-2.365315017857728,-3.329801864646982,4.060851320065186,4.290732956312903,6.635497295394294,-7.914493717008236,3.074161070854913,1.9437713954867804,-4.880722257238111,-2.529799678742868,-1.0254284414262225,-1.0341459062469642,0.9812272127317704,1.0089159751565915,0.1587698592044997,1.821706990459838,-5.542291643925768,-3.4798545650846378,-1.2494797523920487,-0.9457824552448206,-0.15730053128495047,-0.3310630172786462,-0.597630841772157,-0.4490665731233482,-0.5594386414902791,3.3191267520536196,-1.251317101358811,0.30303765505608604,3.8496866847184092,3.71787326906012,-3.2866670139648404,-1.0763917363207458,4.618911230333831,-2.8578355747583233,2.184277239301404,-5.54731847171937,-2.8597559345301127,7.74255066867628,-1.3988094268371616,-3.0655585110558947,7.41350643145475,-0.2173846910558419,-1.0696665609837197,1.7142069202924466,1.7169707353609867,-2.4692861992312842,0.04241109339826821,0.6115017640167456,-7.019370705979644,-0.2767021176240396,0.5138748718516761,-1.6742593706531825,-4.242574820694332,-5.195332508516692,-2.8292819029953393,1.9698291247215256,-3.7964983824211886,0.0,-0.8602107156446974,-3.843093160885122,5.902850912458334,6.404486613685531,1.0155552348180015,0.8544078732129812,7.903953375291074,-0.11251488391121578,-2.604050988657644,-0.7363429804712589,-2.2438756321178777,-0.5335417088052831,1.8971813937134736,2.464946739150402,-0.40497311833722627,2.341679177489246,3.349449819943756,0.2466502768054284,0.0,1.8940228075389207,4.797417000502233,-7.7501803226997765,-6.36264997365457,1.9881608548277998,1.5454726813441233,-2.9067401770805503,1.3953330931621193,-0.4977764864538886,-0.14323691333416688,-0.25234730154894425,1.9848046647530362,1.734891774617978,-4.859824097921252,2.1708289314386393,-5.43057323575949,-0.2430373302195996,-3.0613972404235095,4.567425782357137,1.611228569866039,-0.31009772632608856,2.290703134413729,-5.0927727523496396,1.8751618919515485,1.381992312248279,-1.9236848867493417,-3.5986605719962084,0.0,6.4769299228571295,-2.266522713102421,-1.0609211794860944,-0.7940361543836296,0.0,0.05985230330910485,0.0,-2.0517330095840736,0.49179609763663734,0.0,-3.552630787731605,3.495080016440952,2.9216726866474363,3.451719961610939,0.0,5.2437085413458115,0.8902587490950903,6.636228875569764,1.388150075427935,-7.6535930917638435,6.014828965154072,-1.0883984062780783,-0.2035253389623909,-0.7978003172506423,-6.131374846969743,-3.5469018164451454,-2.037385552872486,-0.2041498755401877,-0.3602105920416685,-0.7000119378337661,-7.2803264059363615,-0.5076399202372648,5.472884505066963,6.257362863037372,2.0317646824589177,1.9018625238606315,4.869083634404431,-1.7535734158225358,7.918619866507795,-1.193706032003196,2.9749683538482903,-1.0288847041089735,-0.9184702562306876,1.7001685557434687,0.0,-0.813212055949952,0.0,0.6747908134016929,-1.3643365381248282,3.1691008252829036,-1.301068768329289,2.9155429363092953,-3.42887908376993,1.046823825935615,6.636329690964869,3.779569606218155,0.7924469895065125,0.9258248153838143,6.681877941010016,-0.6981734315832457,6.72410534320028,-1.070589552991924,-1.4565804962197972,-2.586242395623713,-2.0108133844180776,5.649137928689955,-0.32649381147051204,-1.44767623639152,0.0,0.04366970787560609,0.025143264330218518,-1.9440652798425526,-0.10645680990994777,6.251532559801539,0.23684114943048895,0.746437026351396,-3.2580162802968755,-5.1875292730995595,-0.07084912768847063,3.535467865733828,0.0,-4.281459078310957,0.6936478273562836,3.7718002434347087,3.731517755137963,1.5938019293857042,0.49502565713215707,-1.962020348150744,-1.795788558245226,0.7526536890410933,-2.2245290507334294,0.7744742039719588,-0.15420316016589453,1.548396545764338,0.0,-2.6756266439076226,0.0,6.6730047911343116,-3.7598539515107507,1.7802298365167837,1.638477213336153,1.5101605512096674,0.12436807125839655,-1.012264488087783,-2.4782709405488363,3.036454227020722,-4.483942861536299,-3.7082273997334783,-1.6006739579093652,3.4485147436311525,0.326918573476249,5.546074558524786,-0.13373978604408232,-6.736424126492405,-7.926283016263199,0.0841325303829793,-1.0204230664894853,-0.10853345367619305,0.0,5.07989010166859,0.2382443253035179,0.12211989330489625,0.12210643880284866,4.010985903819852,1.8591099658159542,-1.4704127029984098,-1.5360458659065248,2.8488588027353003,0.0,-3.13282495045714,0.0,4.169303582204829,3.101808272791983,-5.229822348212524,2.5988479655951986,6.736819097294465,4.314735507415639,-0.021735941567983974,-0.2068156371067208,0.8231231686633533,1.712102987930375,-7.092087424809633,0.7895997104509312,-0.8444862852905022,-0.30437981371427814,4.812023628363736,1.1854579142556738,5.024183514219464,-6.0928024643198055,0.9823336624176839,-1.2661935323724576,0.0,0.0,-5.964096201003083,-1.3564091145482546,0.0,-0.20627797955062765,-1.1370562454279232,0.015550302674081973,0.7183739008099606,3.042775582732986,-3.941975075624532,5.22237640792528,-2.9530370154703514,3.984606338293996,-0.5181255589457884,0.8932763199699774,0.0,-3.5137386177870873,-0.07605999205899705,-7.946759449457551,-6.180190873313936,0.39383267915982,6.859853580422646,-0.5178677942859905,2.1226491939930687,-0.8767602925398462,-1.2788867927345682,-0.04330376184058882,-3.010955747386841,-8.883066311119252,-1.5456797788491428,0.17785964231370854,2.6819620363835064,1.7903929015742563,-1.8915688398863222,1.0096198118518807,6.535718568835913,1.5662866891141327,-6.307736682333006,5.04753199596943,-0.8871083630853815,-0.1414024323534735,-1.4488784225271534,1.6503566794841533,-0.6839283606440563,4.855358983833475,-6.138505122294842,0.0,-1.0546046077533346,-3.0000023226471617,-2.5206074332597863,-0.9352789715380551,0.3939143436343209,0.27966021394770557,-5.074462996744015,-0.875632247714483,-0.5554440448226416,-1.3706693983362792,-2.2264052421705736,3.67943158020713,-1.149445229767979,6.271157836139972,-0.07683436068403382,2.6904298030038345,0.01956159299795468,-1.3693951808788598,0.8927243371894775,1.644230071797165,2.5943513149491193,-0.43211271031022536,8.576565137490828,-0.6077757465310205,-0.2429750848384934,-2.235406631179245,4.3924991464025895,0.9064992804585099,3.0686230505865204,4.0632414522284535,-0.22773043043380492,-1.2152627658260364,-1.941659031907617,-1.876440924550549,1.3950419400737555,7.089923879966846,-4.918635633762578,-0.2176078155668253,-1.2626666243464482,0.9299395856202862,-1.6404872830195023,3.625212377546367,1.6057999532223528,-1.357395309744473,-6.14294944261763,-2.0460095138643317,1.7107973694758143,-5.122749709735351,-2.81143329863026,0.0,-0.3825062340980996,-0.8125272943377304,-3.437195073048498,-6.689446817961098,6.738855734585137,-6.566387427367465,-2.1939214857249945,0.8302190777606291,3.856343821790621,-0.39800564455787735,-3.5307805251368807,0.5458537692185671,-5.1666489541168605,7.496807437801812,-2.2548732525032076,-4.567782876352341,-3.032310249614688,4.883595336355212,-0.2691050980032811,0.06096828625851469,-1.4685617552796093,-2.7274242943985163,-1.8526999487790952,-5.745940797338484,0.8187569479984272,-1.7978212402254892,5.006441514729737,4.097780747963473,0.0,0.15494431989062407,6.339450385318967,8.370394283292471,-3.543181279634081,4.612035278455263,2.710337713413579,6.6518829304056215,-6.751803912060694,6.820067520852726,-2.784676409145039,1.8894100300333538,-1.4894721900486738,0.9614626438162263,4.365190808222933,-6.432616038751907,0.1539405889077068,-2.6721933129443878,-3.521303214644468,3.268705651202617,-4.618435739092711,-0.07496125619985894,-4.7036972016611065,7.542711825897652,-2.986384455787152,0.0,0.8675441905944508,-2.107428157712551,-4.618086517884484,-7.59565686349355,0.2957512383621025,2.4183033347333085,3.4962016444648687,0.5282313919492952,-1.9608933533953754,-0.922125151238083,-1.388079181006558,-0.15722862100654866,-4.669448294325543,8.578309649849396,-2.270334035656207,1.6745610338481087,-4.469148934385747,6.71992920535779,2.8739957658928503,0.0,-3.0921659992172983,0.2245465529550773,-5.032985437640047,2.2152740603375602,-0.36108203155088425,-1.530261212074838,-6.794122154882927,-1.6957676199068195,-3.1714570576676544,7.26130564186109,-4.7246760209621534,-0.5092608528226887,4.053373927421797,-0.7650521937346357,4.345908865531098,-4.373170520139495,-0.23508633054411288,-0.051916046731586896,3.4953629087242564,-0.5629996210113131,-0.678353665768813,1.3460905810857482,-4.542828883228104,-0.44970663191128946,-2.7129875868877074,0.5260823294267406,0.0,1.1270666697585852,-2.404230527110434,-1.4638217663668236,0.540997735961479,7.337856375073371,1.7915018228417097,-2.3800436921285932,0.0,-4.490047852581232,-2.630667514465138,0.261145894789949,0.6228242361333437,-0.32888137491011604,-3.7155275256734,-3.8249533312037585,2.5158275097936866,-1.1911319419782542,-3.149073844577806,0.0,-4.473249340936951,-0.4624770364803179,-2.1925127612842257,0.0,1.3312544541818556,-1.3438562497354152,-3.4230233276868542,-6.145534070289567,4.478535551446058,-2.89533004267098,4.84981225552175,2.9014162940287314,-1.530144298399244,-4.656327435986627,4.186380430659062,3.7937372311049193,0.39599465594350414,-2.1852008355373043,-6.918117094491637,-1.4794873569110312,3.588725615134088,0.48802873278296954,-1.6048413885767394,-2.557451671575525,5.389946279534488,0.1552738833109586,5.886819066033115,0.26165801698505564,2.809996037190088,-2.238147628019724,-0.11844085335159238,-1.069981788569622,2.5970733884589596,1.9134305135134593,4.850160012036554,-2.163829263970578,-3.6189264109545825,2.0340548006810617,-6.678168464334638,-7.8317319646425645,-7.791860212823011,0.07328323753785593,0.34189341661231665,-2.3781866676626833,0.35846363009496585,-1.8469102545938032,0.7547059570712291,0.7591030670854918,-4.258858399220886,-0.3049422963043491,-0.3858702787888486,-8.705053392517199,-7.160081479830458,0.27131829827885035,-0.8347507135148202,-2.668657195454125,-0.8298995959168414,0.1823742883968833,2.561849131673741,-1.0354394033517627,0.79060897110295,-2.9433399479936124,-0.3668778281917998,-6.385316021522516,0.09772587094583585,2.245775545907747,-0.8978389995270741,-1.607839851357268,-5.3619143656767605,3.54690557050015,6.786831732324076,-2.7323923018064686,0.11002356599384422,6.043431786708229,6.567474552944006,-1.643625530554486,2.794592156208517,-5.032990187470856,-0.15999210365154137,-1.580886968393821,1.7695937372103354,0.5792043105384483,0.34318785500157656,-0.03274955724132733,8.78678641164114,-0.8140014300253152,1.4128208928396884,3.040632503466685,4.761499380294621,-3.0889380588070465,2.0483733580773205,-0.26435278995437095,2.8309923119749296,1.3541468416651548,-3.809448654455561,-7.879971525679475,1.61890042461255,1.8843328339398286,6.930318324146649,0.849754587807134,1.7457066970769044,2.0445321684705045,0.9693530551579366,-1.8819738252695557,-1.6154980144460795,0.0,0.02709935768467897,-0.3602476427915646,0.0,0.8461029874062348,2.411705933396822,3.2763632899186383,-0.5617836446532953,-0.6489381839823172,-8.364800438392056,0.8129546540422914,-3.4056224165158957,-0.5657639018227721,-0.28856555868535694,-1.794832845865988,-3.307307693278865,0.02363037374608501,-9.890074205036415,-3.141886097331461,3.7920764640430735,3.856426727302277,-3.29077736427438,0.40679151875370234,4.977140317433235,-2.1141527657013928,-4.6578587950924115,-7.510206124841159,-1.1364273873896114,0.9058510140623941,2.137727748669747,2.623010441333736,-1.9410684711909403,0.0,-2.912471124541294,3.1779058384192322,6.915360752250367,2.550203613352899,1.7466844274201632,4.461758317964844,1.1967430376190071,-1.4787813688665723,-3.4241887696855677,6.855654277093235,-8.428413009662918,5.5538858785002,-4.143040941234458,0.32824361596395846,3.6598657630409024,-4.844432036292526,-1.6374967410200703,-0.963004038811125,-0.9204571078399313,3.115320047314043,6.2606028563046685,0.0,5.626772022740317,-1.3455891492549745,0.4502871217470593,-2.665438552868359,-2.0712650675641573,0.39606170826461196,3.0887412871505973,-6.556451334411767,-5.816404195853665,-0.722400847967256,0.11695680697549315,-0.14069533561523362,0.1323968500076551,0.6552633864257353,1.3724085767774552,1.684942836102985,0.6039125068101754,-2.2031244007759554,0.6465559855991866,-0.5328446791562622,-6.722631942537851,-0.17705218493596786,1.2501835152004683,3.9434240674338055,-8.38815329993433,0.0,-0.547637025474555,-3.5036946772942708,-2.621918854266302,-3.8626325284856344,-0.7336083262288426,-2.6599424920209804,-0.2604145727687319,0.2387776137199209,0.3730538450212333,1.2906948645541991,-0.5952103510543334,0.0,-7.115176196817527,-0.06726402012195554,-0.2817461909687897,1.2090023223445396,1.6933583743648435,0.5823888760350373,2.4683061657279177,-1.3545245276652103,-1.781065192493446,1.1236899070150033,4.97218398239996,4.232910307764623,-3.704565219040264,-4.005448300253392,0.40301239051821947,3.984925423449609,0.0,1.81774550972106,0.24181179574753653,0.7237854135936416,0.04224818046997392,1.1811664124641355,2.785219370108323,-1.7670358652322053,1.0259331323841647,-7.3726891246612,-0.1288707734383392,2.4314916098296493,-2.313105212919366,-3.9671686605881766,0.17683642614879536,-0.0938564948060796,0.0,0.8755518203559733,-0.019197315421515704,-9.68993083437553,0.27960343049924585,-2.024820941170983,0.018428178549042773,-2.126340493210772,0.8878200517744007,-2.141183944716646,-3.6302652611078883,-5.631153504722526,-5.913433038080507,4.903358674797388,0.5337930051244385,1.4760532542072644,-2.758277956735533,0.5678549703581323,5.394498725378751,-0.4099944607802075,-0.6708348600853851,-0.536413324201615,-8.174475350035275,3.0658674921932136,3.151014356630276,3.2677620860017687,0.7460616831157431,6.9543630009904565,1.3521381355736861,5.024252089098219,-2.9483027341099763,-5.777263541708955,4.2389041933993115,1.3408687751036679,3.276804872944409,2.790118765991459,-0.718685577032238,-0.5042658472184598,0.4728724906218169,-0.865953687473855,-6.654294274966468,-0.5263510923564969,-5.278618033425703,-3.4697672626816374,-9.80495951389192,-0.434999302434928,-2.845041160697999,0.0,-0.3841199493793257,-2.190391979672004,0.7361317923300211,-7.07943814117102,-5.277544440680687,2.326413960827943,-0.1323630223150083,0.4489585769098736,-2.6007009160486856,-2.744830962770027,4.3428874943878615,-0.5599050057485588,4.810145475620574,-8.7974530108379,-2.179974148620765,-6.8600976086478385,2.1639129511125645,0.9361057939070532,-1.1545010858057727,-0.4862018798427574,4.213465199020657,-0.44911317853987454,3.9670746822690672,0.5944875996323113,4.192172223401146,0.43368180633099196,0.6768675297003073,0.4890796722450246,0.6446985451041017,-1.1709522755729451,2.6736158717744756,5.167403284080754,-6.323846732379639,1.2668009882494156,-2.3008615485903667,8.131763307193966,3.344675550048369,-1.987344560958167,0.20149476906594854,-8.312346626387203,-0.8386782022490893,-0.3080601060647745,0.27126430264059465,-4.017819525277063,-1.6522611945259602,-1.312800178486298,4.943065302863387,7.623306955439537,-2.552629464683019,0.06827245515126457,1.4074965966680568,1.4139568717881967,-1.5416072056680663,-1.0135467944212704,0.6766608948408779,2.7273171093774193,0.30336108792263394,-2.0628695117723983,-4.161427083343772,1.6471305450312306,1.71006921901325,-0.45106152462225013,6.098940382554017,-2.2188122678395374,0.23356501770868254,-6.540017283535071,-1.5785238918170441,2.953994273960822,-0.4459566456075662,1.2131407687706601,-7.282386035534472,-0.5664683057324245,-6.212688234046338,2.704948285388249,-4.378458158102142,0.8900880001103146,1.1394084245438112,0.0,-2.928903165373966,3.3001272887111135,-5.318156235295785,-2.4458758702790186,0.3308197503560185,-0.7666091538604431,-2.6298108504509914,-2.6472156074593425,-2.402135696340495,-1.9381459630847093,-3.9200739971472043,-0.516442661772395,4.7924283680062825,0.22179536805535882,-1.8848090474011414,3.6186549246694484,-4.081401858300962,-0.6093142501125416,2.5536706299768235,0.29983724762404773,3.8585254573649785,-2.4526319574714313,5.401429843585805,3.058750707547811,2.056121000174742,-0.5863722657037791,2.0884258444037376,-4.210582231250425,-2.932489559757345,1.2145200815784079,-2.494090161424228,-5.7175174994701825,2.928365710239527,1.8325186137952392,-1.888862334337384,-2.9223821926632723,0.9105356723121663,-0.21029283826744538,6.344005249572841,1.3372865483870615,1.5320972195759912,-2.726441767684946,-1.284207257111109,1.4344741174181015,-6.506419525504558,0.3134541008190226,0.0,-2.7253711139604446,2.1153963671476133,0.4016398464576365,6.997637404257366,-0.5700739263595689,0.4286072281425093,0.0,-6.287445924892543,-0.5970612115757756,-1.2713032912142237,-2.541653789622405,-0.6849427965919812,0.8834484686133866,-2.505900160556914,-0.9335863823317017,-1.605027590818587,-1.2081606895331443,1.910752485896769,-6.453125729395107,-2.452569274019586,-0.42781276291283377,-1.0913582007033784,-1.3646911761693796,-0.9072300051806603,-1.2708339376962932,-5.80220909476254,0.4002654554729004,-0.10333059027198377,0.2730012013554868,-1.0366302238879226,-5.593475450154492,0.9384204112582439,4.888015121190894,2.4489983998705385,2.308897526997938,-1.3703426702632016,2.120328458283825,-0.1745246459565064,-0.863625711921983,6.975807048391104,-2.9307388281136193,-2.8269767265781103,-0.3594649110001308,-2.5052533032181947,-1.7800740234213857,0.7912623579542863,-9.486909470118178,0.15907674189472676,-3.2969083437450126,2.7252584630962198,-4.33437689084851,-0.8362594236752727,1.235778340392684,-2.011327733763031,-2.3596398460776955,-0.6939165575240624,-2.803785386433817,-0.804452261882635,-0.2711638039111224,-1.5417719220454384,-4.988891101437707,2.2261414913403796,5.069542351848628,0.14215798441857452,-2.9782331162048656,-0.38713141794125505,4.32771092274729,1.1758477425611342,3.268389749142064,-6.570756836302861,5.237063367075141,1.9312303958688433,-0.29337689866156125,-0.22851593166768014,-5.859389453842073,0.0,-0.21477655851791466,0.27925496434554853,1.1294877985287095,-0.7712705607612136,1.560252935167051,0.08961272038575507,-2.778515736345268,-8.480966498694125,-1.4401772634283112,-8.306908566026106,2.592611836261499,2.1107251183597824,-1.3014993525276042,-7.1445024628402445,-0.35716012840122313,6.732637920845955,3.720517677766433,6.957403013434723,2.8655674091211667,3.9279207011440724,0.23283579767887974,0.0,-0.18759948360939904,3.827908443154744,-5.917904791612236,1.4154982297672893,-1.189293124280589,4.234783202993716,-1.880796581069384,-6.400992632393078,-1.316422714540415,6.831881164574273,1.2863926161069483,-4.554500761294785,2.2498150734733215,5.349732474222128,0.7639497511307263,4.679573280875297,-5.832193110546933,-2.393699174317578,-1.1546811410618885,-4.876533129731422,2.2413094722961224,-6.924449413626128,3.9637381509334877,-0.13738896144886115,-1.3243246100108867,0.7801622663771675,-6.01199038819605,-5.871969642145239,0.8940471144840179,-0.4134525800917582,-5.975878820263399,3.4422450831348,0.803465116293862,1.3015518269243778,-0.3403493402746167,2.074107116850664,3.7284860020655275,-2.7010408110893342,6.876247463469636,1.5404358393460247,5.36212386094517,-1.0794006685289432,-8.890434031718176,1.5836614631639219,-1.5633787780159216,-4.816622290778902,0.14602571869019432,1.5400727704378239,-5.336756728470769,-2.34505759547087,-1.4366098096327828
3.8129012901486257,2.5246851538799917,0.05632895908826174,1.6383694743601862,-6.990608930937638,0.003721703804574261,1.437914169858523,1.491788637941617,1.8286097284214617,1.9005120135420288,-1.7725202477508457,-0.5563072369914492,-3.528783910875424,-4.4682676630368725,-0.6418394472984613,-0.38982876070161854,-1.339727376060834,-1.5416329355412672,-0.38344116788809157,1.9056257728127481,-1.0341238433211526,1.979961210755284,2.2232467223517514,-5.347652456913873,-0.502247076183469,2.933008295014629,0.0,-6.733624612816805,-0.9010455175777017,-2.498184050044167,-1.9378535203930936,-4.689569713838813,-1.6624278139569246,-1.1804066644280624,1.671818065936497,-0.8309275753843696,-0.028015779138547137,3.1106185925136494,0.0,-7.580173588486882,-8.348668513602698,0.12643220248098586,2.7218988714668573,-1.4146112067460859,-4.6037622617862395,-2.2165772537750175,-3.278857187198545,0.5882341394100571,-6.219258199125715,2.1864340895494716,0.16386456461279497,0.506218492911706,0.0,0.7288899925328436,5.705114243796503,-3.9024565488928222,0.2084686610681431,3.2432503740380363,2.8357926414427617,-1.3580943813488846,0.033756179988979285,4.742191541283248,-0.540713566717649,3.4235163653040055,0.0,1.4022238966175198,0.06944966918148543,-1.6240548899563012,1.6447098617732692,-4.075136562154249,0.3606725269371416,-2.4450781455774004,-4.058089641948301,-0.48843204288895925,-2.7059292147202836,1.7337294923260398,3.1023552583718637,2.557662004939829,-7.640462485200892,-0.07169530063234797,-0.4383440303733319,0.4133291384317451,0.6618273863625262,-1.6711028630679299,-5.531676838697315,-0.30141783099749464,-0.16340705224603735,-1.3891181442817664,0.26077727140897977,-0.2694662651798576,0.4375471324924949,3.064824433136887,1.2536261994823068,1.858003451010949,-0.7230187270910362,7.669708597296372,-0.5349412416594783,4.5229079373637235,4.866284540265817,-2.8081582922158654,0.4935554521024814,-0.9181546842010355,0.23001577990517985,5.189924507831729,-3.0724936104750147,1.7448780470650758,0.17411810623993418,0.8996006797024536,-9.656287816148364,-1.9014599651641126,-1.709511965999328,1.925723282969455,-0.3971072001047269,-4.238459683345757,0.8932514818441548,2.580662874286033,1.9166680741815316,3.2465658720554074,3.317358935517153,-2.541954281923258,-9.283318900809904,2.1570619381048974,-6.978845977791297,-2.460814906010084,-1.538866987106771,-0.6585554683581399,-2.923256312863618,-0.9929145101774597,-3.1828153460531317,5.1632686475549185,-3.7850650909344585,-1.8705204496787728,0.7060646238337744,-3.3801269135004572,-0.6617612801841227,0.9040731682093845,2.985908312419207,-5.296005205856396,-0.8615829092284535,-2.7086783910447525,0.0,0.05892727991876778,3.23496027623474,-2.7735050605813494,0.3013059755743288,1.6534290943761771,-1.0620824010379402,0.5483487789665847,-2.0446123235822853,-3.0648345801739136,-3.4576555524638195,0.25488805280001503,0.31013956527058384,4.446182772075002,0.8850093236048673,-3.2357503649872568,-1.672506939192059,2.8025726379953855,0.0,-0.7720107619302885,-4.517444376126868,-0.8116372046456739,3.1808120716522508,-3.370810105218415,0.0,0.19903464020733386,-2.4674416816078333,1.6217681813959723,-1.0125793793941757,3.090393107409721,2.615718426625257,-7.923569878386269,-2.3569652689490983,3.5171641123313715,1.5559971565465471,0.06282350567039074,5.772968829263977,3.335937366681883,0.0,-1.18377254891802,2.8208433306432354,1.2728652122792337,-5.5605093712514275,-5.0427092752061915,0.8740513387511895,-1.2646342750773236,0.6038663615333255,0.12328487628657747,2.746829128726846,8.500287333655258,3.4729194855834153,6.761985796600056,-3.800119509116956,0.07426894808754769,-5.546844909691841,-1.3959542717368594,-1.6277217371216144,0.7283686821656101,-1.9404339648010287,-2.237644049230176
-7.971999441072489,1.746797076057934,-2.4710344877891903,5.133660775708595,-2.8204743988447043,-4.039311804807406,-1.634579171343253,-0.6176758528152878,-4.000249629231553,-0.16825677784749138
1.1674716209374076,-0.9163268114180951,0.7043708474770343,3.2966362711286754,-4.196259805204136,-0.10541161397232979,2.509959206020586,-4.608965111208054,-3.9730746327723496,-0.6753736231266001,2.5871967839613306,0.2572586419826308,-1.4750265428128535,0.4031922255733361,-0.2448317987049875,-1.4760415821933153,-0.2863091507882083,7.942311987710019,0.0,1.9647020734783107,0.8326870482125757,2.2417912732549006,-4.27657691990181,1.747552744526775,2.848038184206323,0.6153366367419948,0.07647598456363125,-7.173994564063294,-0.5770912962807151,-3.2761957839853597,2.245856796388873,-7.323287938819134,0.09599865001588803,-6.052113844153801,-2.3389725539211152,-0.8499684234348319,-4.815657342034642,-0.9510128845757375,4.970171080552997,3.508331658002893,6.368025237208469,-6.25524746015848,-4.43945600067263,-2.0828629651318455,-4.323624831988474,-3.033437522911622,2.2698939161812595,0.061601123781004574,0.04744465899550776,1.8341923062637746,0.01753285656691439,-0.9195484207924494,-0.7724991853090828,-0.8206204085001368,0.6260256343890369,0.0,-3.4861628627939907,-2.267527491991764,0.0,-0.835425074507719,0.19103813206434372,-0.6719659044479003,0.0,-0.6844532060698825,1.8290187299791043,-6.952751497103322,-7.024663301406759,-0.40979149605475496,1.711771960039755,0.0,-5.183535187910715,-2.5688705701715886,-0.041722333574111814,-7.959040180901008,-1.4196247612487787,3.2332111457701043,5.215125887327738,-0.4413724119684008,4.401471924426939,-2.7989502427553075,-0.38021820500683257,2.8915096424681854,-2.305182554468802,-3.487248955720839,-0.4841027196822927,2.7614984014246824,-4.405662453091253,0.6093883404205129,-7.070935917201771,4.068272415425797,-0.6094301843463888,-3.0942700087244486,1.8306876184508147,-0.7095437628173067,-4.809760293787825,-2.0152988351407704,-2.1740370644389744,-8.749849591217929,1.3719707578477758,-0.1395666369379983,0.6425458202099523,-4.427157236368746,2.018469945061218,0.0,-5.024237983503828,-0.029519135001563557,3.0204258716478223,2.3866298764665665,3.1889202598102404,-2.415806148908973,6.281269673158423,3.938014924498954,-2.4465524426095175,3.062549627174123,0.2648648076148352,6.672147601028321,-1.5426045980098753,2.0835190655209512,4.944842245560085,-2.3828193655310423,-3.2739864792129714,0.9115518424023099,-6.041406056282604,-1.9912631107395473,1.7772784953677685,-0.28857730791404723,7.881774989610094,0.2765983821608482,7.329397320268106,-0.4605939988631701,-0.9277007105243454,1.6847301900108085,-1.273880409374932,5.033371649986622,-2.1776793216285992,-1.7815462832068851,-2.9324536838697774,0.7426748085178837,7.838407737737515,0.8772635905065873,2.964096471481893,-0.5542281434903658,-1.8028249674225,5.184181368461994,-3.3921940320407393,-3.5778553160133453,-0.7395887419399134,-2.561799029826833,1.5881606810179714,1.148809198586725,0.888023706284028,1.4020642944884856,5.355499884458042,-0.018517393336478394,0.0,-7.075721590738906,2.489733338143493,-0.8607088321528784,-3.413604450459891,1.7567179237830235,7.666400548589585,-1.9470443968377062,2.202677413588005,-6.284444113060221,-0.8029939502903736,-4.0122132570563975,1.2483229749026288,0.7598518515299086,-2.601948096781201,-6.331712829261747,-1.5655409033937824,0.0,5.051826471975488,6.777505584071663,-1.057548036844526,-3.773266349495854,5.267848293423134,5.801949072562907,-1.1248790355520932,1.312584933059619,3.4239562109333526,0.38847703586875293,-2.6402860638402315,-0.7345105745934416,2.135030070400521,0.0,0.22096897450675823,3.900565362853947,-5.284436947182961,0.848658186786639,-0.30802503380681856,0.5015852811791306,0.5588780486350164,-0.1431991945385116,1.3868178761371235,-1.6702214126022343,-0.6048042295670999,0.15527901389643972,-0.9494849570234026,-3.876667607496954,0.24501147593558292,0.0,0.2415554818860598,1.022637174322548,-7.218355944358738,4.541781577193255,0.0,-1.1501452426697625,-0.49530679199240424,-0.34059239288551035,-2.9038554427824828,-0.44565411164647295,6.2289623477680305,0.22875989426320276,4.97676033981835,-2.3044999089970823,-1.1558618229355797,4.2805777169319565,-1.6229083312575783,5.077176974879728,-6.365138776928544,1.9226287634035835,4.609403238089612,-7.154899919371238,5.313968540263052,0.17953228738071703,0.0,-0.07859017654763878,0.0,-0.6951509829459455,-3.2507641792040314,-2.019994752708026,0.0,-5.662008893288603,-1.573456945048527,-0.6540251011157645,0.614143818015093,-4.622817783074641,-4.489101446535229,-4.142966035265015,2.5192663640835526,-0.7915564907708341,0.3353015506777346,3.502415254687739,4.809954447697835,1.5988720913107084,-7.381811342397708,1.5572656473979463,4.339266687798382,-2.1630360426756163,1.9306198100455187,1.045836772300858,0.1380020542947028,-1.6209219061073865,-0.6962681359856975,-0.7287856372616763,0.2502064917387812,3.55656798743357,3.848351890225194,-0.3291236449261794,-6.197921606258775,-8.70430572013108,1.5655037912826795,3.665070982492557,-7.9233034894338585,-2.0004520402292467,-3.2616005268826322,-2.744262333085312,-1.7739818668589513,3.4528032488778986,-1.3410881333192872,-0.17468269208954834,2.0668165126398548,-0.20501242582338475,-7.183265652450138,3.3678231809151153,0.2814705432425284,3.1022108505580666,-5.020486249824756,-5.599390179304677,0.0,2.8205730644426237,-1.0693085969003833,0.05683882805890872,-0.20702682595161925,-4.534701990801774,-2.411375221792209,-2.916357744902703,-0.41750222191742437,-1.044379768384386,-0.8210722464302594,2.562880709624188,-2.6962969336022025,-1.4396105701829742,-1.7933933186249271,0.0,3.44905827670592,-1.4793251294662837,-4.655190348513928,0.0,7.404702744060604,-0.38503642026137275,3.6126280856649577,0.8234021517237464,1.10240698672159,-8.659894024085888,0.14970103871594864,2.1711322075548827,-7.411958773962384,0.0,0.8559489713860935,2.7034107139308445,-2.964369912993266,-3.988854676287652,-0.11040034650511399,2.672045075459791,-5.792962746355115,0.8710951727975822,3.075003746628276,-0.789408470755083,5.464182654936573,-3.3159492652357088,-0.41438421002597536,-1.4642585290674348,0.0,0.0,-3.6591577055829108,-3.239903759469779,-4.863444054339363,4.261406021846225,1.8008686381138657,2.1905186138882504,3.0732406460447663,0.372311395232221,-0.1354055055525354,3.9603874416586957,-1.0689041561821926,3.504628098760624,-0.31496844161904736,-2.8989707848708015,0.04199325411593868,-1.1702157475742203,-3.3302643294897503,-2.380548862076373,-1.5837441101985759,1.4984450282329447,-0.9475837815232038,-8.426935533311799,1.135508067556498,-0.7252370013954912,1.1930491680933115,5.450729421896889,-7.076792069722461,-3.665849863582774,4.284818087992779,-3.7300547543540077,-2.6396690650477797,-1.5278175493387436,-7.892460027383306,1.1181487445379878,4.6355908544612605,-0.0379713160013746,-2.5078241852283516,0.4976232757081742,0.0,-5.19162669111609,0.1324492378984674,0.0,3.9808101017511177,4.607083809169788,-0.18784403406730932,-1.1875843086478843,-1.8102940191130958,0.8742913612433196,-8.997912287606756,0.19744680424348804,0.0,2.179689206640052,-2.243948639266384,0.0,5.08450857614399,-5.0650952160226925,-0.7257739615704395,0.43414173945662693,2.401044243860831,-0.2723686363707317,-1.5910176312249007,0.0,0.729276413079716,0.4025636615199276,-1.0135747634337362,-2.5326495720137583,1.281306655976354,-2.5363448768785517,-2.15171676727332,-4.415571180831765,-1.1876768630741856,0.22752505465751427,-0.5600124023809314,0.3709273198938442,0.2279912374951215,1.7918452277415777,4.864502291154903,-5.247357340910205,-3.5214687074367346,-8.915901717195926,-0.9438576834010914,-2.567707500379244,-1.9332269435269511,-0.9525881483520711,1.3896266253562766,-0.9459119273177162,3.5333820708866694,-0.31679830638835216,1.8682708116059898,3.2819233825998295,0.5261890596185306,-3.9645427603371393,5.283084196140569,-0.5507332260711008,-2.238445099106651,0.38631279880118496,-3.2725584872595364,5.448015715738091,-1.4039377228166383,2.2122814733476903,-0.04504895317414437,2.3779309286413675,-3.229749496495091,-2.1740120462116774,0.9694621189221095,3.4207691954920962,-4.357715329824329,4.083470495005531,-1.1300833784989195,6.319440071854785,1.8198040588318123,-2.9942008273591267,5.26004759038103,-0.07441430906895574,6.369843023164033,-8.619228656323376,0.5632901288703701,-1.811697978204125,0.19525647526577306,-4.533644002539174,2.849906841407817,1.36630576689508,-0.27789719623996056,1.6157406361371058,3.212999736039884,-0.9036750720958995,0.7233093968591542,4.625053291659839,-0.3334681003374791,6.144921118069531,-4.0802798836545175,0.4216322680688327,-4.103818137008134,3.1626984319064926,0.5321282977410416,-2.9571921249314164,-3.7687595591432794,-0.6979506988102179,-6.413293969073484,1.128234368573008,-5.145831931853109,-4.589911269941121,-2.68825616471583,-0.5333549243884779,0.5812584828499328,0.6099272753840511,0.12349224773532885,-0.9504976386056174,1.633138957101263,-2.983261991208237,0.34436108858868997,-0.8047909990777593,-3.0459257280021292,-0.05857477847054138,2.4431790999839187,1.6050740120480493,-2.550092298800933,-2.475191618865888,4.267401287043537,-0.3489272283509677,0.0,2.7617158641875266,-1.5530850387375446,0.9912404619635884,7.4876799969064365,-4.152152925134763,-0.9661965838682284,0.3521243497513882,2.3330544131547795,-1.3264625372358667,-3.616577408441349,-0.45997542068312647,-4.091339153764633,-2.4670343635812477,-1.8103765694551976,6.750444431583727,0.0,-2.9918429742343564,-0.938901520017541,5.285471591310766,0.7676647343406513,-3.517923223976011,-0.8956394745097006,0.45103554363891873,-2.9358452513935873,-1.259907184578311,-3.632647505438015,-0.504830640686223,-0.6349832822489445,1.875863352863575,5.771867919742381,-1.6136362758799123,7.324428355563707,-0.34608480930244667,-0.9057804147150065,0.0,2.425792069426258,3.7837481994560314,5.6376588049637775,2.741041515509175,-0.8064187793516769,3.90470875421674,2.006472851204034,6.2012961576423296,-0.03447475996923033,6.831662193852651,1.4957536031126821,-1.726353419299917,1.2797954819140478,0.6006265802864059,7.0186279675427965,0.7976280907591186,1.9780444737690623,1.6889954915140968,1.726528954754298,-6.990655382399722,1.3439160423839045,-0.9757254494590186,1.903019972905137,-2.59983998132275,0.0,1.8223062511176664,0.2891568982581987,-1.193853732559167,1.6669397856502788,2.010794590887176,5.045344140283849,-0.8813752706737021,0.5168274360485317,-3.688719574527415,-1.4452018207418638,-3.5872561720632374,0.0,6.6511684421076565,0.0,6.7594267804737,-0.5018299722516545,1.9736086941994646,-0.12301299323160408,-1.064919378190169,-0.8831644402186247,-0.2587478014731319,0.9482428987610813,-2.107922727272137,-1.1372355762387294,0.8853491281029504,-2.1407441574089585,5.563841986785533,-6.995956385625951,0.8589498049099613,0.396842402835649,-2.268984520369721,0.6260130062332474,-3.184934671313151,-2.831312839579539,-4.770066987476173,0.0,0.9554434301626902,0.30914322952871354,-1.9318347249992844,-1.0570941229949131,2.133995497335996,0.028539664176172597,-0.9497428208565066,-4.88951508428167,3.965469520019941,-0.49901932163353924,-0.38982429914465566,1.8836700069315058,-1.4670022045473412,4.798162046984721,-7.720433451696714,-0.7237069905772013,1.4029331086139756,3.324225190819225,4.713695836538403,2.6391444469710086,2.0754373800463495,0.2726777769079818,6.038859696548447,0.07479012850612321,-0.8076571536326114,-0.342991016859991,3.273057715417245,4.079430286038025,-0.48584922275348175,3.105861483440286,-3.7071421292188425,1.6405259090631081,-4.809546540413858,-0.09370164172040296,-0.2155973953156568,3.171482179881328,0.0,-1.440802080840803,1.695674283998589,3.53186492259075,3.0327491129968944,-1.1318063829427303,-6.862623497658149,0.42843695206565824,-1.72329829310975,4.9838210294028515,-0.41830417811265364,-1.6939304021409667,-0.9590531700075768,-2.223056088292134,0.27849569469163415,-2.9626825198989604,0.6424529384827732,5.309998397306604,0.6588565184616921,-0.4324428776964817,1.859433638560396,-3.184971187251146,-0.5548073706557135,-8.115912189314683,5.093909593607398,5.667445921926028,4.820503446581895,3.558182290296378,0.557196450475963,-3.0742066184074943,-6.367161983530119,-1.2315116264951322,-5.484168247025329,1.854042086101756,-0.5899022184857747,-2.4761950437921056,6.614224080874493,0.32760329078662476,-1.2497091316511268,3.4963957351893526,4.214180224643695,2.264516087611484,-0.1590558946541769,-1.9521186084563282,1.0411869672534766,1.120955207689927,-4.2249186066228415,-5.926422289912847,-2.1196273284557705,0.0,-6.311474625548471,-0.10887887835508314,5.78321159782899,0.7850298606009382,-1.165714333220924,2.150077583873175,0.4150304261494788,5.014683639170922,-7.892227393460794,-0.7497408452495707,-0.7897822244541755,2.123358909088852,4.141630353910526,2.297149303534253,6.4696987614535395,-2.640873455695535,3.369433986696617,0.0709602833095615,-5.7985740041114,0.4562531157828825,0.9374916569622797,-0.37000084702749225,2.2409374699816746,-2.2171222954252188,-3.9848378033778245,-7.593193526628473,-0.6748000029147039,0.7289661995158694,4.370839130545861,-0.9960378272334112,-4.378230115209566,-4.409071007126211,-4.030110594559482,-5.964967011253997,0.014110911866868747,-7.797933162934857,-0.5924327935606066,0.2885561113072618,-1.31631158671886,-1.0993395317899297,0.19053183976970856,5.897660460974183,0.0,-2.8282537738997817,-0.6768704792059412,-0.9400294799458176,6.149561686487141,-2.6677881830247454,-1.8812102660533636,0.8686291108768365,-1.9854780600299629,-2.192713445653145,3.3296727801464785,-2.660138656406242,-1.7954141762121427,-1.4463596447318579,0.0,-0.3718743383781361,5.649587263123655,0.3017864960923422,-2.8876228997597346,-1.2010069460832784,-0.8457737993501419,-5.357539590853284,-0.5448903806727315,0.2938727400438036,2.046738815023307,-4.205750921594607,-2.565974388069756,1.2736377195837787,0.6517320618116427,4.798779828745787,-6.746620724128814,-0.7813734077513318,-5.004617888165357,-2.797211990721604,-5.818201812687506,-5.1022292456770675,0.5871624177662979,0.7926537260557025,-4.084899066435647,-0.8703409127709875,-1.5732319952723988,-7.197367641940396,4.758215279203787,-2.6048401611364795,-3.1872338535863793,-0.5307630137380214,-6.237936873232535,-2.7123660582233433,0.0,3.284497216135164,-1.8296397553272348,-5.579108157570227,-1.683699478114233,6.057584724765326,-1.9122991790355321,6.82309433758172,-0.8367851951483964,-0.7985323932894398,-1.6922818853737858,0.9993512310974719,-3.6824799831600927,-2.771137882733942,0.0,-0.6130115714227791,0.7714608869138901,-3.185038095469615,-2.9058654716609804,1.2954023203722826,0.45846665846969303,1.115623831260485,-1.9749959000405926,-1.5276838311230312,-2.179625748425846,-9.771617453892027,0.532650426370076,3.8356388320026413,6.145672658772531,-6.801731917668438,5.3913188337315985,8.719634174079959,-4.285972047968049,0.8813971057445609,-7.347620833210097,0.3639215225917689,-0.5884995781294124,1.8253871591723538,-3.874348294383255,2.1775893686984076,-1.5138717722564694,-2.638854221463308,0.807450872809774,0.09024135886959195,2.445375088438016,-2.2666026771277723,-8.267471454425413,-0.9134573708595967,-0.9139984181662653,-0.22946432778141013,1.6453318653357671,-0.6393409171005673,4.007930114489332,0.920133532663376,0.0,-5.666962302911018,0.4881594929122879,0.5509376738654654,1.278457556621111,1.6364754118544973,1.184975835649186,0.9346728116862338,-0.7381077012088829,0.0,0.7179754978751685,-0.30629775522540936,2.8228961591934567,3.943125392153638,5.61449971176321,-8.686550232430072,4.215221806799869,-1.7943215563998272,2.5815544859796082,-7.624278107542963,8.524077626628063,8.527091817606019,-0.20471146680199814,2.391566770262496,-0.06679882304081242,-4.453469034276048,1.7033144448258604,-0.9043892698902223,-1.3144022598867107,5.174525399244252,-4.054174442109006,3.048704018432267,2.5914943248933855,-4.466451055058579,3.7186035676217517,-1.0499186448356959,-1.2830045732525175,-3.1724018945448726,-2.598678255630925,0.7604330086266835,-3.387232217972322,-0.36848628414589957,-7.3648953101689285,-3.0476478748435305,-1.6457519557511893,6.277974410261799,-0.7659522227293184,0.5552158162059827,-5.111526040577769,-0.23349680627730995,1.1237237171693195,-0.3286181463455513,-1.7998387724939002,-2.210750838061921,-2.4544162769495683,0.01079822376311279,-0.6864017958966919,3.0496042848398925,0.22638750302969357,0.5249710685137821,0.0,3.9583664424393534,1.0812466120716961,0.3730225125953006,0.8900259550222196,3.975310634053656,-5.085928290373252,0.0,-0.02201045700697213,-4.43650227701421,-3.0766736340233267,5.099830367680552,-0.3056026573151366,0.42457019577549615,-4.975795311866471,-3.681159080476726,-1.7245273704334922,0.39764576485402214,0.6469469866230693,1.0898355417582979,-7.613934120717089,0.04993842898025458,5.224335682770004,-8.265685372668777,-1.043346233032802,6.531302412479589,0.0,3.6767520153272693,2.4567261261228195,-4.858716908473407,-4.8663705298683295,6.008600280468777,-0.6186913220745732,0.21335410901203122,-0.3554329802132945,-0.7522303059936708,0.3838634854093905,-7.6510775973898335,5.7623824053573784,-1.005759686241368,-5.425340585403122,-1.453254584040566,-0.5067273609974867,0.8260752063602324,0.17619108501435798,-0.008058085379201607,-4.246923568216994,0.10001410317429471,-3.2364506425222874,-4.49442061659432,0.0,1.0380491078390135,-0.3171986853619678,-0.06069227917803677,-3.851505578081879,-0.1875556080138714,-1.3257305300834024,-4.907793127750404,0.0,3.33205613653017,0.5020637419107734,2.4432665941732994,-2.473490147525424,-4.281664877874736,-4.154585138371254,0.5935771282419124,0.5959252557610721,-8.338874613900268,-0.9461564157879196,-3.948899621427202,-1.4863985765540524,1.6896238828231083,-0.7983336408511905,-1.8014643912505546,-0.023297265712884485,-0.2944674895434939,-6.802048747944289,-4.60398927449504,4.660282536552119,-0.7696479726412322,4.264628260286602,0.41322658246487565,1.868681356913357,3.8087795329878387,-3.2098039230180953,-2.084038480771629,4.198200387237029,0.11916310010573516,-1.0259333474529164,-5.6998899523695705,0.0,-2.736207699421551,0.1336100592126368,4.486547956897062,-0.19791925347798234,-0.9488751542069642,-0.19907342814524154,6.243763905922375,3.1213783863536166,-0.670375916681243,-2.0300595829771853,-2.5302762296265016,2.0337165368456267,-1.3621587863201843,3.1375217558065827,-0.9500740540606506,-2.262863499707969,-0.7785853790960068,0.5615184924866105,-0.080494655571835,-0.5815319712750364,-2.1796025850897074,-0.009696285989145736,-3.1348978672939074,-0.2910298614532485,1.4720152055134026,-0.6524353561215992,2.0923367060321567,4.948985749777552,5.356872548891389,4.492542432954172,-3.7897690649578792,-0.10745484602861277,-0.38673894377960516,0.6227621839544615,-3.424675678528606,-8.688199101548516,1.8293804935951865,0.0,0.7181602821184384,7.69757725291629,-1.4242791699526656,-0.0182171087662919,3.9592549625934756,0.7190749003389372,2.3201777222941704,-1.3721845459550823,-3.0890134699746916,-0.13624461185476378,0.07628604081468704,0.7292856467221731,-3.737243694548589,0.4698116611501115,-1.5794463269938814,-3.3349299383160016,0.8987833677303654,3.848778021904307,0.9488719394444807,-1.2145722892625643,0.8881728815185587,-0.43037403335756064,-0.522774959619734,1.3854065405492246,-2.611895099778932,4.224604889973321,-1.082768555649039,-9.622036849814213,0.4449343672250132,5.428732100690522,0.28621412504168164,2.417810345815311,0.0,-2.5492196773372315,6.324129661965786,-0.6147276204206632,-2.3906731901565292,-0.5884558606126697,-4.023217218617491,-0.569714495450376,4.162504352069227,1.0549903406679615,-2.886338713397729,-2.679193570875869,-4.634956699796561,-0.5202770989605728,-5.957929219777479,-9.565055396576035,0.0,-4.2390635099181315,-1.2737097335926952,2.4277440786205373,6.9685273521316375,-2.576621584420746,-1.9891194138548052,0.6521182956036113,0.5313459380917234,-2.93476186730219,4.847771056435252,-1.834446459615242,-1.961931541476066,-0.2738148541903429,0.0,2.800416922130515,-5.220164788979574,-0.5112751508287793,-4.44587350630902,1.5955550038223865,-9.606565195384343,-5.5462550526845185,1.2098900028812172,-2.802912069409701,0.622934026208598,-0.3176559838490567,2.7181491962250894,-3.1805658962050622,-2.636333879029701,4.1616554051083074,-8.771065474120991,-0.12870996489953934,-3.2206856513282114,2.2462551236093997,0.5117549895063953,1.3895406645070905,-3.5179677638663462,-2.7645680938269495,1.9707818473980505,-1.8441973429373344,-0.7781816722014803,-1.7333776386567494,2.342461563202666,-4.357793559430226,-1.3875619346218309,6.104521300861408,2.224934876245942,-1.1183532201008395,-2.9601043833255103,4.798393175840883,5.9890588886968805,-1.0732031900903938,0.5114901862713925,2.3783164565595927,2.5942768160680405,-5.202678014468445,-1.4485614511933083,-7.503409681868115,-2.2453959415181366,0.15744844534682567,0.5750812804098249,2.1057215807542824,4.054185663683121,3.5594839446481954,7.274202223169471,-7.0983892964397395,-5.794546655195343,6.58864302461878,0.5352991313334456,-8.605794589121182,-2.871842055313733,-4.436863648798452,0.0,-4.214533702525795,-1.8575384507875612,1.8084661323724196,4.260374797221304,-0.5050250785462918,1.2189822898489933,3.3864468411840334,1.45493855870115,0.0,0.36898985120284944,3.846220504892886,1.0965824681166731,-5.814749821792241,-2.0783910017654232,-0.4356240069779379,-5.064478807521545,0.0,-3.6446013075312536,-3.3235167155339345,0.2699866258104747,-4.442601327995775,0.31878433674307205,0.037490108447045145,0.08134519615419045,0.24547266076669882,0.7716905966611194,6.588014520724569,-3.7171708631020515,-1.770732491391541,4.870203485679229,-4.666946437952547,-5.87440478860313,-0.9473986582824245,4.800594332467171,1.1428357869381425,-3.460777813419604,4.272463083798171,5.409235587466525,1.956796770978896,0.30170299789123123,-8.72494708916975,-0.8416519680735653,0.0,6.164702784746912,-0.9637774594267375,0.625882233064496,-2.201877935144862,-3.9362018332790703,3.2653081618108892,-6.348994929441661,-1.4062471920396857,3.7111248425316576,-0.6237317557590856,-3.626700607473699,-6.484149720276359,-0.20110158244394105,0.03940216239599559,-6.095527565661609,-5.729867186417831,1.3551287072685057,-7.399339618163624,0.12301153892897043,-2.153006872664986,-4.389517975935971,5.2199924262281225,-3.21411476870658,-4.868554947303416,0.17928358369318165,-0.2685554989559953,8.388107127450777,-1.8150200892905732,0.0,4.175083404573626,-0.683274850158347,-0.6209243984459764,2.143044136534717,1.6646351609602101,-7.294794324386373,-4.412677258409226,0.737630001779841,-1.2407892214357878,0.6892472679741845,-6.606329044887435,0.009785454713616915,3.038239717935277,-7.569465084735969,1.137662314010942,0.8144427038330027,0.0,-0.4826782228391342,0.14563929820589028,-0.7384359701936762,1.9396353833338646,0.5267005643285706,-0.8383843020480959,0.12205741838901862,-0.11887126420320082,-0.5465752699968078,-3.79672086332182,-0.32345905769503136,-2.2300127596321966,-1.1982004343721342,-1.1489803735449886,0.0,-1.037193671603164,0.7323869998326995,-1.8990024052588952,-0.33217803828533043,3.7953112971245204,-2.4745704396712123,1.1146203051999768,-2.5404258256272745,-1.1975089862579036,-0.8982636902709732,6.149434964728124,1.8676969711006253,0.5618235418999582,-0.6366092051702552,3.703519965229791,0.43929585387676084,4.294011970955883,-1.2502486138214262,-1.3146413021601404,1.4417964583920189,-2.54855717514964,2.7435320763041284,0.0,2.0585465795027167,-2.5160747630849247,0.4707341082629697,-3.7913857195218412,-5.110720479114683,0.0,-0.2475195452307557,0.3885075435561959,2.609643833903788,2.231618720123011,-0.6385286656557384,-4.554406827387841,2.975391977186499,-3.3927992749903213,-0.2861871095793078,-5.0487267742398165,1.3432631908452923,4.436594917284959,-0.41663740570380825,1.8604695179357278,-0.629613735655707,6.8186906046833675,-0.5469077328125717,1.942678399273424,1.108973547672542,1.3973706839937785,-9.967801789888242,-5.910917422430091,-0.11363658999427795,1.6985948713042431,-3.9469148450042084,-6.641949579902833,-0.009244658898579616,1.8605524056598208,-1.3976684208564967,1.4637410243681932,1.018251842311162,-1.4332483650279413,-6.80621634994638,-0.3730589074633084,2.3472604288076813,-2.4639497249094293,1.183439815205051,2.1537989630610377,-2.3148269914216737,-7.530182231345887,-1.7270732541934934,8.142005767438018,0.7322473976175484,-0.8728039136409301,1.7220336825365774,-7.065166437491675,0.0,-4.330622377538608,-3.589992995031411,4.714932646872002,6.5567546150769624,-1.2245357525931104,-3.534455885145771,-1.820003696901312,-0.9165554963523528,0.7200785080390928,3.2836765299037296,0.8030720562448487,1.351840507799909,-1.0616155328891428,3.8616081118014347,8.279783570233192,-3.933607128950318,-1.8831191804333711,0.0,-2.9874390750134205,0.16250753854691047,-3.1692704211959573,1.4459187600592505,-0.8839497537855412,0.9931578724924368,-0.11182863793180342,0.6319199373291801,0.9250837953334808,3.6946926657075743,-1.3653875295154931,-2.824244969848075,-0.7984335425525734,0.9695115961300571,-7.092982184585086,1.2283306968036327,0.018839195491700655,-0.1353218522519024,-3.604891471265174,-0.5947722648612708,-0.4596152321215212,2.832645223361943,-0.20939856571840143,-2.9983273493942484,0.1334442537899292,0.7230433225924777,-0.6429597994775893,4.4591650952561155,-0.8510656451622645,-1.2243571370510304,1.4828111608567118,-1.2627896941217047,0.0188616739093892,-4.839865553738561,-0.6866567481792765,-1.773028289225142,-0.26532890536277876,-3.7352348218368805,2.5421645244958544,1.9948764908665562,0.08103533362778381,2.2688086686771274,2.991966803477472,-1.398296712605482,0.0,-6.664778243378357,-2.262426475763706,-1.114207133108581,0.3867819665286768,3.4978312405520446,1.34143525212658,-0.1250860983635086,-0.07050115931313439,3.8517796401269986,1.397173608495153,-5.021830796632784,-1.7083765712952867,-3.6888635847352185,2.235802467721984,-2.968927733564277,3.1354861465537347,-5.864653012689181,-6.226747104675807,-3.7452916211457072,-1.0847716234124636,1.6873474816608824,0.7642204437998819,2.7629252930903823,4.928950546924735,-1.5615642784197048,-8.11612282937019,-4.344811400093227,-2.116923641306979,-3.533810161746467,-0.6541598396845829,-5.537137661065099,-2.987150320257273,-0.9187645512706828,0.6071775104611123,1.2363809371748373,5.095765054850812,-2.0525247148768675,0.0,-0.9446181827588651,2.1885089829288713,1.2375295215102422,7.273978474125042,-2.007996224322691,-1.6641703009822617,4.338222646170384,-1.9908532964489343,5.57192934807753,3.067482783158183,0.7392234181189249,3.901974462822232,-3.135519765288466,0.43978428234678624,-2.6189170545400033,-3.6878887038323422,-7.301050701438705,-6.191385437562455,-2.3982879726329553,-2.49781781855616,4.160257846748901,-2.304973414936416,0.0,0.4518806463107211,-1.4277655355906267,-3.938030059893649,0.0,-0.5613825045368542,-4.0194467236039895,0.2846497676677432,-3.7798748712517867,4.175816104566605,-1.1456333327506174,-2.559819030853207,1.7884591444966143,7.690262213479084,3.641257477466671,-2.4739032292524166,-1.1393373685014803,0.4555469001762674,3.554998957531814,2.400708367310485,2.245241680364143,-2.777866779842327,-4.961227076828759,6.833485822866644,-0.39182652156923226,-0.8084271124196871,-4.561574317144271,-4.846085359247102,-6.234156398265839,4.446833782546321,1.2981241324535342,-1.0935381050761146,1.0264737448896564,0.5357249874994717,1.334584881666641,0.7757057111859097,-2.4440659828907565,5.486807755580339,-0.6054109412635753,1.3375560222704908,0.37963247850635373,0.26215987594318846,0.0,-1.5512279584807067,3.204729645654116,-0.9574231719370915,-0.11504389691222805,0.0,0.11754684635809942,-5.663734420008742,4.038821269392558,-0.7955588288862684,-4.405043948158784,-4.152992682830985,1.9655579243820587,0.1728461160824586,-7.477832901866954,-6.034915980114111,-0.6837018978968445,2.216471154153694,4.332190381148514,-1.9342960371088442,-4.9942735200512685,-3.6998311461246662,-4.469068381094311,-0.6626227116150081,-4.371994069994028,-0.23665351867101903,0.8705535273834485,-1.164246363300807,4.242836557706348,-2.5378080506946987,-2.81041386784184,-6.645476279538307,-2.9700732218108112,-0.26749704765451454,1.1828848118487778,7.498199843295185,4.920098020937319,-2.5891659411641905,-1.0074818796644258,-1.3970963578718862,4.471393024102063,-3.785670270922175,0.29688961566185235,-0.8453417046708864,-2.6116463243185293,-5.411384170983522,-0.27855932494483426,-2.8116756059607932,-0.20161693084855525,-3.7569052618527863,-5.519780772485754,-0.3579280665874214,0.7456173874957452,5.821978972770469,-0.915958104573178,-0.26162807112128617,0.5522510551111315,-1.7160255290372928,0.8029702035039699,0.9550178555947402,0.3686440750410689,-7.620918386470164,6.530858715110755,0.6146357380509594,-7.936344919982467,6.568186550300741,0.0034946653022074337,-0.1989458950953077,-2.069504346985327,-0.3212358036078794,2.32566416197167,0.0,-0.3816050459974605,5.635939781693935,-0.4550163415249079,2.8289466880904808,5.943168885148164,5.95221138301527,4.072269069866142,-2.787318589307293,-3.5489917130496202,-7.0436483095588045,0.028852290981949302,1.8566589843194334,-3.842160757391839,4.911876789096487,0.7422280687232524,1.4486905183061456,-3.2422984911799,0.12252937295254152,-0.3019387327919749,-1.8147838142104877,0.03969891241894641,1.1689744683889387,-1.2203991199598354,-3.4353367111626163,0.9709471889041486,4.594289489852377,0.16440904189123873,-3.328284387397784,0.0,5.4963597558698325,-1.2161285556563834,0.24390541393441012,-4.410511170381098,3.9853919433354714,-7.105903209446107,0.0,-1.1658604615247747,-4.638468077036214,-0.4282917966156967,0.0,-0.2664584750050427,-4.112687412120323,-1.409595907611783,4.413016447066564,-2.1306981184629463,-4.191149253734682,-0.9836295308694813,-0.9062460160438642,-0.3497526659542681,-0.8540506491600073,2.3518275762293577,0.0,-0.2886470983424252,-1.9073770363940044,0.2604562372024235,-6.7949454053130385,0.0,3.0797818349832626,-0.3602853873511478,-0.8390413581486613,8.467841601605963E-4,-4.155116246802585,0.0,-6.150512954296052,-3.8487596698389575,-1.456933799154352,0.9690730466378611,-0.243268428029643,-3.3503897586602727,1.457697543535343,0.7729753771455347,-3.165593402523492,3.8404103537450944,1.062919587579653,-0.2865764693834092,0.03227803830173581,-5.1302703151494,-0.14512115447150686,-2.9865791312472103,-0.24321718065576492,0.4354394193180614,-3.854014889084285,0.0,0.0,4.1584626199686205,-0.2471009010240851,-2.9605268075097535,-2.4107648687687204,0.07063565203312061,-5.541551446886122,0.6566520909882015,-0.3321194241375812,3.487857832731281,-5.91375415169667,1.1875513513840557,-4.703216726687374,0.8851845512436758,0.8423688958441589,2.1460329815357397,4.944701614259685,-6.040798399002815,5.200820652628621,-5.405478559073659,0.0,4.580088465563485,1.8121568016529366,-2.6448877293177775,0.2093889882285659,3.0291140282820392,0.32611414256402127,-3.377494576690096,3.2075441582521163,-0.5389074906711797,5.759975546513283,2.6520169076735356,-1.7450784745434589,-0.26955719617686635,0.04581048700260659,5.122865948859392,0.5828768165193434
-0.5994882604149989,0.0,-1.725726187811516,-0.6818782818297936,2.8041693241440586,-2.2465387227748175,-6.791711666660402,-0.6463594967507724,-2.7580167444744346,-2.9152402983130954,5.6276742809324825,1.7054622485428184,-4.9688215061767895,-1.4717693644065655,-2.0988303895858595,3.8523621648886106,1.4874002212597792,1.7101800605658966,-0.7949018178316836,-1.9450897181905864,-4.023480292639462,-5.143911610795518,-1.3406743110629038,0.5636230497699439,-0.7867056251052582,-0.6440935471117799,0.0,-2.003013784444285,-3.4474158318080548,3.2733478352938046,-1.1933220355017364,6.237421592127214,3.3704490265886866,-3.8540348601827867,2.65899882101613,-0.3454241440653276,-0.34787391364063724,-5.916080722602323,3.4121258446403253,-3.407319624313754,0.969406583715922,4.1340052734513275,6.514436182997924,1.3667159687940305,-0.6470372128399533,0.3299290345476905,1.0204549627457327,-0.2540431604565234,0.8013462842958267,0.0,-0.9043938119665529,-0.9108643257783575,7.359104493818937,3.5968959666959304,-4.257920799932952,1.972671248817444,-0.5208929709141149,3.2822555833877076,-2.0462683446100165,-0.28654197455928765,0.0,-0.4737739409817445,7.252611775879461,5.415492410588271,-3.276412637242359,-3.421768285778684,0.8346477130593727,1.5809369504308615,-1.5345733775805916,-7.0435201746792595,7.455211692345988,-1.9915094292197333,-0.7636467716624664,-7.988194364128473,-4.5382026824938215,2.088867883791616,6.474925352603475,2.755665790075197,1.0203012842281725,0.5792270668854218,1.5277952960448573,4.085537499483019,0.26655241190428225,0.034968065559481065,0.9351063989125444,-7.17505559157036,-3.1895015434114997,-1.6757989836233655,3.9484789309980046,0.8366982447862374,-0.6421415915274395,1.4497291098377252,2.6637019237412227,-2.7569844263717327,-3.257115029050027,-0.8703876483307615,-4.272386964464632,-0.8191886404710256,-0.9878498044734074,-9.342597441170778,2.1661999250812145,-0.9551386478568462,-2.6540844533190464,0.0,3.1415878459830395,1.1886194958080467,2.648178829567689,-0.6986011193732897,-0.839259693048124,1.9130482898604155,6.527800685267224,3.479996024716376,-5.428035172162363,5.088170298241403,-0.6760176600443353,0.97572300396411,-0.17810072999355886,-5.628808509909334,-1.3671087209982002,5.309285918973807,-0.30458875470253055,-3.731880118141829,7.226016122313585,1.1022587037578353,2.484950973686586,3.194994920757509,2.156274317526326,3.9335021622522195,-0.5589256987388747,0.8449254763555807,-2.500737963560382,1.3285380111456473,-1.2314329678532578,-3.711280871530711,0.953895888707714,-2.4053190984296613,0.4915663828196364,0.01335051548275068,-0.7900550834880278,1.9904969238806247,3.435234784408193,0.7914358270693154,0.08493205664990855,0.0,0.9385851892398571,1.5542022918962806,3.4715300546482637,-0.4762173532378444,-1.0147389894952368,0.0,-1.5295442369735746,5.477155334590706,1.115441401810443,-2.507647005352185,6.912448136104773,-4.984551067845809,-0.21165313723988466,-1.4654524406677933,-6.653642941569451,-6.6593305160825595,-1.0413393695255757,-5.351090915663566,1.7680082161552646,-0.8086122449286576,-6.759898331936557,-1.8423934757070701,-1.3296042524067513,-1.121631151405788,-6.175757267235667,0.2591056588527414,-4.275807888576707,-0.8326979945040324,-0.7116850298974313,4.505311919049456,-1.2553931164043104,0.6687267474828615,0.15617961691740423,-9.662741097093729,-3.3773416124308397,1.8771219867118023,-3.8410104427968714,1.4612495569052646,-1.5827678436881838,-2.882734183454762,0.9011350332214432,1.2609656314853606,-0.7716044824014151,-1.3048427436313486,-3.443080020655164,-5.2500160768097555,-2.1155111507539632,4.173468468604702,-5.78675551787776,-8.296845033725566,0.0,2.5259642734536465,2.2246118144275937,-7.47158208445669,-7.62804928569525,1.0677515908778852
-0.8629588813997958,2.2935138152633394,-4.8034605861655315,0.0,0.35260471244815683,3.337358307189989,0.5666759057600743,-0.9105786993731577,-0.9520651789528116,0.0
8.030845441882253,1.8993275463643662,0.2481770166507682,-6.121891882619086,1.6695714481118817,1.91855894427589,5.86971722675942,3.709746818124513,-3.8714615906430225,4.8325616130314675,-1.0064969264536516,0.0,-1.9044102889761099,0.0,-4.9858172635782605,0.4125503173090814,0.4497089450284386,-1.5450308461841227,-0.4708615421361866,3.3155785536507048,0.35809358951806924,1.7366198957900143,-1.866402142232164,0.1696979522787232,-0.44660905236800086,2.7840631173563968,-0.3181085018015757,3.4070159686958004,0.787308401368783,-3.391680123949471,-0.8186766658081992,0.9347804547240604,4.831821821602994,-1.101115832084557,-3.917920700927146,3.910212865409249,-1.3686289678316976,1.6396864197627736,1.453525282418009,4.943423765126478,-0.9637402230103154,1.8211592576077105,1.143895004597688,7.825013213801619,1.4457270884741937,-4.300826010458232,0.0,-6.170157615951516,-3.039851724036412,5.727240757911267,1.1426505567906506,-1.9674190771159066,1.3220742467135889,-5.227641788773474,-1.4946625317251878,2.810037801120367,0.0,1.2890743646899065,2.7324339101762534,3.865816425934609,3.7991906493536014,-5.570408352912386,-5.938647589024176,-4.732520489408669,0.5656646232593843,-0.47043752210163525,-0.12560786692827897,3.068635369439895,3.5532951815310065,2.094178422662157,-0.4741160634591699,5.81154823607105,0.5043762500401181,-2.0322936223179378,4.919546051458716,4.0039707453818565,0.41729058419079523,0.34629935631367803,-4.02011972545833,-3.4117965139532274,-4.208853793422736,0.2555135751660015,7.164021401707609,-0.5626413252993674,0.0,6.803295920067054,0.0,1.4590468409270838,-0.7065251855570903,1.8348601823200283,1.2978636407632502,-1.8882688602251314,-4.7243297971063125,-2.061517201767245,1.1143182329866896,-1.306142027446617,-0.6726098075585741,-7.345959212146476,1.4706876242683395,0.27174460351753615,-2.4773115920574034,0.927744769266305,-2.8289352188803,0.27052682512568893,4.658647471444246,-2.965393269703742,-0.03929919390132963,0.17479609249613715,-6.799297649394975,4.488595680870588,5.1958064158556905,-2.031833535325906,0.570876324449425,-1.0702554125207224,0.17508743055652576,-2.314539102558333,-1.9520133679775817,0.245875041235601,4.704561659785555,-2.48995744104577,-3.45822784270757,-0.3443170731912011,-1.455823130030631,-0.11775574662097466,5.1243703585685685,0.7978384931157858,0.8126164958073785,-1.3292285529951222,0.0970232363108392,4.70365167801666,2.923814617453219,0.36015590839075595,-4.082591367679649,-1.1851644046639733,1.1112236434139442,4.206280366412814,2.0746145460416923,-5.756152118044102,0.26291319596939977,-0.7433808593780964,-0.3894133359916474,0.8040687603154983,-1.7724352143732278,2.2418845094785844,7.641217626214555,2.0433926522099206,-5.874559316347271,-0.9667097513277889,0.7189516638912841,1.3106688106831799,-0.4928478837556213,4.681530170787371,-2.2669126186388255,6.423976355539679,0.6846541433302047,-2.5083851137914,0.37359471021675805,4.828155337682295,-2.8619253143378245,0.9648880329814915,5.028263492511844,0.6837249793011335,2.631703715878754,3.8749850239502734,1.3854169302413215,0.34248084903480724,5.022821741680006,-0.8193957810202808,0.0,0.0,-0.844850430186858,-0.3665785978245306,-2.785918829328101,0.12312977099772748,0.4794180448974732,1.982841734140278,1.407458094295245,-1.7583106518734692,-3.9221050152968635,-1.9411411084298305,1.6364771863334469,1.9866835714286784,-4.1229468494063,-4.6238473069202835,-1.5222420096621585,0.21701762054034834,6.367159455885136,-0.04519058911852125,2.1520372646411774,0.5451964271150167,-0.899982409992908,5.340226855704155,0.5189893799140379,0.0,0.0,-3.5668173166489714,0.22489481459028815,0.11729710123986692,-5.353236514659963,-2.8488436002986455,-0.0650348040301647,-0.5590338039212372,1.888056724662021,4.336948695882168,-2.323976171637306,1.8485004481340828,-0.9403490622623931,-6.4299784792217505,-1.6240517985536527,2.823219078249117,2.089678889095227,0.3261490007587051,1.8244012065801076,2.5485134431426704,-2.0791159486745525,0.0,1.7961802383386332,4.715342422966657,0.0948246753632187,1.9394335405222503,1.6633893990099076,-1.809925474272589,-4.468487615819259,1.594041922593513,0.0,-0.2028600031567822,0.7559137318584075,2.9459842810127785,0.4623310787367382,6.251045611841269,1.5250371892586085,-4.474977710668401,1.5739548778174834,-2.6966369912414185,0.7187339859109758,-0.12619715191323033,1.069798420368934,0.5227400363639414,-2.504330400790452,-1.636951150723764,1.6989762018849648,1.5758127770675523,4.653077990315684,-3.9525682246268894,-0.8174417596054756,8.985938347613965,-0.2331625349812736,2.6381860358791953,-3.1515391290065176,3.8259460217254864,-1.1674365508184175,-0.818711814479852,-2.335161873124263,2.231302518741085,-0.9184543204622544,-0.582178313672342,-1.2967783793746475,-4.682564254223924,-1.9820658730027603,-6.799853957595989,-1.0825678797615828,-0.3486272224465723,5.048158820641589,-6.072725860940284,0.0,0.0,-3.2334173688506813,-3.671981397447622,-0.06634463484300479,5.013783652046875,-4.315871249422959,0.0,-1.0373603925894734,0.40918784651613027,2.480254325406923,7.739163452800387,-1.5192782788535455,0.7473220477875503,3.888435120516577,-4.887953169666522,5.774275189792266,6.910391120796871,-2.4947754770834196,0.7900234048084369,-0.1458581736185609,8.686424912824108,6.0488621384359735,-8.953322618283647,4.350719909654327,0.035786158242979704,1.6985198173931075,-2.7839332141005126,-6.6046283724441555,-0.237842183818069,-0.6608560361520877,2.3658719790064486,-5.392222994598052,-4.654376064724601,0.0,-2.3851928682817807,-1.471635436901873,0.20839307128314966,-4.410994246491251,1.9037940619662266,3.809020435877117,2.2123403525737286,0.20421940745675737,-0.40497794801782494,-5.417543897186436,3.440323385727162,-0.8327498569542899,-4.1118708680401745,-0.7436528973570968,0.9233123538608389,-1.4616257797600598,2.2739003507337854,7.478164114137892,-3.455076715761342,-1.7842349064729106,-7.076284425638017,-1.2398802820016215,-0.8103827661214691,1.245122450532948,-1.228888188890448,0.0,-3.039190682255484,-1.507177048517071,1.059598393227474,-6.050579552045618,-0.6804248994744357,1.3401219643554367,-0.16785990365156,3.302154983161692,0.8810141326753519,4.002734224632369,2.0975360529037856,3.2860948273040185,-3.990094156183299,1.2175332267293015,-0.6354042392960269,-2.654819791125673,0.8715701449697576,4.586718987937367,-1.192645849802199,2.468706555187521,-2.9608403135896344,2.1608849416715454,2.2385642384142193,-1.8448139387406424,2.738906557433452,6.448760487333864,8.07249214493226,0.15450735822175587,4.857408990182405,0.07550141507227637,-4.437292629946228,5.183234522239635,3.7205069444841197,1.8644342398583513,6.616579131429619,0.7243314016399771,-1.5415072588141743,2.5897993474879986,-3.935104249042531,-2.8133965067704416,0.7898190517721299,0.45371179176411514,-2.746651085699529,-0.1908679554168623,0.7412116034407725,0.5003090297582976,-1.2399886953609751,4.437201580387843,3.175538363747361,-1.8921044115528252,0.011882291129955092,5.588695593180059,-0.7557993250703757,-0.23742076381232602,-0.531004883901181,-5.988650733740526,1.2137448681958012,0.9034891283482872,2.4374023892458787,0.2859271900861238,1.6349174993522757,-1.6507039348568533,0.29188895012319194,-5.741628444410929,-3.6641041034471655,-1.0559288231148685,1.0338651591307717,5.6974212564791955,1.7113565071549537,1.9330405191667615,-0.7218574665530886,-7.33537273701677,0.3950043916886028,-2.8637451158554947,-4.571681534161371,6.799846317269551,0.6689758878624306,5.672433526145922,-1.2994988157582812,-4.6436874739883,-0.642469867630831,1.7842520001661166,1.4649034156289724,-1.005428714574847,-2.8231773387782675,1.2060061690158752,-1.9706907651951564,-0.008648710291123685,3.1223521989414706,-2.7892343806559605,3.198817729014677,-1.129461371741376,1.705917835503152,0.26909252596238,-0.5651726273949542,-1.4574600715902817,2.838150116742965,-2.736664423114899,4.323586339261198,8.401589124544918,5.518448040293849,-5.723527101014074,-4.911234419243769,-4.776233322861307,1.514725341239754,5.530972477405874,0.0,1.1016393872801031,0.31899526065079453,3.776329580054681,-2.532261958234692,2.008162701467974,-3.780987396519661,4.3617623631584665,1.0352255847740504,0.0,2.596801749794175,2.447633257026837,-3.4558317053204384,-2.0755488322690514,1.4103168335909408,-7.354667940510894,1.5247615340244662,-5.895288386057818,-2.440671639163562,-0.8226327087147031,4.115694291686676,3.0338119860130455,-1.0623300346137445,-0.4682113007634543,1.1440722793863456,-0.34368272321804194,0.22740652233682845,6.665581795025419,1.0861579379421722,2.283607364269212,4.737812789814508,1.6723600352372774,0.6886630757303184,3.255585725772293,-0.28878605764826304,-0.5642569789009882,-1.4178484574231631,-1.5854157331712493,2.197057003445809,0.6586262196328085,-7.342069734149291,3.3644170105596825,1.1230535740737628,5.905097236266903,-1.1260756269959262,-0.656163671164248,5.914326865875581,0.05750799718891275,-1.0869471107325113,-0.18267336132202006,0.43385056507263886,-3.725984726009295,-6.461341828425801,-0.8024002722338314,-3.515622862272698,1.4154302611268523,4.388382974260909,2.452485395268901,-0.3782249485985181,0.9946722059399782,-0.4375522217921767,0.45935839627932085,-0.9914320254807318,-0.7395864226476379,0.0,-1.1902447214069827,3.2151150427432595,-0.8000959294246628,0.0,-5.738742991066373,-2.094685246982748,-2.6400492144469005,2.7702943230486783,0.9682646426121677,2.488839713644762,-0.574629932189005,-5.168409387738457,-0.1459044489443022,3.210065952798314,1.387337584277356,-6.7121555217358555,-0.48943268123905537,0.9382863639109116,-2.914867102315487,-4.364341829478657,0.1401440226571189,0.3741281557513604,4.859233227678539,1.2762494971574618,2.920208715920261,-1.8287592548935416,-7.066994440741048,0.055414906002669184,4.344382867160952,0.3135300112606345,2.1389661828471604,1.2724415483008489,-4.525606670506541,-3.916932217509897,2.4903978731806418,4.428399867076838,-0.5784346475585584,1.068239563347338,-3.730776869150904,3.365995664978104,2.803658670908824,-1.4211225067283824,4.602966038139871,3.666114199939388,5.768464922481908,-1.7900299486963624,-3.9214119721135114,-6.184806496940214,0.02701635401754554,3.2116807828100757,-1.3263912915389873,-2.219334919993088,1.671167925176554,1.3600660574953953,-0.6453304605138382,0.47867448094105325,-2.8845295789531677,2.46280484204208,-0.6443927460705242,0.0,1.6220770939297249,0.3570670097325397,2.1088108701928743,0.0,0.0,-7.3460232915591845,0.8903016117091493,3.432608212203908,3.906829693035663,0.8631279034711568,0.0,3.0549481674870664,-2.962580326199041,1.2014044192054762,2.147120272560004,0.8874390285325192,2.8535860972218217,2.281248735559662,-1.933727809903344,-3.903877809487516,3.9743306460579877,-3.31279066046329,0.03285274111224756,-0.8351449261165595,-2.5846139774121566,2.763002143429189,1.1582462045608057,1.3168109527509166,-2.7064732159177627,-3.2157647060758228,6.563080290102391,-2.7735864056204913,3.664760835370955,-1.7659478623757336,-0.009512015011413633,0.8842275946566861,2.1497631901535907,1.3134637970387955,-0.6877098249087239,-1.4683385173871626,-0.9662924533061507,-0.8028249949508666,-6.3212596417977664,4.190385944374209,-1.5753875194787312,4.619439729102849,-0.7773723853940406,-0.06533899544486577,-3.8943967692129853,0.1461537842817502,0.14294097695390684,1.5967397344189362,-5.676560954735276,-3.1346631582738693,-0.037227738519724385,0.8888666636113868,0.6443997115351942,-0.853980453094672,-0.5003310216391468,1.479839834335456,5.313979703224104,5.597710171458942,-0.030285623615646795,0.426919272987754,-0.6393318579440912,-5.34509986630359,4.165747273110892,2.853818822464056,-2.205531948963198,-5.428341940726622,-2.177395087097699,3.1087433474517434,6.792513502968517,3.447429873532431,-6.921673766224915,0.08147566016970265,-1.3848246625663685,-1.9033791567261213,-0.6319717172633504,2.076993132042184,-3.1029302463740094,4.362269800619687,0.8108902052449779,-3.673363327907829,0.0,1.5621598902707412,3.876346462957252,0.21862051792526882,-3.1086707162945246,-0.02153610465328204,-0.9691100304952444,-2.608929241361897,0.20277120674362226,2.0154639196315687,1.138896417765047,-4.271257232406051,6.3202579367632,-2.7315346216732364,-7.4914797248792295,-3.619909796081883,0.6872990007716142,8.95852461257403,-2.648575900010043,-0.18302149568415915,-4.329090739441752,-0.8624764431807512,1.3629904305744789,-2.039435239921337,-1.6658740423409044,4.336603854139629,-2.522607114200145,1.350575730090811,-2.063216395593552,-5.889840196016084,5.541861974150786,7.160636853279092,-1.2299614010482811,1.033162615996185,-4.1151011470824965,0.10186892434580985,-1.2683742273008132,-1.8902983225846792,-1.8118154957801789,7.771743644409401,-6.650596432482029,-5.69818772503783,6.039976521988141,-6.5345131014146975,1.9813796102381664,-3.9844101168329216,-6.481258241516827,-0.4686317601422454,3.015309436138145,2.547250667565922,-2.3739583476690873,-0.06857602126573958,1.528769413215289,-0.27515975400848924,0.15433852790677483,0.0,-5.6835011822683486,-1.0324528545626768,-3.0432583616168603,-5.321935168459587,-3.0837278100438925,0.0,2.5867725957925867,3.1587732256989045,-0.00443392125339237,-5.476578973699001,1.7711310203154769,2.4728780020567824,-2.538367066821214,-1.5034418476449112,4.387179074125715,1.2911458008371113,7.6576662607110935,-2.3228166383460565,-1.0349799330611433,1.6921784989126558,-1.1559187065494076,0.9362243509518082,-0.6855552428550209,-8.406290406946685,5.227887015959489,-0.38661312873340137,2.911062128501674,3.3752365183459987,5.896412275353322,-2.114842358180705,-6.205406727171179,4.0914225915973725,-0.24535474764303067,3.3936479603815375,-8.347488755477553,-0.5700805202916044,2.558806981207736,-1.7897595445649794,-6.0326697240528055,2.07935791478594,0.35660999235417423,0.0,2.826479615919051,-0.9677433541516136,0.1758411901757233,8.748474727677506,-0.996165537097796,-5.249110718700888,0.897262245461858,-1.050515051719775,-0.5897506746645915,2.801497238667834,-0.6064325927241239,-2.6703872823368906,-1.7928059720078793,-1.2879176926690719,-0.5084895987107663,-4.088527720850976,3.0290250950235182,-0.9377351435965644,-6.23627519655543,0.997723565262465,3.4155922725995156,-5.27529483769116,0.9173131462918838,2.626762723580777,-3.5166942298220167,-0.951724523596905,5.389349309439659,-2.647074483812611,0.035359520062414385,0.5176639831511272,3.0097084350164085,-5.360787224751464,1.389332925803645,-7.288956818657166,-7.068899299583472,-0.6768833927991142,-0.7800423700098362,-1.6388671126381336,4.815301129150431,-9.705343102835762,2.0708560001339245,0.0,-0.8336805364722821,-0.503273099800519,2.908503292220472,-6.933637826159266,0.17911490995937107,-0.30822853656243376,-4.841644593860108,5.54269714727156,-2.018921768640972,3.59304474706415,1.0008860618099782,-1.0414740952206514,-0.4615337355894551,-1.9445421124448723,0.3597966295066938,5.198449243996082,4.858284046968665,-0.7828129615792889,5.611569308740996,-4.509856387096056,-1.095398874810928,4.212159053612994,-7.213395433882369,-3.430661242906613,-0.7795125034863195,-5.567898126344297,0.11940559261077921,1.8018681907861611,-0.294188063898117,-2.3469694243410135,0.0,0.08491757227120933,-2.151762116199279,-3.9348098383226757,4.583899034746537,3.060849550071205,1.0872836515769366,-0.7815610969544645,5.526370455605972,-0.7891227531375966,0.7524819119288377,-1.9429021521052725,1.7039250757576818,-0.44566687085021073,0.9437759363232602,8.12657726156474,-0.7265920679020732,-3.3054346470728784,0.4552108092775796,-0.12293916238179903,-2.8455415389342664,0.15728041330395925,-1.5097669284469475,-5.18026772884206,-6.720114703102169,5.109157852177898,-2.6776569542741906,0.15256229895538698,4.750090033509431,3.846812244307936,0.0,-1.081112176797457,0.45699987893474736,0.2704378949359303,6.944677277030561,-5.197894519854051,7.357841562554638,0.1789590985097833,-1.1288651205024003,-1.3415916612017982,-8.626473320875734,3.0328628160369018,-0.015315111800560555,-2.5546898389923642,-2.5400099432545695,1.0968479568622658,0.3623858242048906,6.709971170049072,-3.242894207430449,-0.3937846129048581,0.47794582562493937,-1.4452526236750785,-2.211456103924878,1.5567531081301111,-0.06253919440451972,-4.532413577411375,-0.9607870432833909,-2.7008651396150003,-1.4473378952227811,-2.8993386037621987,-2.7664086990104675,-2.621993564187547,3.9950410891166754,-5.515726301605315,6.5985793802559325,-0.49445548240918324,-0.9650527167976246,4.290977693856263,-3.8458897304213435,1.597996677702985,-0.8647262393201449,-1.9793587518958178,-9.949294271692498,6.5898887602653,1.8124111762251696,4.761302902634765,1.8750695130068307,4.775460993670519,1.2580604833535398,3.7160571925916677,-0.8258795474509872,-4.0383747442899445,-1.8317592517811354,0.1902169669818301,2.321937752389215,1.4017737571400914,5.551047515435476,0.0,-4.794229773032289,-5.54716056444918,-7.260482266444199,2.817389995196294,-0.7712525302994755,-7.697260068630872,0.7321996823351644,-5.34698320572969,-3.8458929516777913,-3.421171841386457,4.958078837984593,-0.2127746454500129,5.0858849193939095,2.1251808285379097,-0.4138967857939788,-7.343953755153626,-1.9936699457983698,0.0305277268340145,-2.5724410867122414,-2.7937827272024753,-0.21132752586117198,8.94666910995766,-3.9291941824605265,0.24974973925731736,0.832809210109708,0.9306752861278582,0.023018945504579946,1.7410906913768551,0.0,0.01834955046600828,0.5761665670084611,4.521676972230648,0.39178173699766994,0.6907411407568305,-0.013827875019863711,-1.0723304429445197,-1.6296305137954108,1.196622447467779,-1.671428885690497,7.5049221395032335,0.04259118589462474,6.856590895362062,-0.9068551779240979,8.190145396652925,-3.6121334825346363,1.4836736305769769,-1.495324661506353,-8.024641331680094,0.6731169479090963,-2.1515952885684753,-2.3061104189720947,-1.2668545144796588,-1.2592395712693758,-3.223637407286769,-0.4851194229071165,-0.8502594485039641,-3.9369319546202,0.588049452565172,3.4429089193230906,-1.99847313844593,1.9496897853446762,2.911718549161294,0.6665392756139437,1.8112740633881268,-5.245067917925805,-2.238704128463233,-2.9506176355395985,2.0315014087136514,6.285675926737031,-2.2217583324340353,3.1954370160289414,-0.742127714178342,-0.7047616433557435,0.611312007381539,-0.5772712181269182,-0.2567555088598653,-4.278882412114892,3.478664057599761,-0.6397558606424851,-2.7294122630113717,0.9032251945613636,0.6569922285941113,-4.315176750045812,-0.4157706677527322,-5.440912811109089,0.15356075013635917,0.5677134885922328,-7.959068473677834,4.249427162018893,0.0,-5.180162790560262,6.763940470148038,1.8395051121673416,-1.6839349682214235,-3.4382043680681242,0.4911646573235766,-4.2766339332019925,8.737487383716234,0.1792559986167701,-5.798340514361721,-0.14007440767434887,-3.2982159879271213,5.50525739820597,6.920298432547904,-7.349410712355348,-0.6440104504604027,5.678743714633593,-0.811571570519972,3.9425413889031704,1.6064027536640602,-6.645154346891219,-1.4131996500835355,8.32214316431081,0.4769526170677365,0.0,-1.3884652625101954,-1.0076541515211002,-9.838465919237036,-5.107691072178352,-9.619445333975031,-1.9114680061619236,-1.2508695925402402,-0.05197467893074914,0.0044241646637221965,-2.285601754122042,-2.649939337607428,0.0,-6.326186477053721,3.0714200341401847,2.86070492352353,-5.6909085460047875,0.9126416979842961,-5.487468364468488,0.4536579650168364,-8.814388284824041,-2.8908102662228257,-1.4196893962098132,0.5626077967643806,-0.0105678422344474,-1.7151093658456058,-0.3989138993075416,-4.611558071251399,-1.966367280858801,2.9309997032455515,-0.33853567780175964,-3.323918378993265,-3.674403326149035,0.0,1.287869257065776,-3.0865651236868805,0.0,-1.3695011347796053,-0.9971188135461713,4.948499366099991,3.3849827250215805,-3.6796081149554847,-5.5628762069712,4.003773271074755,-8.530785773881595,0.11811816785456875,-1.885731596993545,-0.21370601101741515,0.6371921206643765,3.251137509166506,-2.967442813107933,-7.331683247331952,0.0,-4.326545410789766,1.2392118080618764,-0.6746986919362303,2.791677097036021,-0.9470671548110258,0.8204922210185567,-2.0425070949478172,0.0,-0.9146619853787696,7.276126540748295,2.0042892217907378,-3.6898370061292116,6.51460782582919,2.413989884128192,-5.25254893657266,1.3454824469029034,0.6236742826378133,0.9329433939283598,-1.4868974072356855,-2.051762832126845,7.53467488682087,1.845130553942694,3.361717445352312,-3.5775072141396778,-6.158358885490649,1.6841932224202756,-0.8058646269082952,-2.6025654155754863,0.0,-0.46871895823662324,-2.840786286875372,-1.7704594993632778,-2.778782322415676,1.579842908910345,4.341872311892163,-1.3009198202549017,2.3126394609594274,-8.203036489975418,4.394874748237065,5.735793771313579,-0.7260724018002217,6.654402879293425,0.8541621137770233,2.336546115101795,0.4681028847753177,-2.1304402354331944,-6.881390497523422,0.911913294957156,0.39674979955195244,-4.08994884604885,0.0,0.8218281039825556,4.743744116554989,1.0430271330951801,-0.8067844644178019,-6.3211582779243365,-3.654723675709641,-5.228689883781164,-2.31952179464739,-1.2808455034922557,4.624508940034746,4.8225493167057465,2.5144841361702395,0.7890927342096064,-0.9886232147089562,4.032937172034171,1.204629793128944,-0.13131109721701284,0.8996607902301139,-1.393066157922736,-0.9481019971227254,-8.04916036198508,-1.899570867705283,-2.584156386932241,1.9387577561070128,3.558098027968111,0.8443730438497773,0.6136046405833971,-2.6308568063169777,8.95106515198361,-2.1939137807826965,0.0,-6.3987230851181796,0.04864167692853183,0.0,0.009642747603144763,-2.4559929389104616,-1.6816579606806767,0.0,3.529568139639406,-4.7171610704085225,2.9492663254263,-5.57734972949144,2.38100632937426,-4.659513529582561,-8.08081246502712,-4.02240548264027,2.7872112598758716,-1.5789622709890327,-7.890838152802913,-1.2794138438926677,-1.8805061088684032,0.0,-4.5689630434146675,-0.11452736145563391,3.7797588805867277,-5.410582051757301,5.258489097360687,-1.4270651710959854,0.6444129877732344,1.7379312379211442,6.070339425913107,6.936343897692381,0.0,-3.2240830284834154,4.3194397574200964,5.724742074197604,4.854517163142298,1.6638378947696786,-0.7516176747051759,-4.1598124105022265,-0.8252295337486918,-2.022387223253177,3.8939284348742276,2.095623919910378,-1.520089970902844,-0.674619728640873,5.750134159921785,0.0,-0.17131403670040313,1.5115013700860276,2.7196335935528677,-2.5602316715295887,-4.92892754625311,5.593032389986539,3.4123228426832495,0.4794705361776649,-1.357294788048665,0.3521539109231997,5.361361200635024,0.45387761123842096,5.454028969236579,-1.9474597326079939,-4.681783147132156,-2.992316892541177,-0.27260817669738413,3.558727642985915,-6.466439005277328,-1.9133684318103017,-3.7891794135215537,0.9118938774174142,-2.5060097054952903,-1.0473857061132366,-2.8742182587637957,-0.5765434781065595,0.1470585258802548,-0.4272063253723922,0.15261575197803512,0.6474374767557554,-7.776429873487581,3.2653241138741658,2.507210678121677,-5.513787628236319,1.8028837124961847,-3.879713315906368,3.2286774304246766,-4.0350040151654,-1.9591161984363574,-0.5955477112467249,4.9781994909092475,-2.199147114668536,2.994097432008598,-2.4126858420356267,-2.099171087150711,-0.6793237792864883,3.049499220844453,-2.2523518979430577,-5.307011224477437,-4.236496877761347,1.3476332785064202,-9.53290848189527,2.8081284147729475,-1.1818134724218554,0.3166233411711141,-0.5678062962905838,-4.264395969046313,0.027299698103536163,-0.7350084194595892,1.8868231650584228,-0.26842162618409826,1.2778204485790379,0.5819179350465502,-6.887540868114974,-3.0055886170438164,1.280120573554739,0.03276440421899185,5.133657968403049,3.2435631782249406,-0.6753418607686978,-2.430982742908726,-0.8155591138356924,-0.6410485988646668,0.0,-4.6776587738645095,-0.6573752178474394,-0.2690899260548858,2.1693863896450223,-1.974066957438408,3.9380084261392097,-1.1253770519180584,1.5542018731891094,-0.5513854804354446,-6.789820347591544,0.43953197276180056,2.353313128663957,0.0,0.31516194438206024,0.0,-0.10340316469233135,2.28370445369453,-3.0508860575357026,-2.2796274213033474,-3.3640669563992307,-1.8701267068537306,-0.4327241255326353,0.23664197036115708,7.537681747905568,8.174277908463225,0.09114315368875492,-0.6157043778992735,-5.147481494752837,2.3029602173697596,-2.5321928924564427,5.621437279991439,0.5508438137270127,2.6578027774457422,0.2881558668559846,0.7940717451775652,3.2843285978205667,4.885826594978476,-1.3185713573040414,-1.8778895978688288,-1.2793920981015192,-7.48221720459032,-0.9730338561392132,3.577219975830509,2.8261067280977805,0.9157884637301779,0.0,1.386821093488499,-0.4653541143501183,-5.0339972376494595,0.0,-2.9825540394214665,5.491325826391322,-1.4444638709911355,0.0,7.8465730971171475,2.517800651612464,-8.782038563862823,-8.095702479910134,-5.925859928431641,-0.033382969354604386,2.583291267807362,-1.357128049563764,-0.6092041716354966,-3.8001965589289917,-0.6946086714564064,-6.486148638047764,-0.7559282052906517,1.6484869705656389,5.6273312955514285,-1.1952340490915452,2.876586106450052,1.977979373293428,-1.80678804082925,-4.118231709905006,-2.363087759128063,1.9999148843836743,0.9940400943306497,0.8994155747567428,-0.5474626972202776,-1.0796697344385575,0.321703472787247,-5.229557609288733,-1.1449681054712952,-5.170978800966562,0.975144280468991,-3.560841613670891,-0.9770316379424939,6.428437924892334,-3.7567344592875402,-2.335378619259326,1.2690639485607038,1.0577696455266512,-5.9486627572568205,1.5569664129426308,-6.669878444403042,-0.8602107694958107,-5.2223795514119935,3.553908662416375,2.8665254505774245,3.500434205545747,4.005065903583855,1.351950475683858,-3.697059999572646,-0.9919233229468772,-3.9153601697758065,1.8584006170009375,-4.092690864788544,0.6201261411945175,-0.3375237159421458,-6.885768071468856,0.7343971788949406,0.8469054896227222,2.9669479019252596,-0.09702029416006086,1.8340693511272774,5.085131478799856,-1.055015947736777,1.421796650211316,2.5068158504571825,0.05473127382252363,-2.97500128612742,1.657454984490816,-0.7423030742691906,2.874169431851472,3.821038746722796,5.723353640456379,-1.9354827292699688,-3.9250094759338277,1.387323658085132,-0.6043544581352154,-0.2916479061893128,-1.8780205358387096,-6.847800111834724,-1.0399347605586748,-1.839430468748457,1.0975180721885964,3.6417797532378184,0.45263859702195475,-6.032099108768453,-0.7564192729480395,4.797485542860216,4.755970691218038,-1.449299407298982,-3.1882807356777993,-0.8067269697847242,0.7434374365411975,-5.982721160342395,-2.9199393053312424,-2.8081729259062436,3.2181127728606804,5.444485975276692,0.557621637268117,-0.06850390087302527,-0.8436929500149826,0.7341993404821742,3.6932569897308962,1.9236666728237486,-2.1085675694724975,-7.360997107381497,0.8987364747371702,1.335216691529407,3.7097042102404165,-5.950606193985841,-4.4721320174247134,5.516029649748935,2.780058480130288,-0.8500616203208302,-0.6400151791006639,-1.3702491098702139,-1.502531315078274,2.85914450877272,0.15485695603223681,0.0,0.6999121478594978,0.0,1.4221872136734226,1.7894020182318706,-6.260398997458629,-1.9629555028464098,0.0,2.7236442911279126,-0.5147092712814016,-8.717556278703096,4.4623493741210005,0.5812283426345363,-1.4226387023285612,-3.7327259511827675,3.367184026589698,0.9277299782644901,-0.5740045361278454,-2.851244052666681,1.0506919590464696,2.9336931763696605,-1.4712635101635296,-0.47865421538762254,-5.481184349418603,-0.6603090810116008,-0.6175995131028006,4.429909721333838,-2.716696868940898,0.5228451035991113,2.9826027400990442,1.9543122738183212,-2.2418120736092257,3.220410194512231,-5.157602968603392,-1.5170271428344007,2.896250693168833,-2.8674098088917184,1.0858903223572578,0.3944455572729906,-2.7380130551840924,3.387665869209402,2.257712431297265,0.9971342211836717,-5.733690618049321,0.901744881845627,1.4569274689727774,0.6590106605129817,-0.043193027846224696,-1.1906904692446518,0.04137702271143584,1.2095909515487921,2.798505446779756,-3.3868298665719494,-5.974668535834399,1.7677230058818436,-4.657538948410763,1.6896748157184027,1.6164768437396266,-4.0605122325013046,-1.5192440192185894,-3.556555825064941,0.0,-0.36641655642043947,-0.2757185585853196,-0.01039537613933661,-1.7091842228636067,-1.2171247710454005,1.470317375566835,5.4374005697563685,-4.223381831030336,0.05479244991156085,0.0,-0.20661974017594043,-0.27817990287344463,2.873247763632916,1.224621863007979,-5.760105556480195,-7.078775559261393,-0.7093094427694264,-3.19700571208523,-0.46738777525866726,0.0,-0.5128026214791552,0.0,4.519107105857681,0.5281179897563328,-6.708270334105091,1.408882914555016,6.064023637469461,2.8581959219460598,0.7082004906856555,0.5244959520164532,1.8483222024826114,-3.1262644091528027,-4.399776470229942,0.6987692856347705,0.9647266001305049,0.0,-1.1529988111406773,