0.0055801101465347116,-0.0012286894356188917,-4.984308875891771E-4,0.002566783051342816,-0.002949741516689669,-0.0012421491214373906,0.0,0.0
-0.02256102211151374,9.756077778256265E-5,-7.225946880264313E-4,0.0035210697330735597,-0.004858477507800439,0.06215976649056281,0.0,0.0
0.011058588815745408,0.007139803315987751,0.0037480758611483185,0.03030537596231853,0.03218024387071874,0.0027027103202391556,6.17473672555815E-4,0.00553377841921138,-0.0030309556632051103,0.0030669848130110075,9.068697353856591E-4,6.63488086325052E-5,-3.186898168178866E-4,7.711467318596844E-5,-2.002516139870798E-4,9.345700264502237E-6,0.0,0.0,0.0,0.004894180878858098,0.0037473365210022426,3.6709661970566875E-4,0.013831799501351638,0.003066789344325021,8.677016301235855E-4,-0.009929579916479213,0.001038331121466419,-1.227255260125247E-4,0.002656422620021188,0.006439217539039773,-3.0939011247221914E-4,0.0,0.0,0.0,-0.010515663544169274,2.8082741506452397E-4,-2.05723670018667E-5,0.0,0.0,0.0,-5.487418302173707E-4,1.374299443365698E-6,-0.002406726394645819,0.0,0.0,0.0,-0.0011425053604439323,0.0012237527261913848,-0.0025574315546278144,4.672850132251119E-6,0.0,0.0,0.0,4.122489350770728E-4,-5.014102486283906E-5,-4.9804659004635485E-6,2.8037100793506712E-5,0.0,0.0,0.0,0.004360495799149234,0.0,0.0,0.0,0.0,0.0,0.0,0.0,0.0,0.0,3.1289681547149904E-4,0.0,0.0030557794426056446,6.652815128655033E-4,7.650731393450439E-5,1.0246280021861269E-5,1.0224245426565492E-4,0.0,0.0,0.0,0.0,0.0,0.0
-0.04277506311267283,0.00872740214072664,-0.0026188872270695423,0.015372433377225476,-0.03193702259977869,-0.00533475530699231,-0.0018191520472696794,0.0010242876728457685,0.006623016921919587,-0.008388720805006324,0.0014903630322811942,-6.630364320823772E-4,-0.0029948306660789042,6.648107502048723E-5,-5.6196787682375205E-6,9.980165517781416E-6,3.064617795443675E-4,4.668577961582886E-6,0.0,-0.006660997564033388,1.8978244076754043E-4,-3.915197611787126E-4,-0.004892704165524003,-6.842942263199099E-4,6.862191317765776E-6,0.002894997277792257,2.832968400300242E-4,-0.0013347057317735713,0.003958165972639414,0.0031188747110850877,7.217969812536584E-5,5.423407364815207E-4,0.0022747107624962173,1.6398600087518906E-5,-0.00740094740885164,0.0,1.844570231225988E-4,0.0,0.0,0.0,-0.00144371996665788,4.719634536331377E-5,0.0,0.0,0.0,0.0,-0.03596517683496962,0.0016859992107882038,3.458925623252337E-5,4.7280673911021925E-5,0.004876648685215859,1.400573388474866E-5,0.0,-0.0017236930675814137,6.537560650271482E-5,-1.1232142678885147E-5,-3.235197031909988E-5,9.640000000000001E-5,0.0,0.0,0.052053109452848224,0.0,0.0,0.0,0.0,0.0,0.0,0.0,0.0,0.0,-0.0012143777677012886,0.0,-0.012639210958409664,-0.0030211263579997677,-5.611453664341431E-4,-4.5511145513261846E-5,-6.232998379632434E-4,-1.0200006412687713E-4,-1.4902214748153519E-5,0.0,-6.708474621038263E-6,-7.97622067590082E-7,0.0
-0.004951515602470915,0.002173472130119098,0.0019341001594461809,0.0029781526568733287,0.01602538364725719,-0.001719068284480716,-0.002131269488028335,0.022256040691881893,-0.0017521436575713752,-0.002952073738036142,-9.784472301451793E-4,-0.016414884167038877,0.008834713776411344,-7.535666945716401E-4,-1.0005641336184415E-4,5.051833085147054E-4,-5.652518085010518E-4,3.392264573706499E-4,-4.3179207463557264E-4,4.169930389595153E-4,1.3759772382601403E-5,1.0092034402446482E-5,0.0,0.004235854332662226,4.152593722849981E-4,1.178179704704619E-4,0.03887436317079526,0.008214415731747674,0.0026220441113086073,-0.003193163880005353,-0.0015918369764583,-2.889229422338202E-7,-4.755854793002451E-4,9.291490427722633E-5,-2.092024151397748E-4,0.0010485316826363098,1.5816065487431384E-5,0.0,0.009144988711123372,0.007095806647520362,-3.3024756563780226E-4,0.00117651443818481,0.0,3.0276103207339447E-5,-3.3487042881374924E-4,2.8785829781162914E-4,2.3917644085782544E-4,2.227062553819272E-4,2.8668153339018033E-4,0.0,-0.01832271652666172,-1.6887044115250068E-4,3.924922088645606E-4,0.02015121944369897,0.0047952573226096125,0.0038312489101849324,-4.755854793002451E-4,9.291490427722633E-5,-2.092024151397748E-4,0.0010485316826363098,1.5816065487431384E-5,0.0,-0.013449017154238178,8.43583759694037E-4,-0.0024179298360857593,4.698954944685658E-4,2.4947132109457102E-5,0.0,0.007712739480895283,0.0018124758536295267,0.0019893004277306042,2.374928461833146E-5,0.0,3.0276103207339447E-5,-0.007288374556427309,0.004184953591002496,-0.002089259161203345,0.003445202939771534,1.4314630517845851E-4,1.4128848163425076E-4,0.0,0.0012083275599426033,0.0,0.0,1.2059286325343136E-4,0.0,0.0,0.0,0.0,0.0,0.0,0.0,0.0,0.0,0.0,4.240038402610276E-4,0.0,0.00633545046544421,7.137514822517902E-4,3.029291688623162E-4,1.45113843598501E-4,4.2158071771361186E-4,2.561835555783859E-4,-3.7612062455786834E-4,6.170754136989454E-5,8.487750553457608E-6,0.0,0.0
0.039447757129278144,-0.024939387857777603,0.005414118572443941,0.005546262639956365,0.05014839467374269,0.005745937257564684,0.0066078080663359885,0.002344219354293325,0.004103396635006219,0.005731325139618519,0.004656100276273542,0.032638753575768356,0.004736685632487915,0.004995362748241175,4.11096116813631E-4,-2.3855383244876044E-4,0.0035542405695838356,1.2287851796648252E-4,1.6588767516765724E-5,1.9478375257861097E-4,-4.8470856540995896E-4,5.45599514139082E-4,0.0,0.011749275578311588,0.0019047772319759038,1.548088597002761E-4,0.00433834720263704,8.68033577464581E-5,4.906103200063184E-6,0.01167497286043414,2.2395597288175104E-4,0.0,-0.010633190502345579,-0.002139994421245964,1.9013202641394213E-4,9.917445289735286E-6,-0.004249565837484513,0.0029086142217685206,0.002083486085884855,5.300617323782719E-4,-1.475165986862153E-4,0.0,1.1102928604158794E-5,0.0,0.0030121326342313335,4.180591363649028E-4,0.0,1.7801808279056226E-5,0.0,0.0,0.059922775554100735,0.014036436235303507,-3.281123646519234E-5,0.013038927552884563,0.0023244982279565255,4.906103200063184E-6,-0.010633190502345579,-0.002139994421245964,1.9013202641394213E-4,9.917445289735286E-6,-0.004249565837484513,0.0029086142217685206,0.03493729476953316,-4.460745117088893E-4,9.820533208076435E-5,6.533718161300487E-4,-0.0014589176146760831,0.0016717696291192413,0.004084357742198674,0.0011954752457259328,0.0,0.0,1.7570367636089566E-5,0.0,0.03328998977926294,0.006149116370626669,1.8571465509588755E-4,0.002750355151160945,-0.005087572614248361,0.006443043558866715,0.0,0.004060740015325822,5.438979979704555E-4,-4.549418781900214E-5,9.177393260739655E-5,-5.957475863799861E-5,1.597177812178082E-4,0.0,0.0,0.0,0.0,0.0,0.0,0.0,0.0,9.538124457775539E-5,0.0,0.001974518079145775,1.969883266481714E-4,1.7643333933116672E-4,7.5282622816033046E-6,3.853819578827531E-5,5.361683434897937E-5,2.339918984362268E-6,1.4906227664141814E-5,1.0647659253971893E-6,4.1623514068779846E-7,0.0
0.08793344060036695,0.0,7.69891390783707E-4,0.0,0.00375375,0.007047888630657419,-0.005250962203513343,0.019930399086203397,0.04605933934637051,0.012283039159445142,-0.002679453827403952,-0.008764108858522593,0.055032531568353645,0.005367164077418217,-0.005526927440986937,0.005009364394457562,0.038940178523222194,-0.029418940752254645,0.026340047629910514,0.006612376383899934,0.0145188328401437,0.00448698357808813,0.005958104714094838,0.0,0.0,0.0,0.0,0.0,0.0,0.0,-0.08159458700106846,0.13654968050413446,0.0023391702643074776,0.10453318543380025,0.043526861415608964,0.005789992048212754,-0.08794797976394793,0.026501877953000418,0.021306159564592923,0.027100638713012923,0.025249815533864628,0.07728944711987544,0.0,0.0,0.0,0.0,0.0,0.0,-0.09005687867898388,0.1200838389577468,0.05825014896738013,0.043951752241230116,0.012064288553758018,9.238000030405017E-4,-0.30165851301813623,0.22933435917711498,0.09310078144550733,0.10154329857834414,0.0,0.09666904922846674,0.0,0.0,0.0,0.0,0.0,0.0,-0.02366879098463253,0.028044870895346782,0.0024938408399604057,0.0,0.0,0.0,-0.04670889701491278,0.0303233015293626,0.005405260486065427,0.0016007984845030343,0.05442312356704524,0.0,-0.19972009896352033,0.25627041077790236,0.06289772662330177,0.09923216106295724,0.042709787720191836,0.0600086237563611,0.0,8.739139078370699E-5,0.0,6.825000000000001E-4,0.0,0.0,0.0,0.0,0.0,0.0,0.0,0.0,0.0,0.0,0.0,0.0028910957058045925,0.0,0.07050308685116696,-0.030302498801622058,0.026340047629910514,0.005247376383899934,0.0145188328401437,0.00448698357808813,0.005958104714094838,0.0
0.1437068603146442,-0.0029769044757088667,8.553402654612358E-4,0.0,0.018595193456174056,0.0025973553225282107,0.019668753940219497,0.007599734348152029,0.049617794094903675,0.008117654986394962,0.002958806524132822,0.07218115412037157,-0.06501038563408235,-0.0033276786589088382,0.020117682518064853,-0.09516481658348815,0.08317864969181829,-0.011882094579982213,0.019892538668231544,0.004499847545650241,0.008689671920789867,0.004093574723215407,0.005163338085893381,0.0,-3.498510041150676E-4,8.34822784776613E-4,0.0,0.0,0.0,0.0,0.004615552915328646,0.017260867862453014,0.03940237570177443,0.0,-7.75010869310226E-5,0.0027587862268398417,0.008004339077370488,0.027388395822213325,0.0,0.005117614909735258,0.02155968872032077,0.0,-3.498510041150676E-4,8.34822784776613E-4,0.0,0.0,0.0,0.0,-0.029481066053524588,0.1437386692831151,-0.0062639567282897265,0.051806491156447226,0.012419019282175717,0.031397476633628664,-0.03271524187201269,0.060282945413672726,0.0,0.0,-0.01028126895935631,-0.0013352029364804888,-3.498510041150676E-4,8.34822784776613E-4,0.0,0.0,0.0,0.0,-0.03776671078504415,-0.01104671822176773,0.003586798365757164,0.005303126057988679,0.00982577475216721,0.02356166751585232,-0.02275663846763545,0.11704183852907328,6.828186368775982E-4,0.006960288848729023,0.017705530741466354,0.010077966167470495,-0.05889501594847863,0.21059923774560133,0.016788784161040602,0.07124777332777624,0.04944130639274872,0.029146514449969848,0.0,6.845109706598611E-4,-3.377303971362969E-4,0.0,4.5389451112498553E-4,0.0,0.0,0.0,0.0,0.0,0.0,0.0,0.0,0.0,0.0,0.005841585687572042,0.0,0.1298294667175543,-0.011249835535478927,0.01973317667772752,0.004499847545650241,0.007781882898539896,0.004093574723215407,0.005163338085893381,0.0
